<?xml version="1.0"?>
<opencv_storage>
<OCRMLP type_id="opencv-ml-ann-mlp">
  <layer_sizes type_id="opencv-matrix">
    <rows>1</rows>
    <cols>3</cols>
    <dt>i</dt>
    <data>
      400 71 3</data></layer_sizes>
  <activation_function>SIGMOID_SYM</activation_function>
  <f_param1>6.5000000000000002e-001</f_param1>
  <f_param2>1.</f_param2>
  <min_val>-9.4999999999999996e-001</min_val>
  <max_val>9.4999999999999996e-001</max_val>
  <min_val1>-9.7999999999999998e-001</min_val1>
  <max_val1>9.7999999999999998e-001</max_val1>
  <training_params>
    <train_method>BACKPROP</train_method>
    <dw_scale>1.0000000000000000e-002</dw_scale>
    <moment_scale>1.0000000000000000e-002</moment_scale>
    <term_criteria><epsilon>1.0000000000000001e-005</epsilon>
      <iterations>1000</iterations></term_criteria></training_params>
  <input_scale>
    4.0089186286863674e+000 -3.7416573867739431e+000 1. 0.
    2.5000000000000000e+000 -5.0000000000000000e-001
    2.5000000000000000e+000 -5.0000000000000000e-001
    2.5000000000000000e+000 -5.0000000000000000e-001
    2.5000000000000000e+000 -5.0000000000000000e-001
    2.5000000000000000e+000 -5.0000000000000000e-001
    2.5000000000000000e+000 -5.0000000000000000e-001
    2.5000000000000000e+000 -5.0000000000000000e-001
    2.5000000000000000e+000 -5.0000000000000000e-001
    2.5000000000000000e+000 -5.0000000000000000e-001
    2.5000000000000000e+000 -5.0000000000000000e-001
    2.5000000000000000e+000 -5.0000000000000000e-001
    2.5000000000000000e+000 -5.0000000000000000e-001
    2.5000000000000000e+000 -5.0000000000000000e-001
    2.5000000000000000e+000 -5.0000000000000000e-001
    2.5000000000000000e+000 -5.0000000000000000e-001
    2.5000000000000000e+000 -5.0000000000000000e-001 1. 0.
    4.0089186286863674e+000 -3.7416573867739431e+000
    4.0089186286863656e+000 -2.6726124191242440e-001 1. 0.
    2.2613350843332274e+000 -6.0302268915552726e-001
    2.2613350843332274e+000 -6.0302268915552726e-001
    2.2613350843332274e+000 -6.0302268915552726e-001
    2.2613350843332274e+000 -6.0302268915552726e-001
    2.2613350843332274e+000 -6.0302268915552726e-001
    2.2613350843332274e+000 -6.0302268915552726e-001
    2.2613350843332274e+000 -6.0302268915552726e-001
    2.2613350843332274e+000 -6.0302268915552726e-001
    2.2613350843332274e+000 -6.0302268915552726e-001
    2.2613350843332274e+000 -6.0302268915552726e-001
    2.2613350843332274e+000 -6.0302268915552726e-001
    2.2613350843332274e+000 -6.0302268915552726e-001
    2.2613350843332274e+000 -6.0302268915552726e-001
    2.2613350843332274e+000 -6.0302268915552726e-001
    2.2613350843332274e+000 -6.0302268915552726e-001
    2.2613350843332274e+000 -6.0302268915552726e-001
    4.0089186286863656e+000 -2.6726124191242440e-001
    2.1213203435596424e+000 -7.0710678118654746e-001 1. 0. 1. 0.
    2.5000000000000004e+000 -2.0000000000000004e+000
    2.5000000000000004e+000 -2.0000000000000004e+000
    2.5000000000000004e+000 -2.0000000000000004e+000
    2.5000000000000004e+000 -2.0000000000000004e+000
    2.5000000000000004e+000 -2.0000000000000004e+000
    2.5000000000000004e+000 -2.0000000000000004e+000
    2.5000000000000004e+000 -2.0000000000000004e+000
    2.5000000000000004e+000 -2.0000000000000004e+000
    2.5000000000000004e+000 -2.0000000000000004e+000
    2.5000000000000004e+000 -2.0000000000000004e+000
    2.5000000000000004e+000 -2.0000000000000004e+000
    2.5000000000000004e+000 -2.0000000000000004e+000
    2.5000000000000004e+000 -2.0000000000000004e+000
    2.5000000000000004e+000 -2.0000000000000004e+000
    2.5000000000000004e+000 -2.0000000000000004e+000
    2.5000000000000004e+000 -2.0000000000000004e+000
    2.0412414523193152e+000 -8.1649658092772615e-001
    2.0044593143431828e+000 -1.0690449676496976e+000 1. 0. 1. 0.
    2.5000000000000004e+000 -2.0000000000000004e+000
    2.5000000000000004e+000 -2.0000000000000004e+000
    2.5000000000000004e+000 -2.0000000000000004e+000
    2.5000000000000004e+000 -2.0000000000000004e+000
    2.5000000000000004e+000 -2.0000000000000004e+000
    2.5000000000000004e+000 -2.0000000000000004e+000
    2.5000000000000004e+000 -2.0000000000000004e+000
    2.5000000000000004e+000 -2.0000000000000004e+000
    2.5000000000000004e+000 -2.0000000000000004e+000
    2.5000000000000004e+000 -2.0000000000000004e+000
    2.5000000000000004e+000 -2.0000000000000004e+000
    2.5000000000000004e+000 -2.0000000000000004e+000
    2.5000000000000004e+000 -2.0000000000000004e+000
    2.5000000000000004e+000 -2.0000000000000004e+000
    2.5000000000000004e+000 -2.0000000000000004e+000
    2.5000000000000004e+000 -2.0000000000000004e+000
    2.0044593143431828e+000 -1.0690449676496976e+000
    2.0044593143431828e+000 -1.0690449676496976e+000 1. 0. 1. 0.
    2.5000000000000004e+000 -2.0000000000000004e+000
    2.5000000000000004e+000 -2.0000000000000004e+000
    2.5000000000000004e+000 -2.0000000000000004e+000
    2.5000000000000004e+000 -2.0000000000000004e+000
    2.5000000000000004e+000 -2.0000000000000004e+000
    2.5000000000000004e+000 -2.0000000000000004e+000
    2.5000000000000004e+000 -2.0000000000000004e+000
    2.5000000000000004e+000 -2.0000000000000004e+000
    2.5000000000000004e+000 -2.0000000000000004e+000
    2.5000000000000004e+000 -2.0000000000000004e+000
    2.5000000000000004e+000 -2.0000000000000004e+000
    2.5000000000000004e+000 -2.0000000000000004e+000
    2.5000000000000004e+000 -2.0000000000000004e+000
    2.5000000000000004e+000 -2.0000000000000004e+000
    2.5000000000000004e+000 -2.0000000000000004e+000
    2.5000000000000004e+000 -2.0000000000000004e+000
    2.1213203435596424e+000 -7.0710678118654746e-001
    2.0044593143431828e+000 -1.0690449676496976e+000
    2.9417420270727606e+000 -3.9223227027636809e-001 1. 0.
    2.5000000000000004e+000 -2.0000000000000004e+000
    2.5000000000000004e+000 -2.0000000000000004e+000
    2.5000000000000004e+000 -2.0000000000000004e+000
    2.5000000000000004e+000 -2.0000000000000004e+000
    2.5000000000000004e+000 -2.0000000000000004e+000
    2.5000000000000004e+000 -2.0000000000000004e+000
    2.5000000000000004e+000 -2.0000000000000004e+000
    2.5000000000000004e+000 -2.0000000000000004e+000
    2.5000000000000004e+000 -2.0000000000000004e+000
    2.5000000000000004e+000 -2.0000000000000004e+000
    2.5000000000000004e+000 -2.0000000000000004e+000
    2.5000000000000004e+000 -2.0000000000000004e+000
    2.5000000000000004e+000 -2.0000000000000004e+000
    2.5000000000000004e+000 -2.0000000000000004e+000
    2.5000000000000004e+000 -2.0000000000000004e+000
    2.5000000000000004e+000 -2.0000000000000004e+000 1. 0.
    2.0044593143431828e+000 -9.3541434669348533e-001 1. -1.
    2.1213203435596424e+000 -7.0710678118654746e-001
    2.5000000000000004e+000 -2.0000000000000004e+000
    2.5000000000000004e+000 -2.0000000000000004e+000
    2.5000000000000004e+000 -2.0000000000000004e+000
    2.5000000000000004e+000 -2.0000000000000004e+000
    2.5000000000000004e+000 -2.0000000000000004e+000
    2.5000000000000004e+000 -2.0000000000000004e+000
    2.5000000000000004e+000 -2.0000000000000004e+000
    2.5000000000000004e+000 -2.0000000000000004e+000
    2.5000000000000004e+000 -2.0000000000000004e+000
    2.5000000000000004e+000 -2.0000000000000004e+000
    2.5000000000000004e+000 -2.0000000000000004e+000
    2.5000000000000004e+000 -2.0000000000000004e+000
    2.5000000000000004e+000 -2.0000000000000004e+000
    2.5000000000000004e+000 -2.0000000000000004e+000
    2.5000000000000004e+000 -2.0000000000000004e+000
    2.5000000000000004e+000 -2.0000000000000004e+000
    2.0412414523193152e+000 -8.1649658092772615e-001 1. -1.
    2.5000000000000004e+000 -2.0000000000000004e+000
    2.9417420270727606e+000 -3.9223227027636809e-001
    2.5000000000000000e+000 -5.0000000000000000e-001
    2.5000000000000000e+000 -5.0000000000000000e-001
    2.5000000000000000e+000 -5.0000000000000000e-001
    2.5000000000000000e+000 -5.0000000000000000e-001
    2.5000000000000000e+000 -5.0000000000000000e-001
    2.5000000000000000e+000 -5.0000000000000000e-001
    2.5000000000000000e+000 -5.0000000000000000e-001
    2.5000000000000000e+000 -5.0000000000000000e-001
    2.5000000000000000e+000 -5.0000000000000000e-001
    2.5000000000000000e+000 -5.0000000000000000e-001
    2.5000000000000000e+000 -5.0000000000000000e-001
    2.5000000000000000e+000 -5.0000000000000000e-001
    2.5000000000000000e+000 -5.0000000000000000e-001
    2.5000000000000000e+000 -5.0000000000000000e-001
    2.5000000000000000e+000 -5.0000000000000000e-001
    2.5000000000000000e+000 -5.0000000000000000e-001
    2.9417420270727606e+000 -3.9223227027636809e-001
    2.5000000000000004e+000 -2.0000000000000004e+000 1. 0. 1. 0.
    4.0089186286863656e+000 -2.6726124191242440e-001
    4.0089186286863656e+000 -2.6726124191242440e-001
    4.0089186286863656e+000 -2.6726124191242440e-001
    4.0089186286863656e+000 -2.6726124191242440e-001
    4.0089186286863656e+000 -2.6726124191242440e-001
    4.0089186286863656e+000 -2.6726124191242440e-001
    4.0089186286863656e+000 -2.6726124191242440e-001
    4.0089186286863656e+000 -2.6726124191242440e-001
    4.0089186286863656e+000 -2.6726124191242440e-001
    4.0089186286863656e+000 -2.6726124191242440e-001
    4.0089186286863656e+000 -2.6726124191242440e-001
    4.0089186286863656e+000 -2.6726124191242440e-001
    4.0089186286863656e+000 -2.6726124191242440e-001
    4.0089186286863656e+000 -2.6726124191242440e-001
    4.0089186286863656e+000 -2.6726124191242440e-001
    4.0089186286863656e+000 -2.6726124191242440e-001 1. 0.
    4.0089186286863656e+000 -2.6726124191242440e-001 1. 0. 1. 0.
    4.0089186286863656e+000 -2.6726124191242440e-001
    4.0089186286863656e+000 -2.6726124191242440e-001
    4.0089186286863656e+000 -2.6726124191242440e-001
    4.0089186286863656e+000 -2.6726124191242440e-001
    4.0089186286863656e+000 -2.6726124191242440e-001
    4.0089186286863656e+000 -2.6726124191242440e-001
    4.0089186286863656e+000 -2.6726124191242440e-001
    4.0089186286863656e+000 -2.6726124191242440e-001
    4.0089186286863656e+000 -2.6726124191242440e-001
    4.0089186286863656e+000 -2.6726124191242440e-001
    4.0089186286863656e+000 -2.6726124191242440e-001
    4.0089186286863656e+000 -2.6726124191242440e-001
    4.0089186286863656e+000 -2.6726124191242440e-001
    4.0089186286863656e+000 -2.6726124191242440e-001
    4.0089186286863656e+000 -2.6726124191242440e-001
    4.0089186286863656e+000 -2.6726124191242440e-001
    4.0089186286863656e+000 -2.6726124191242440e-001
    4.0089186286863656e+000 -2.6726124191242440e-001 1. 0. 1. 0.
    4.0089186286863656e+000 -2.6726124191242440e-001
    4.0089186286863656e+000 -2.6726124191242440e-001
    4.0089186286863656e+000 -2.6726124191242440e-001
    4.0089186286863656e+000 -2.6726124191242440e-001
    4.0089186286863656e+000 -2.6726124191242440e-001
    4.0089186286863656e+000 -2.6726124191242440e-001
    4.0089186286863656e+000 -2.6726124191242440e-001
    4.0089186286863656e+000 -2.6726124191242440e-001
    4.0089186286863656e+000 -2.6726124191242440e-001
    4.0089186286863656e+000 -2.6726124191242440e-001
    4.0089186286863656e+000 -2.6726124191242440e-001
    4.0089186286863656e+000 -2.6726124191242440e-001
    4.0089186286863656e+000 -2.6726124191242440e-001
    4.0089186286863656e+000 -2.6726124191242440e-001
    4.0089186286863656e+000 -2.6726124191242440e-001
    4.0089186286863656e+000 -2.6726124191242440e-001
    4.0089186286863656e+000 -2.6726124191242440e-001
    4.0089186286863656e+000 -2.6726124191242440e-001 1. 0. 1. 0.
    4.0089186286863656e+000 -2.6726124191242440e-001
    4.0089186286863656e+000 -2.6726124191242440e-001
    4.0089186286863656e+000 -2.6726124191242440e-001
    4.0089186286863656e+000 -2.6726124191242440e-001
    4.0089186286863656e+000 -2.6726124191242440e-001
    4.0089186286863656e+000 -2.6726124191242440e-001
    4.0089186286863656e+000 -2.6726124191242440e-001
    4.0089186286863656e+000 -2.6726124191242440e-001
    4.0089186286863656e+000 -2.6726124191242440e-001
    4.0089186286863656e+000 -2.6726124191242440e-001
    4.0089186286863656e+000 -2.6726124191242440e-001
    4.0089186286863656e+000 -2.6726124191242440e-001
    4.0089186286863656e+000 -2.6726124191242440e-001
    4.0089186286863656e+000 -2.6726124191242440e-001
    4.0089186286863656e+000 -2.6726124191242440e-001
    4.0089186286863656e+000 -2.6726124191242440e-001 1. 0.
    4.0089186286863656e+000 -2.6726124191242440e-001
    2.1213203435596424e+000 -1.4142135623730949e+000
    4.0089186286863656e+000 -2.6726124191242440e-001
    2.9417420270727606e+000 -3.9223227027636809e-001
    2.9417420270727606e+000 -3.9223227027636809e-001
    2.9417420270727606e+000 -3.9223227027636809e-001
    2.9417420270727606e+000 -3.9223227027636809e-001
    2.9417420270727606e+000 -3.9223227027636809e-001
    2.9417420270727606e+000 -3.9223227027636809e-001
    2.9417420270727606e+000 -3.9223227027636809e-001
    2.9417420270727606e+000 -3.9223227027636809e-001
    2.9417420270727606e+000 -3.9223227027636809e-001
    2.9417420270727606e+000 -3.9223227027636809e-001
    2.9417420270727606e+000 -3.9223227027636809e-001
    2.9417420270727606e+000 -3.9223227027636809e-001
    2.9417420270727606e+000 -3.9223227027636809e-001
    2.9417420270727606e+000 -3.9223227027636809e-001
    2.9417420270727606e+000 -3.9223227027636809e-001
    2.9417420270727606e+000 -3.9223227027636809e-001
    4.0089186286863656e+000 -2.6726124191242440e-001
    2.1213203435596424e+000 -1.4142135623730949e+000 1. -1. 1. 0. 1. 0.
    1. 0. 1. 0. 1. 0. 1. 0. 1. 0. 1. 0. 1. 0. 1. 0. 1. 0. 1. 0. 1. 0. 1.
    0. 1. 0. 1. 0. 1. 0. 1. 0. 1. -1. 2.1213203435596424e+000
    -7.0710678118654746e-001 2.2613350843332274e+000
    -6.0302268915552726e-001 2.2613350843332274e+000
    -6.0302268915552726e-001 2.2613350843332274e+000
    -6.0302268915552726e-001 2.2613350843332274e+000
    -6.0302268915552726e-001 2.2613350843332274e+000
    -6.0302268915552726e-001 2.2613350843332274e+000
    -6.0302268915552726e-001 2.2613350843332274e+000
    -6.0302268915552726e-001 2.2613350843332274e+000
    -6.0302268915552726e-001 2.2613350843332274e+000
    -6.0302268915552726e-001 2.2613350843332274e+000
    -6.0302268915552726e-001 2.2613350843332274e+000
    -6.0302268915552726e-001 2.2613350843332274e+000
    -6.0302268915552726e-001 2.2613350843332274e+000
    -6.0302268915552726e-001 2.2613350843332274e+000
    -6.0302268915552726e-001 2.2613350843332274e+000
    -6.0302268915552726e-001 2.2613350843332274e+000
    -6.0302268915552726e-001 2.2613350843332274e+000
    -6.0302268915552726e-001 2.2613350843332274e+000
    -6.0302268915552726e-001 2.1213203435596424e+000
    -7.0710678118654746e-001 1. 0. 1. 0. 1. 0. 1. 0. 1. 0. 1. 0. 1. 0.
    1. 0. 1. 0. 1. 0. 1. 0. 1. 0. 1. 0. 1. 0. 1. 0. 1. 0. 1. 0. 1. 0. 1.
    0. 1. 0. 1. 0. 1. 0. 1. 0. 1. 0. 1. 0. 1. 0. 1. 0. 1. 0. 1. 0. 1. 0.
    1. 0. 1. 0. 1. 0. 1. 0. 1. 0. 1. 0. 1. 0. 1. 0. 1. 0. 1. 0. 1. 0. 1.
    0. 1. 0. 1. 0. 1. 0. 1. 0. 1. 0. 1. 0. 1. 0. 1. 0. 1. 0. 1. 0. 1. 0.
    1. 0. 1. 0. 1. 0. 1. 0. 1. 0. 1. 0. 1. 0. 4.0089186286863656e+000
    -2.6726124191242440e-001 1. 0. 1. 0. 1. 0. 1. 0. 1. 0. 1. 0. 1. 0.
    1. 0. 1. 0. 1. 0. 1. 0. 1. 0. 1. 0. 1. 0. 1. 0. 1. 0. 1. 0. 1. 0.
    4.0089186286863656e+000 -2.6726124191242440e-001
    2.1213203435596424e+000 -1.4142135623730949e+000
    4.0089186286863656e+000 -2.6726124191242440e-001
    4.0089186286863656e+000 -2.6726124191242440e-001
    4.0089186286863656e+000 -2.6726124191242440e-001
    4.0089186286863656e+000 -2.6726124191242440e-001
    4.0089186286863656e+000 -2.6726124191242440e-001
    4.0089186286863656e+000 -2.6726124191242440e-001
    4.0089186286863656e+000 -2.6726124191242440e-001
    4.0089186286863656e+000 -2.6726124191242440e-001
    4.0089186286863656e+000 -2.6726124191242440e-001
    4.0089186286863656e+000 -2.6726124191242440e-001
    4.0089186286863656e+000 -2.6726124191242440e-001
    4.0089186286863656e+000 -2.6726124191242440e-001
    4.0089186286863656e+000 -2.6726124191242440e-001
    4.0089186286863656e+000 -2.6726124191242440e-001
    4.0089186286863656e+000 -2.6726124191242440e-001
    4.0089186286863656e+000 -2.6726124191242440e-001 1. 0.
    4.0089186286863656e+000 -2.6726124191242440e-001
    2.1213203435596424e+000 -1.4142135623730949e+000</input_scale>
  <output_scale>
    1.0526315789473684e+000 0. 1.0526315789473684e+000 0.
    1.0526315789473684e+000 0.</output_scale>
  <inv_output_scale>
    9.4999999999999996e-001 0. 9.4999999999999996e-001 0.
    9.4999999999999996e-001 0.</inv_output_scale>
  <weights>
    <_>
      -1.3142143192991054e-002 -4.3196706419706670e-003
      -4.3393308548996560e-003 -8.1623345341455666e-003
      -2.8079118533272766e-003 1.0795033757233910e-002
      1.1827841933138723e-002 -1.0880258027097205e-002
      2.9689874792695799e-003 -2.4862289987612560e-003
      -6.1524268647656748e-003 -6.0668692001828711e-003
      -7.0473435884788500e-003 -1.3701476368993206e-002
      -5.0202887895961813e-003 1.9201875947557841e-002
      9.3160322548897518e-004 -5.9879339688885891e-003
      6.7359301146371257e-005 8.8800787435438008e-003
      3.9365644647122375e-003 -1.2357787047849084e-002
      1.3124773073324289e-002 7.9739158092895120e-003
      9.0673369037622218e-003 -1.3093709295223677e-002
      -9.3857549033750127e-004 3.3007540129538757e-003
      -1.1027457946921509e-002 -1.1826262697332305e-002
      4.1127285609401706e-003 -1.1954076372500649e-002
      -6.1682543117005792e-003 -8.8085644212027459e-003
      -6.7572325873213350e-003 6.5097882498470353e-003
      -8.7194465562952621e-003 1.4413390445510753e-002
      -1.8048851332455967e-002 -1.3532842062092253e-002
      2.9518007134280151e-003 1.1339899229517961e-002
      6.5635223441077818e-003 -9.4701889669376853e-003
      -8.1302458994412952e-003 2.4074910839346265e-003
      7.2513683079558902e-003 8.9705778387874358e-003
      -3.3423737095722552e-003 1.1837134255376857e-003
      9.7740990507402814e-003 3.2497516210704945e-003
      -1.5157402788662294e-002 4.9778522066004759e-003
      1.1761648244730064e-002 -7.5333282434330486e-003
      -2.5347447814314215e-003 -1.3722454036634642e-002
      -5.2301455322773961e-003 9.3823460864971373e-003
      1.2257353541267760e-002 -4.3585862744093956e-003
      -8.6903133781292153e-003 1.5305411580669361e-002
      -7.0619692614829260e-003 -1.7160883642996403e-003
      1.3769609289200520e-002 -1.8468097583368556e-003
      -6.9040828182204625e-003 9.7608856969656436e-003
      -2.8690220477453061e-003 3.9465962783385364e-003
      1.9445897513581138e-003 -2.0512523005369746e-003
      1.3795432742528333e-003 1.5883914200944718e-003
      1.6319220725004501e-003 -2.3643416429982751e-003
      1.8106297601928724e-003 -4.7374210554400140e-003
      5.6880728248780610e-004 -3.6725714549732877e-003
      -2.5920662679817202e-003 2.8725399787440486e-004
      8.3635052721691197e-004 -2.8678647515879736e-003
      1.4719575907745763e-003 -3.0976136310436409e-003
      3.9642033701190382e-003 4.5363844566419630e-003
      4.2988454258555504e-003 -4.8108213563682499e-003
      -4.2817316452198684e-003 2.0251181385126668e-004
      1.4318919384391968e-003 -1.8672345114128803e-003
      -1.7333742334773134e-003 -3.9045569749589469e-003
      5.6491604324825887e-004 7.8036035827632544e-006
      4.1099302360720937e-003 -2.0927461498505182e-003
      -2.6279956628809118e-003 4.1391044263893858e-003
      -1.8829944215139965e-003 4.4589804284261535e-003
      6.0622435323023807e-004 1.4538455969069566e-003
      1.0063244392069012e-003 3.5520411701148004e-003
      -3.8485067180491070e-003 -7.7695574176499498e-004
      -3.4223608190397828e-003 -1.2787527935625004e-003
      4.6216685150028899e-003 2.7902824190821781e-003
      4.4540194340013210e-003 9.6362806363266252e-004
      3.2971025865644711e-003 2.1063584495908763e-003
      -2.0822562636899095e-003 2.8864432769716460e-003
      -2.2287280881655813e-004 -3.2487751328682218e-003
      -1.6637057910007122e-004 4.6998134805608998e-003
      3.8753132525677094e-003 5.0920072121160846e-004
      3.8765447843678944e-003 -4.1325140825440396e-003
      -3.5444265093086381e-003 5.0864509520890072e-004
      -2.3708028945360927e-003 -2.7786058485877512e-003
      5.0810875860270470e-004 -4.5629303838797429e-003
      -1.5767475286657868e-003 -4.8604137445147017e-003
      3.0705315623755676e-003 7.0089634196441231e-004
      1.9152512562626287e-003 2.0838742859524678e-003
      1.7978779790194662e-003 -3.5821903137158279e-003
      -7.6752238033032227e-003 8.2861254573186351e-004
      -6.5759791009583120e-003 6.9744588714549978e-003
      5.8248140844365552e-003 -5.9880266362159311e-003
      -5.7248152039232755e-004 -3.2840122625803587e-003
      -1.3073367972923876e-003 2.1297446292679765e-003
      -1.5066029438724510e-003 -4.1419700803082549e-003
      1.3439226200582218e-003 1.1124981390508300e-002
      -4.2451923110837890e-003 -5.8150861870616254e-003
      -2.8581074864787079e-003 -2.5186182367165607e-003
      -3.8409196723425102e-003 -1.7319235934785226e-003
      3.2658979250420100e-004 4.0786791203856832e-003
      1.3458417758059054e-004 -3.0394677149533193e-003
      -3.4326280333221749e-003 4.3696225022412730e-003
      1.3176379169980569e-003 -7.2361177763818592e-003
      3.4801430125573941e-003 -5.7774459155823174e-003
      -5.7593102326106253e-003 -7.5090663490249496e-003
      2.8302471772163216e-003 3.6495782131890806e-003
      2.3987805299172313e-004 3.5605738493525965e-003
      -3.2129249267043233e-003 -3.7756713656413622e-003
      -2.8348299762316105e-004 2.8921615201817096e-003
      1.9381863306282749e-003 4.3955613305960285e-004
      1.8894696094148156e-004 2.4746037771229109e-003
      -2.8881791073672777e-003 5.7273120479166603e-003
      4.5893333298511864e-003 3.2903221205918278e-003
      1.4246833737891159e-003 -1.7323315343761843e-003
      1.8480627370272814e-003 6.0506279625466850e-003
      6.9854626285725269e-003 2.6663271628303074e-003
      -7.1785858599161692e-004 3.0926856766350748e-004
      -3.7447507763772774e-003 5.8268743167500690e-003
      6.6144945005043101e-003 -1.8954478399652470e-004
      -6.6798897685969800e-003 5.9005452369498340e-003
      1.3495000272836586e-003 2.3154634974695675e-003
      7.5252992923146604e-003 2.6412357965957408e-003
      -2.6947496962312313e-003 1.4388732817032755e-003
      5.4831034623386296e-004 -4.7364404973017221e-003
      -3.1432625712954324e-003 -8.2070852069320726e-004
      -1.5744845701535866e-003 -4.4075947037446007e-003
      3.0887402730319421e-003 6.0933728361109276e-003
      -6.3669074313726925e-003 1.4859755409469487e-003
      -6.0875886948907876e-004 -6.3166813355407716e-003
      1.0935048334069239e-003 3.7115357651135291e-003
      -5.5762321877855158e-003 -1.6299508265497941e-003
      7.8214352890289655e-003 -2.9750494091213518e-003
      -5.0067685327988441e-003 -1.5437466096261592e-003
      -2.3386053079020560e-003 -2.2307638315654222e-003
      -8.5724766230266310e-003 4.1724014245441031e-003
      3.8217089735802573e-003 1.8988297344750002e-003
      -2.6046734740930401e-003 2.7309117209720277e-003
      -1.0154097426065278e-003 -4.4439786279817251e-003
      2.1684405938364282e-003 2.3774861410253236e-004
      -2.0938102589551435e-004 -4.2664001895615566e-003
      -3.0389397781452922e-003 -2.5505278163340571e-003
      3.6858394790566223e-003 -2.9574281715156392e-003
      4.4117924865914107e-003 -6.1971993388274457e-003
      -4.5771393545207357e-003 8.7234329313717136e-004
      4.2957776682667542e-003 2.1147327932527905e-003
      -9.3813165800508220e-004 -5.1630298328886664e-003
      2.1077561339111093e-003 7.6814777608682258e-004
      2.2126370217172798e-003 4.6250715196802855e-003
      -1.9513100240626862e-004 7.8571900153585443e-003
      4.9129717796052444e-003 -6.1066038709511336e-003
      2.2108661509287549e-003 6.3006804892369733e-003
      -3.7933036611417325e-003 -2.4706525326399025e-003
      -8.0550169475442496e-003 3.5921409809531188e-003
      2.5945796285657438e-003 4.4061801708069216e-003
      -3.0272599717087842e-003 -2.1327884051206507e-004
      6.5793095987864139e-003 -4.3453778639319885e-003
      3.8234788961199247e-003 8.4882272965735982e-003
      -4.7595052744179413e-003 2.4823635683517368e-003
      4.3998229889647602e-003 -4.5290003276671088e-003
      5.2513189083669312e-004 9.3197501107929669e-004
      -5.4916989138907371e-003 -2.9170256312758070e-003
      -4.4788357399202783e-003 4.6676593881795394e-004
      6.4176531482250916e-003 -2.3056736780370487e-003
      5.6021803874289910e-004 4.3751547887803726e-003
      -7.0956046961440349e-003 -4.1457861426000492e-003
      -4.0991525481371277e-003 -7.9261407999841917e-003
      -7.5511492442179003e-003 7.9517000563852323e-003
      -1.3689636160349138e-003 -1.9237253360937062e-004
      -1.2780102172562063e-003 -1.1405582739045948e-003
      3.8341973084215970e-003 -2.7165001876177357e-003
      -6.5479187301375509e-004 9.4010603940860085e-004
      6.9990154483596904e-003 -2.7576176523559310e-003
      5.2446588864286882e-004 -2.6493612970443343e-003
      3.1519368874473827e-003 -6.8822968878703864e-004
      -2.5974071381428283e-003 -2.2598347015242602e-003
      -1.2152486997512382e-003 -2.7025646399033492e-003
      -4.9277395798069780e-003 9.2821480630276426e-004
      -3.5232302888409325e-003 8.9452009929381262e-003
      -3.7901503567403056e-003 -5.8914915056598408e-003
      4.5434267920199242e-003 8.4984139750110405e-003
      5.5028770157365793e-003 -3.7857342690911498e-003
      -6.1398510007466415e-003 -1.4228960187733447e-003
      -1.1863509349632664e-003 5.2277787578460504e-003
      2.0437065783716715e-003 3.4723298067950337e-003
      7.9057115083924143e-003 6.4206044067029811e-003
      -2.5908962617253715e-003 2.7471522746080807e-003
      3.0889664503135441e-004 -1.8745111329110074e-003
      1.2621277525689324e-005 -4.1206584946679968e-003
      -6.9774362557176129e-004 1.5047356914995350e-003
      1.1213897703580410e-003 -3.4593917561989711e-003
      1.9678247840247028e-003 5.9068404610936364e-003
      -2.6092856961294274e-003 3.9992011457953038e-003
      1.6396362988839717e-003 -1.7187533629981428e-003
      -1.1885826923429591e-003 3.0791130353167266e-003
      -3.4514279281539577e-003 2.2044276242647438e-003
      4.6218975716148516e-003 -7.2142776591099522e-003
      -8.0169470839893103e-004 1.5076250976384336e-003
      2.5108124573559546e-003 6.9710988271176845e-003
      -7.1005989243041976e-005 3.0561171123466074e-003
      -1.2707575513141913e-003 -7.9226482460355279e-003
      -1.9993677930483008e-003 2.2857955654035679e-003
      -8.5132705240847963e-003 8.0795122392505667e-004
      7.8033361323863216e-003 1.4519849891870427e-003
      -5.2524036397998512e-003 -4.3825998084247430e-003
      -1.2269265017133847e-003 -3.7731550140874116e-003
      -9.2971092761346859e-003 4.7382689497221468e-003
      1.2630854264480699e-003 7.8950237601166269e-003
      3.3165364435528880e-004 -2.2102656973000522e-003
      -2.0970135295910355e-003 -3.1157735941953629e-004
      -4.5008177774933439e-003 -4.0848201142569524e-004
      2.3090228155588335e-004 -3.7543882860508341e-003
      -5.9305945018102283e-004 -2.7908388889545310e-003
      5.7126732690545631e-003 1.0115575707138017e-003
      3.7109872830687215e-003 -7.7874022763557513e-003
      -6.9126500922274371e-004 -3.4886810400487178e-003
      1.1146489448054984e-003 -8.0500548654176057e-004
      6.2867422926049727e-004 -6.8014371966780207e-003
      -5.9186242635594335e-004 -1.6913226488998719e-003
      6.1043390977844744e-003 -2.6076254906131258e-003
      -2.0794814631549465e-003 5.4352314194402421e-004
      3.6402316692087745e-004 9.6220961459606019e-005
      -1.0623864893877929e-003 7.1407090753731438e-003
      2.7689100931249834e-005 1.8351910572120922e-003
      -2.3468217820777309e-003 3.9116470322882863e-004
      7.6569868670841685e-003 1.3944770862741168e-003
      -7.0668971346398903e-003 6.0351851327888027e-004
      2.2545456570447538e-003 -8.3143675157619599e-004
      5.0820364280707731e-003 5.6452852582333244e-003
      -1.6532043845264894e-004 7.9070968991675199e-004
      2.4315328804338752e-003 -4.3551991864412604e-004
      -1.6589644068411619e-003 -2.0202471957043917e-003
      -5.7826936593037594e-003 5.1162991175317360e-004
      -5.8138026034054626e-003 1.0102401691344515e-002
      4.9132323818317425e-003 -3.7381295189435241e-004
      -2.3147642406783509e-003 4.6820798850563559e-003
      7.2735804562160577e-004 3.4920337056972544e-003
      -3.3551102560839185e-003 -9.9971123462268448e-004
      -2.4809677260764626e-003 8.1120473424497654e-003
      2.6133100454610609e-003 1.0131704235463116e-003
      -2.7704149838740787e-003 8.7780922876469860e-004
      1.7448354243886990e-003 -5.1121360899584831e-003
      4.5902995085244751e-003 4.1793975807447193e-003
      3.0906681231202622e-003 -1.6064717272716738e-004
      4.2845879948020683e-003 -1.1180579318478829e-003
      1.3693926723077690e-003 -7.2306180216829630e-003
      1.7530996454871571e-003 6.5688552169292417e-004
      -7.9632616946707056e-003 -2.7315485900676678e-003
      1.0958974944534126e-003 1.2409404184643255e-003
      -7.1470573660826929e-003 1.5145560198709614e-003
      -4.8734437985752787e-003 -5.7801033719328491e-003
      8.4192054892717803e-004 5.7867879427696617e-003
      2.7971012724014007e-003 2.3423107510240544e-003
      -8.1965317740900225e-004 -5.7303947261453944e-003
      1.1281865004552363e-003 6.2066421414743818e-003
      -5.3356014054364474e-004 -1.5030105094874136e-003
      5.1687225722893129e-003 4.1288815856442623e-003
      3.3745168572514952e-003 4.5413881822866905e-003
      7.3950562897020329e-004 3.1228184407860490e-003
      -4.2657323760638939e-003 -1.4287193126520921e-003
      -3.6099645676645918e-003 4.7311039182983189e-003
      4.9871123343769568e-003 1.6473203177816260e-003
      -4.0543114934623366e-003 -2.2016550920307921e-003
      -5.8842367078465090e-003 3.3449895271376465e-003
      2.0589213889266279e-003 -3.8965897219826987e-003
      7.2086493470089870e-004 5.5699155086362043e-003
      1.8524133385353686e-003 -8.9554129770242816e-004
      8.1532720967443411e-005 -2.6647553028796844e-003
      -6.9054211422993565e-003 -2.4683672411865087e-003
      5.1069113018668150e-003 7.7075633838800993e-003
      -2.6078222646403132e-003 3.1492410910888479e-003
      5.6998610216098462e-004 -4.9417343591262545e-003
      -1.1260833851207237e-004 3.7829807122069384e-003
      -1.3590093348890189e-003 -2.3871129816150540e-004
      3.7586741156123019e-003 4.9597796597674563e-004
      -1.4277685842001633e-003 2.4969707520541896e-003
      1.2182455996990374e-003 -3.3135604882369011e-003
      -8.2485418097035593e-003 7.5924679407425432e-003
      6.5191533254588064e-003 8.1749013246966151e-003
      -9.3730384598587479e-004 -4.9918712711075706e-003
      3.3901003711901442e-003 2.7944712581524258e-003
      -3.3295387375869771e-003 5.3429233396686442e-003
      -3.1239823314050978e-003 -7.5714595657010320e-003
      -2.8537564609356072e-003 1.8127158561200998e-003
      -2.1632266805615939e-003 -3.6573366850350918e-003
      6.2041098331714045e-003 -9.4907599414357103e-003
      -1.6220742624318042e-003 -1.9706414340901718e-003
      -8.1990854650896595e-004 6.8567194935474527e-003
      -3.9374852114888760e-003 -6.2008089323680468e-004
      1.6611240102962720e-003 -1.4481885308338376e-003
      3.6323167243525645e-003 -1.3951048797194163e-003
      -2.3565801704670199e-003 5.8377701255880763e-003
      -1.6802016459604694e-003 3.4338849587484273e-003
      1.0846805177843193e-003 9.8178794810124207e-004
      -4.1874022023430527e-003 9.2189998943252138e-004
      -3.8144343296781175e-004 -5.4395688777111569e-003
      1.2572320847149543e-003 5.5141010740130756e-003
      -2.9607360617715434e-003 -1.2293089090651646e-003
      5.7692466779121964e-003 5.3941339489354818e-005
      2.0563583490172161e-003 3.8088343470481282e-003
      -9.8820233531803645e-004 -3.1742353299239051e-003
      6.0211681205877814e-003 -3.9673636863922024e-003
      -3.4321030510640429e-003 1.8737193224007969e-003
      -3.7062452580347068e-003 -5.9981302687781273e-003
      1.8787749670282710e-003 9.7792840175642288e-003
      1.0572771602675329e-003 -2.7225834387511741e-003
      -3.7900310054317645e-003 -4.7191599084371838e-004
      -3.1313609429467599e-003 -5.2330266561713456e-003
      -3.0474869693275326e-003 -2.7875942626640077e-003
      -5.1078741779136934e-003 6.3169543726895126e-003
      -3.9170987067347462e-003 -4.4639384360124264e-003
      -5.3588258524937967e-004 -1.2601254498982885e-003
      1.2811761610638632e-003 -1.6664739124045472e-003
      1.7730378041006770e-003 6.3617849135970677e-004
      7.7651314524889159e-003 -6.0627425118009812e-003
      -4.4114680235666434e-003 -3.6403502353254762e-003
      2.4753426378053244e-006 -2.1846899511547353e-003
      -1.1448656438735303e-003 -5.3444777658760868e-003
      -2.5125245147974784e-003 -7.9304490945585806e-003
      3.2620596161506631e-004 -1.5624557547210642e-003
      -7.2179576323876645e-003 5.3701564124432333e-003
      -1.6189601666559187e-003 -6.6987344249966104e-003
      3.5595225798828929e-003 4.1487909947179255e-003
      3.1104490761979233e-003 -2.1114545600778526e-003
      -5.1680755788952532e-003 -1.8543315252578787e-003
      -1.5750872157392463e-003 3.0012494931779851e-003
      -5.6027232897110167e-004 -2.1127543652391524e-003
      1.9775953831942354e-003 6.8280094256623755e-003
      -4.1024841109896454e-003 4.9360814713098429e-003
      3.9642593357484632e-003 2.9971500401400320e-003
      -1.6690807042614312e-003 -6.5614472473664153e-003
      -4.3130564577981726e-003 5.7559952288823634e-003
      9.5540025803208747e-004 -2.7134588274649592e-003
      7.5433303706555770e-004 -1.5297397501348930e-003
      -1.8701263116175303e-003 4.7986298697884691e-003
      3.1088307577272095e-003 -2.8865114441628203e-003
      -7.1426926215411293e-003 1.6515384563126332e-003
      -1.4415214052814766e-003 -1.0304623922963924e-003
      5.1164959356480575e-005 -4.4142563675559979e-003
      -2.2327131480281157e-003 -6.6472970622671514e-003
      9.2776193094522685e-003 7.8701031490477132e-003
      -6.7019437333385966e-003 -2.4372663511688280e-003
      -2.5037526163515614e-004 -7.3178907532974475e-003
      -4.1362585220908075e-003 2.2057250978034428e-003
      -4.5355197866148332e-003 -6.8109165152071835e-003
      5.7132302969963421e-003 -2.1309242812831619e-003
      -4.8354445203476355e-004 -1.3132056131933635e-003
      -2.4518674626685033e-003 4.6218250577941570e-003
      -7.0178346011286093e-003 6.2179561848714274e-003
      3.5978581681459827e-004 8.8362812350642195e-003
      -6.7883411991461647e-003 -1.8193727823150032e-003
      5.0124469150879293e-003 -3.5321839644386957e-004
      1.2734318469764171e-004 5.7334234160756588e-003
      -4.1356090714232572e-003 -6.4464959761560015e-003
      -2.5923347106205953e-003 -3.8740070671343901e-003
      1.9785188275845290e-003 1.5888013304906194e-003
      -5.1083950721671404e-005 -8.5698188682753109e-003
      -8.1893327966712592e-004 3.7775630133862338e-003
      2.9413100279796199e-003 2.9002000554430325e-003
      2.4624954366934209e-003 1.3594693777870086e-003
      2.6819688613602217e-003 -6.2723032083965584e-004
      5.1285437738441755e-003 3.1566989599420346e-003
      1.0565236945663439e-003 6.4889754987614038e-003
      6.6637684581342315e-003 -9.4746184789372542e-005
      -1.2304529044745026e-004 1.7660450629652029e-003
      2.6586523676571153e-003 9.3767964065146826e-004
      -1.8611938616139624e-003 -3.2884849302221319e-004
      8.5336893977916856e-003 3.8413421620559062e-003
      -1.2668507322528546e-003 6.2455420246871935e-004
      -2.1372768537242168e-003 -6.3460682120219146e-003
      5.7999307943269428e-003 3.7911020961483321e-003
      5.5605267941179453e-004 2.7208602930758000e-003
      3.1430055468668712e-003 -3.4444136200693222e-003
      -1.2807151010765714e-003 -1.3693853109271264e-003
      -2.2604920185497522e-003 -7.1299420123515176e-003
      -4.9609081361674748e-003 7.5706243694150990e-003
      5.0804206553286331e-004 -2.1099909431626495e-003
      2.2014360226866366e-003 -2.9100265755447252e-003
      -7.9819934836720171e-003 -4.3635425613476646e-004
      -6.9616400812400059e-004 -6.6650200636073379e-003
      -7.0135701342198082e-003 5.9129095195841405e-003
      -1.6090154161458178e-003 -1.6085433207067325e-003
      -4.6921042855042408e-003 1.0308205763001181e-004
      2.3229528753978524e-003 -3.8609979742433975e-003
      1.1376926513119183e-003 6.7611742455678811e-003
      7.5417895111155354e-003 3.3509771894654137e-004
      3.3963344946024033e-003 -3.0443903083939437e-003
      -3.9430735010240444e-003 -1.5571099100195429e-003
      -2.2696667828599115e-003 2.0020342632592822e-003
      -3.4516120720336224e-004 -7.1569744759662907e-003
      -1.7276536148706845e-003 -1.1342070532686030e-003
      -5.5621939188876791e-004 2.2585858782941319e-003
      -7.9908219090634308e-003 -4.4114342588668582e-003
      4.6911670090438408e-003 7.8406733918585676e-003
      -4.7047205927302393e-004 -3.9925266121520059e-003
      -4.5951234005418345e-003 2.0966681751816794e-003
      -5.9706665918294623e-004 1.8731931441878424e-003
      -1.3057660556562813e-003 -4.1828839730547046e-003
      3.7436694630245170e-003 4.9971474906262891e-003
      -1.2613498227433051e-003 6.4903488452505839e-003
      9.6249742035738354e-004 -7.5807454386560009e-004
      -4.2753297673007133e-004 -7.0624642598962097e-003
      -2.0570151721789002e-003 3.7673130052407144e-004
      7.0895265621785230e-003 -3.2984831406914302e-004
      1.7170955628059606e-003 7.1664967137140398e-003
      -2.6671258009501974e-003 2.9963308597049385e-003
      1.4026471613738946e-003 3.1970701998474504e-003
      -2.7801425686959976e-003 5.8243379654813760e-003
      1.7099110133949142e-003 -6.9169952271911136e-003
      4.2284709774316814e-003 -9.9877978003360779e-004
      -5.7025514410181267e-003 -4.3234590329997117e-004
      6.6354738518466412e-004 -2.2789278015883707e-004
      -1.7597422668790062e-003 -4.1761628169746537e-004
      4.7491708529327084e-003 -5.7610884543898792e-003
      -2.4494519620600454e-003 7.9005096036382366e-004
      -5.3138753561543092e-003 -6.4422513350676060e-003
      3.1616365516206829e-003 1.4560224536971716e-003
      -2.1980818569067900e-003 1.1394989996249703e-003
      2.4358136613485543e-003 2.4516608547569146e-003
      -7.7776317263275746e-003 3.6561797239608737e-003
      1.7037411603164157e-003 5.9800900349684331e-003
      -4.1750643181610574e-003 -2.7687121464909864e-003
      3.8089624917062189e-004 4.0098041861386308e-004
      -6.5216790772466430e-003 2.1837623998918832e-003
      1.1603379097251435e-003 9.2112208846007306e-004
      -3.2202663220876797e-003 -3.9374531203403658e-003
      4.4489814512642574e-004 2.1594353618431943e-004
      -2.8239963237949888e-004 -7.6675649119732833e-003
      -2.5514998765303150e-003 -2.7381135548595133e-003
      5.7912758266550598e-003 8.9141615688076593e-003
      -5.0511039976669364e-003 4.6567557856297122e-004
      2.4340507237864250e-003 -3.7829558698496144e-003
      1.1935195272612955e-004 -1.2063703766130040e-003
      6.5887282280634835e-004 8.8932784522516503e-003
      5.6901402809821566e-003 -2.2841515739561182e-003
      -2.9871999445305482e-003 5.5770591365920472e-003
      3.0165925828893274e-004 3.1315650738444312e-003
      -1.0461050829312830e-003 3.2626476974100841e-003
      8.4908427962220869e-004 2.4430910855159343e-003
      -3.6133260793401139e-003 -6.5606975608398259e-003
      -2.3396848801663928e-003 -4.7654763471807913e-003
      1.5343947496082844e-003 8.2686864274828641e-003
      -3.1921227501132657e-003 -4.4281682851902088e-003
      -1.7566533164457610e-003 -4.6595064586938892e-004
      -9.3914658405164480e-004 3.6804495753808525e-003
      -5.1064223104820335e-003 -7.2035068664855380e-003
      -3.5789258656162568e-003 1.7377129972919207e-003
      2.1370046887000263e-003 1.7393229087111148e-003
      -2.0970262213017513e-003 -3.3033881755711149e-003
      1.0200605433202549e-004 -2.3841473372495509e-003
      -4.4521762494066225e-003 -1.0269532226413143e-002
      -3.9045733284908107e-003 8.6678157996145193e-003
      -3.6925301256925565e-003 -4.6673437864680131e-003
      -4.7685450618531796e-003 5.6983665407120531e-003
      -6.6575625607703966e-004 -6.4428303189058254e-003
      4.9359625982387453e-003 6.1664177973832915e-004
      7.4161818045505833e-003 -6.6634681478698714e-003
      -4.5288145430746017e-003 -2.4367025028662775e-003
      1.9866649989497766e-003 -5.7636924528741080e-003
      4.0444876253829384e-003 -4.6081401786006258e-003
      6.0119440091672863e-004 -1.0681287371280331e-003
      -1.9418514383901934e-003 2.9314485551562028e-003
      -2.7598691508544703e-003 2.4950441902050215e-003
      -3.1451377094533278e-003 -7.7138736025625463e-003
      4.6288197575666051e-003 1.2981924285012788e-003
      1.0013102342690599e-003 -3.0407380109275582e-003
      -2.4985860061946415e-004 3.4029140802366914e-003
      2.6485891394658952e-003 2.5225103699903152e-003
      6.3401384642567863e-005 3.4596258651504153e-003
      2.4719550590370717e-003 2.0722327894198769e-003
      -4.2911720618869159e-003 3.9454648467198219e-003
      5.0722405604675027e-003 3.2983436040582080e-003
      -1.3343386717076730e-003 -5.2726271531877526e-003
      2.6797561473165497e-003 3.4242039094663887e-003
      7.2157617850511339e-004 -2.8333118267160403e-004
      -1.3887519204362128e-003 3.5570919296765485e-003
      2.3621891868610911e-003 1.2906511483635417e-004
      2.0560660170498290e-004 3.0084588401539994e-004
      2.2137939060637795e-004 3.2247969427204423e-004
      2.7915948187143204e-003 -2.1278979263166229e-003
      -2.5979825435115916e-003 4.2794972889332043e-004
      6.0511176033012934e-004 -2.3763065301002258e-003
      3.7250712100729590e-003 9.0945090854504407e-003
      2.1693685885980319e-003 9.9154527124548553e-005
      3.3472797556525994e-003 -7.6243793701586231e-003
      4.1125696290298065e-003 3.8059687125468191e-003
      -6.4492827358064346e-003 -6.0168640603205604e-003
      5.8492703435868345e-003 -3.1829931147083455e-003
      -1.9409266990550338e-003 -1.9140440206306157e-003
      5.6005042451430127e-003 4.6609347309350324e-003
      -8.3633499412316692e-004 8.7988044301375874e-003
      6.8880589053830219e-003 -6.1458957734226093e-005
      -3.3385398242811067e-003 -1.0340549674686442e-003
      4.6220112161609317e-003 -5.4335914124439728e-003
      -3.5002439685344138e-003 -2.2798133268077539e-003
      -4.1385128075478305e-004 -5.6698839463067844e-004
      -7.0320851687844712e-003 2.5377708828394161e-003
      2.4479892473139161e-003 -3.8878856558438608e-003
      5.5107487499549759e-003 -3.2596003509248756e-003
      -4.5740897229359654e-003 3.5761838668323443e-003
      3.4421572616630237e-003 9.1980356614973610e-004
      -1.3847428336090852e-003 -6.8557324819876640e-003
      -4.3559013152817483e-003 5.4121652953440305e-003
      -1.3015625472309101e-003 -4.7532995863258402e-003
      1.4847651453098153e-003 7.4967729268835383e-003
      -1.0593284515409468e-003 -3.2336871811334878e-003
      2.4238819061864199e-003 -1.0421245597495880e-003
      -9.8666265650933119e-004 1.1226090081132732e-003
      -5.4098608949584945e-004 3.1444736387377607e-003
      7.4607104762636049e-004 1.3385582960462135e-003
      1.7295243288193464e-003 -7.0661307755000213e-003
      1.6225866257205614e-003 -4.9203076419782861e-003
      1.2410541375556640e-003 -1.9690844012984051e-004
      -3.8601531957381204e-004 -1.1402731310437082e-003
      7.4619966550560919e-004 2.6385735279286387e-003
      -4.0178672631066810e-003 -2.9135522341435121e-003
      1.2195294458785071e-003 -6.5257848552070542e-003
      -5.9044760502134164e-004 1.3423194913535317e-004
      9.0721625779726176e-003 -1.4601795619970160e-003
      -6.9526196185070008e-004 -1.2505370332367219e-003
      -8.3605809245151617e-003 3.3527877646492912e-003
      -5.7187500804962866e-003 -1.8206011263083861e-003
      -7.2777783874565872e-003 8.2147961139506457e-003
      -3.1032176824902953e-003 -4.5303499531527602e-003
      3.2629751995905489e-004 5.2345521443343326e-003
      -3.9869214353039856e-003 -1.8246847711394856e-003
      2.1457269429887224e-003 -4.6986860915218716e-004
      -2.1078552458622763e-004 -6.5772484235726795e-003
      -3.6867127334826132e-003 7.5594275102330703e-004
      -5.6486582391344145e-003 4.4326604786341163e-004
      4.2974874513196830e-003 -1.3173146711716267e-003
      3.8258412135533376e-004 -3.4147842501040570e-003
      1.9930495591153332e-003 5.1671690371478795e-003
      -1.1378032861130558e-004 6.7481301625846122e-003
      -1.2522566790320955e-003 -1.7931057085757123e-003
      -7.0025183088337896e-004 -2.2318740941040227e-004
      6.8724175659809678e-004 -6.8339942250350196e-003
      5.8151569640623401e-004 -2.1675251864889736e-003
      -3.4724152438149174e-003 6.2493480640059438e-003
      -3.9625187700594216e-003 -2.2002495843749773e-003
      8.8499525755818889e-003 4.0306813502123335e-003
      9.4881655481268365e-004 8.8449534786688093e-004
      3.5995940609823158e-003 8.8839606055396870e-004
      -1.0003587197887384e-003 -5.4124943191187526e-003
      -2.3833717427483017e-003 4.6544986039015311e-004
      2.8363059971552905e-003 -1.6380726382317569e-003
      -1.0457113070456102e-003 4.6637031495166360e-003
      -6.5937909530193733e-004 1.9570144371544021e-003
      5.9227244342393614e-003 1.8225124113918066e-003
      -4.9667695204197214e-003 4.0989276408369430e-003
      -9.7532518306527223e-004 1.0118575928884172e-004
      4.3260592228598791e-003 -9.1147033484995348e-005
      -6.0982171726427208e-003 -1.7400729365010569e-003
      3.2450106418832423e-003 8.4418198070940979e-003
      -5.6807225447336514e-003 -4.2349798289696991e-003
      -1.1885725464880798e-003 -5.8529597710606021e-003
      -3.6872604095450285e-003 -3.6596421650294539e-003
      -3.4265960731147136e-003 -1.1787957875942345e-003
      8.5877057848420708e-003 -4.2772252177840225e-003
      -2.2190092426808703e-003 -2.7609070040834605e-003
      -1.5226912183528734e-003 5.9733387878761269e-004
      -7.4876749429146055e-003 6.2158173839529356e-003
      -2.9753441952482532e-004 7.0510211182253646e-004
      -7.7183258176925281e-003 -5.0106098466681434e-004
      -3.0371834792855125e-003 -3.9621502554215086e-005
      -2.9210204164265680e-003 3.7309569855383806e-003
      -4.7576345017295678e-003 -2.5936804806364700e-003
      -5.8825529866427667e-003 3.1543900599493337e-003
      6.1834864773901432e-003 -1.4562733656112079e-003
      2.1458678579536058e-005 -2.4738115276844172e-003
      -3.2923708138631264e-003 4.7099029742709809e-003
      -5.1345081492769188e-004 2.3219060734264906e-004
      -4.9060482519646745e-003 -5.4940197607032280e-003
      -4.9039355161116004e-003 7.4970101455232448e-004
      5.8425889082780371e-003 -1.5388144606316459e-004
      2.5342665061712940e-003 7.1312317382773117e-003
      6.6415140197820131e-003 7.6209536952025257e-004
      2.9951908181958475e-003 2.9348948987057500e-003
      -6.5833223623899314e-003 1.3152026465245224e-003
      -5.8298091559238346e-003 -1.0180654694952169e-003
      1.3367687670190729e-003 2.9232377202281752e-003
      -1.5139870481306013e-003 -2.1336882463603010e-003
      7.0632344414181677e-004 2.6578569659053311e-003
      -4.3123588263417716e-003 7.5927624193125052e-003
      -2.3840966473464754e-004 -5.5197036570548636e-003
      4.3505145286608631e-003 2.0226905240571650e-003
      -2.9694802117012039e-003 -3.2961336338994270e-003
      -1.2221145154625105e-004 -1.2877414476360623e-003
      -7.6420303627019529e-003 2.0835804809966191e-003
      1.0800074836418583e-003 1.6555920823282050e-003
      -2.9575123792538382e-003 2.9048835873811011e-004
      -7.0621573877171599e-003 4.4248106786836565e-003
      4.1702931651557321e-004 -2.9563462681424209e-003
      1.0074061852341424e-003 6.1630451215944609e-003
      -1.5376711479315622e-003 -7.0174725430670257e-003
      -1.7223509788494567e-003 3.2243572811046367e-003
      1.6286358441528032e-003 -9.3875669779517838e-003
      4.0554639442590039e-003 5.1035861776843007e-003
      1.0136213445433283e-003 -7.7079200381344869e-003
      -2.6138894521535250e-003 -4.3168094596020877e-003
      5.7720820645926283e-004 -4.1839972415563254e-003
      -2.9086157168378077e-003 -7.1674145207815641e-003
      -8.4228561827735214e-003 -2.0655901157732044e-003
      2.9849890195397166e-003 -2.2621033640806126e-003
      -3.8248630185959559e-003 6.1070795050726379e-003
      -8.2149710628237217e-003 -2.9412392332029171e-003
      -2.3202880191487154e-003 7.8641846838668362e-003
      7.8001807105309547e-003 -6.1395506016055298e-003
      -2.1264356835732127e-003 -5.2165691727604499e-003
      -1.4963850497076313e-003 6.2805635458331984e-003
      -3.0299443569649668e-003 3.8114192958901816e-003
      4.3793099690566826e-003 3.8797739844144011e-003
      -5.2469208030497374e-003 2.2211897703130613e-003
      4.9590796263069333e-003 -5.7521940683540641e-003
      4.8252571471957091e-003 8.9166449919552977e-004
      -2.5580308805763221e-003 6.4143045886546146e-003
      3.2969250060094321e-004 1.5598687222941178e-003
      -7.7470393106199515e-003 3.7006633682766903e-003
      2.6876485268585841e-003 -2.3699961437360952e-003
      6.9948973880668295e-003 -3.8173378012666694e-003
      1.2155479289185302e-003 -2.0716387907103104e-003
      1.7358967868853926e-003 -4.3712494085179224e-003
      -4.7228106998908935e-003 -2.9545363838924298e-003
      -8.1119961932985818e-003 1.1604095538468562e-003
      2.1696526060573070e-003 1.7653869273293126e-003
      -1.5652079998068843e-003 -4.8338406153131857e-003
      5.7184763088513320e-004 1.2322019931267649e-003
      9.6596113624985807e-004 -4.1802609034560859e-003
      -2.5085877691570172e-003 -5.7877898581327623e-004
      9.8476853252410547e-003 1.3456294167373880e-003
      -4.1416838280992265e-003 3.9998108138871516e-003
      6.7804702790384523e-003 -1.1899224156778287e-003
      -5.8863801531037745e-003 6.0999996067599635e-003
      -1.2764727616244628e-003 4.8286494692965105e-003
      -4.8044216179360302e-003 4.4683541112399659e-003
      7.1582398677331777e-004 -5.2744289783868206e-003
      -3.5471306727153820e-003 5.9038267410345706e-003
      1.5058168341641213e-003 3.3712664954348295e-004
      -7.2179558502494558e-003 4.3970120506170466e-003
      1.0534225882997184e-003 -5.5552279487895663e-003
      6.6067989316437488e-003 -6.9098903404983154e-003
      -6.5591054152485014e-003 -3.0180783238485695e-003
      2.3172353675725093e-003 8.1539069961214534e-003
      -4.1726883643249642e-003 -1.5833256665411652e-003
      -4.2209109114052590e-003 5.8341701889245891e-003
      -2.4654019148965617e-004 1.6412089401220194e-003
      -4.3975348028944834e-003 9.3309675713370115e-003
      6.4129219953191531e-004 -6.3409875453738921e-003
      5.2060971861596301e-003 5.1315477663609523e-003
      -6.2301374470625764e-003 4.3895293876471076e-003
      -4.5049355548198375e-003 2.5781466962132345e-003
      1.9086372866192965e-005 -1.3343320202961688e-004
      -6.8231786179138165e-003 -1.9963319337032537e-003
      3.6555463232087879e-004 -1.7989652965082305e-003
      5.1647607171487961e-003 3.2978205696422825e-003
      -3.1974783941338103e-003 1.3892491395734187e-003
      1.9524861952250612e-003 -6.6059897230826090e-003
      9.2948939446187465e-004 1.0237688039163089e-003
      -2.0265680246258659e-003 9.8045803066563867e-004
      -2.5236784904259646e-004 1.5727924967585080e-003
      -2.9737845426430717e-003 3.2459790776501906e-004
      1.5947003406249832e-003 3.1513907970896482e-003
      3.0038071613091803e-003 -3.6900325129719082e-003
      -7.2227873405410648e-004 -2.5631176026530656e-003
      -4.6680787670235523e-003 4.1578842253704755e-003
      3.6033495123886593e-003 2.1500293050439072e-003
      -2.6400245588015596e-003 3.8919443658380587e-003
      2.9069310568211500e-003 2.0724689206177405e-004
      1.9625163667489009e-003 1.1374292347504822e-003
      2.8533835833288285e-003 1.5595629791258360e-003
      3.1445780081430065e-003 -2.8032446784076090e-003
      -2.2168195920559820e-003 1.2862562500914742e-003
      -1.9439954429767549e-003 -2.7475814767080543e-003
      -1.9346443525880281e-003 1.0190554329080666e-003
      8.1448245794013140e-004 4.0755615785399999e-003
      2.9246044162376831e-003 8.7489632790646089e-004
      -4.4350263540091073e-004 -1.1414206736045744e-003
      3.1945453262938448e-003 9.3992453096310689e-004
      6.9491102831352946e-004 -2.7283564804901871e-003
      -3.6148059776564706e-004 -1.9454335087318419e-003
      -4.6183170041372750e-003 -4.6728032203652630e-003
      2.7322191013090021e-003 -3.3684376528685493e-003
      4.5941469641824285e-004 -2.4493912251429403e-003
      1.1863648874191474e-003 -1.8831772136510513e-003
      -3.3272544655017573e-003 1.3725106978263143e-003
      -3.0926782563436323e-003 4.1708985355932396e-004
      3.2208958009871933e-003 1.4372354868932341e-003
      4.4980797543295488e-003 -4.5345717326389905e-003
      -4.8509184354043437e-003 3.5560710521530302e-003
      -2.4381412857450106e-003 -4.6951235462448799e-003
      -1.1758590947192466e-003 -2.0126600463677472e-003
      2.7952005611822975e-003 2.1559178269987640e-004
      2.8063923652623703e-003 -1.3198874553796305e-002
      -5.7104732178963197e-003 -5.8207093928779657e-003
      -9.4803164198145971e-003 -1.1482649076124720e-002
      1.0954885104431777e-002 1.0324685215889678e-002
      -1.0848684564772814e-002 -3.2207396633303197e-003
      7.7772604550330074e-004 -6.1979686513640581e-003
      -4.3062139795687817e-003 -3.0088584170535394e-003
      -1.6656575828389350e-002 -2.6205582376078070e-003
      1.8018744961433440e-002 -6.4222621173160464e-003
      -1.1692877944252462e-002 3.1765688871553620e-003
      8.7137583725163811e-004 3.9015612203819521e-004
      -1.4322062511330003e-002 6.8877146622854718e-003
      5.7211640780251609e-003 7.7918295946226767e-003
      -6.4520674488735760e-003 -6.0921988807451678e-003
      3.0517374837972290e-003 -4.7079586151444267e-003
      -7.6857786124487383e-003 1.0159223861855722e-002
      -7.8339491999763391e-003 -9.2967108723712791e-003
      -7.5449897700425412e-003 -3.1001705331268588e-003
      6.3510017155953323e-003 -9.5922037940937305e-003
      5.3834487680377080e-003 -1.7754015757808241e-002
      -1.0553288233421271e-002 -1.7404792173696490e-003
      1.6764033246429180e-002 9.6174099775452257e-003
      -4.3118795924102001e-003 -1.2728895073139530e-002
      1.2283810558896687e-003 -2.4304379870183912e-003
      7.1729121458233578e-003 -3.1353104182196361e-003
      1.3596939138189670e-004 1.3268419483913871e-002
      7.7450632505696318e-003 -1.1700112277440491e-002
      4.6615530090549969e-003 1.2238234828921821e-002
      -5.8603453154844375e-003 3.5630217887882313e-003
      -1.3923324764731338e-002 -4.2759408405898449e-003
      1.1185103801417707e-002 8.7539492387782337e-003
      -1.4570965856144954e-003 -5.8044881124334142e-003
      7.3836278266332803e-003 -3.5202629407482854e-003
      6.3505461597415710e-003 1.2514677255083258e-002
      1.2231032304599947e-004 -8.2734984587525002e-003
      1.1435407255515483e-003 -3.3274334482117419e-003
      7.9997964808594703e-003 -2.1563057576401055e-003
      1.3175082330697345e-003 3.3784761306556842e-003
      4.0670226814269461e-003 -8.1433426604334679e-003
      -9.2512882141450401e-003 4.0740857783516521e-003
      4.3465981440819002e-003 1.5208708240678763e-003
      8.3852218185219689e-003 3.3300055283434905e-003
      -3.2867091374691915e-004 1.1966781939251981e-002
      3.8822107106457559e-003 -5.8220808265748601e-003
      4.1319788942710831e-003 9.6207396715761381e-003
      5.5932742962778604e-003 -2.0998158127594213e-004
      1.2993469988894033e-003 1.0767877014652321e-002
      -7.8162147139273080e-003 -3.2065132812741982e-003
      -3.7080678562884037e-003 8.8498587736663571e-003
      -9.4459279800885589e-004 1.2935792870748795e-003
      7.1175574082450940e-003 1.9927612497438506e-003
      -3.2754967719871688e-003 5.3124848036786420e-003
      1.2596614761906679e-003 5.9446744185096684e-003
      4.7645962671750870e-003 -6.0287473985948170e-003
      5.7597723630808230e-003 -7.9113695309922863e-003
      1.1376755952715074e-002 9.0051493905181374e-003
      -3.5083024339032658e-003 -7.4156865470224051e-003
      -6.8343928268128646e-003 5.4637428415770239e-003
      3.5273286570000864e-003 3.4951743445067324e-003
      -2.9645667387726135e-003 5.2436668351501755e-004
      2.4109596876187639e-003 3.3304195110920383e-003
      -4.9408282267733748e-003 2.1436962328720160e-003
      6.9666988529269143e-003 -4.5086267807351093e-003
      -4.8904933724374586e-003 7.6958809593455331e-003
      -2.3693191151707635e-003 9.4379196155267679e-003
      -2.3566043519611924e-003 -6.0718653112062301e-003
      -2.9247115029650138e-003 -1.3241359017679424e-003
      -4.6745794759335324e-004 -9.8495067967100149e-003
      5.4916602962631136e-003 -1.3688535349510578e-003
      -2.5656281362459155e-003 6.9804434238174320e-005
      7.8007198374922858e-003 7.1261804697405349e-004
      4.7525282319163840e-004 -5.4224786577073769e-004
      4.5300476504795507e-004 -4.2118360442106508e-003
      2.5167502616150520e-003 2.0758930378779691e-003
      1.2061394735134031e-003 -3.5079331870883396e-003
      -3.3716951872839462e-003 -1.9705402696435304e-003
      -5.3261378864766153e-004 -7.7259033156645558e-004
      -2.3477188378344337e-003 8.1864415703008034e-004
      1.7550826729127267e-003 2.7065730009682623e-004
      9.5983929455469052e-004 4.9206683127956527e-003
      -1.0771208127319687e-003 1.5489726515548305e-003
      -2.4776723234183977e-003 1.3558066677711394e-003
      -4.8395762128876701e-003 -1.0596988103173982e-003
      -4.7400746877095477e-003 -2.8931447037253226e-003
      1.9603117961776535e-003 -3.6774066081173068e-003
      8.0604163625318834e-004 -3.7475625173943317e-003
      2.6570215173874135e-004 -4.9409868306375115e-003
      -4.0094595024552171e-003 -7.2054829566297902e-004
      -2.2892548412859412e-003 -9.4952925757915176e-004
      -2.5194131135957156e-003 -3.1990211975162063e-003
      -1.9308817884933444e-003 -3.4917861459082371e-003
      2.0108240996042194e-003 -3.1515815681077528e-003
      -9.0728250565697585e-004 -4.1185607761930320e-003
      1.4981655759868570e-003 4.5482674617808774e-003
      -3.2100695431460336e-003 -4.3801717534259557e-003
      4.5728643790558174e-003 -3.9518480691600388e-004
      4.6271508090839309e-003 -1.2263498348294044e-003
      -4.7296908942763638e-003 3.7033179937435330e-003
      -1.8855468979149005e-003 2.8113055761424405e-004
      -2.5962348198202301e-003 -3.7816819332884373e-003
      -1.8391346792818602e-003 2.1337368521828215e-003
      1.2092612298884987e-003 -1.6318622742031406e-003
      -2.9086673276188233e-003 -4.3062241134478258e-003
      3.9731320151490087e-003 -2.0752568602314661e-003
      -1.3416470688993305e-003 -2.0342919869624459e-003
      3.2023774977692509e-003 -2.1088761734525552e-003
      3.7383533894328385e-004 -2.3892765360597622e-004
      7.0470551676271188e-003 -1.2260197943834023e-004
      -1.9300837511563578e-003 -3.4608150410183106e-003
      -1.7592348181321509e-003 -4.6179170255496935e-003
      -1.4661190931226949e-004 -3.9255448149766101e-004
      -2.0376921576880586e-003 1.6487042444084190e-003
      3.0181070525313277e-003 2.1334681405583435e-003
      2.7089897484291140e-003 6.2636023395842028e-003
      -2.1479257969567985e-003 -7.7027109233116274e-003
      5.0257447421715304e-003 5.4395033418010346e-003
      -4.3539454815427680e-003 1.7247262930173049e-003
      -1.9008328579357796e-003 4.1462414086877106e-003
      -5.5379885987971132e-003 -3.2366878313827806e-003
      -4.2648932841174744e-005 -1.3759850143580605e-003
      -9.0522460751366279e-004 -3.5957133945944443e-003
      2.2744717712763151e-003 -1.1920193683260748e-003
      -1.7246166858051826e-003 -2.4321810410685976e-003
      3.4196797702048171e-003 1.0588429648243673e-003
      2.7097993951959234e-003 -2.9477294234266527e-003
      2.4246373189625008e-003 -4.3824408123471111e-003
      4.7242752863434932e-003 5.4741674743195136e-003
      -1.7740096448726385e-004 -4.5832291881444630e-003
      -6.3924173963164190e-003 -1.2098571994909649e-003
      4.8883231818924915e-003 7.4865890280521776e-004
      -5.0794704160510833e-003 -4.0566969889346627e-003
      -3.7790414765444895e-003 3.2144474753898885e-003
      -7.8489670295929807e-004 1.5164922338984413e-003
      8.7881721121839070e-004 2.1051377414609551e-003
      6.7169162053964167e-004 -1.5830780213254340e-003
      -5.0186602389962701e-003 -1.8385675453782056e-003
      1.0991250051345834e-003 2.3194662766982004e-003
      -6.9686049788775118e-003 4.7060805618313051e-003
      -2.2707404504095420e-003 -8.7375920825063531e-003
      5.8349404685354902e-003 7.5399721869226521e-004
      5.7656763785044135e-004 6.3072077970326599e-003
      7.5125927939764681e-003 -4.9829063873061399e-003
      -3.2480038348959282e-003 5.2994795566105174e-003
      -3.9613781810745657e-003 5.2657595073434356e-003
      6.2314694249817901e-003 3.8087919229241279e-003
      -4.2810285184984517e-003 1.4568045623626900e-003
      6.2184334729803300e-003 -1.1703280140271889e-003
      -4.2049931905439647e-004 -2.8935233454557550e-003
      9.6354568763031712e-003 -1.3919024535364924e-004
      4.9168874139532623e-005 -3.0139642412972366e-003
      -6.4049205476634464e-003 -1.8419372266187087e-003
      -1.7313658795266665e-004 4.6193307263301250e-003
      2.9591361868404218e-003 -2.4419168359731177e-003
      7.2171723067208354e-003 -1.4359188999806035e-003
      -3.6693226020675859e-003 -1.4993289286041498e-003
      3.5314152396762451e-004 -3.0253132955570415e-003
      5.7486888105962847e-005 2.5681879997918908e-003
      9.6576754447931284e-004 -2.7439553455168323e-003
      1.8346094943629014e-003 5.6139591557625495e-003
      3.4123210493037740e-003 2.1027787648697496e-003
      5.0023993822306129e-004 1.9044871622141950e-003
      2.5705225055872977e-003 6.5647807213849623e-003
      4.4388057158013467e-003 -1.7853292949922880e-003
      -3.0412404340888549e-003 2.1691407923098266e-003
      2.3315936974633539e-003 -1.5326360359890745e-003
      -3.8994486038996389e-003 2.6207821630556990e-003
      -5.3404010787512432e-003 4.0936985366463556e-003
      -2.4716680490940298e-003 -1.7867032312362159e-003
      -2.7001106868437263e-003 9.4620152348504523e-003
      -3.9000912987112793e-003 -7.9414468925313939e-003
      3.7019026650002627e-003 -3.8138096984610265e-003
      -2.1144025608327236e-003 4.6276085621541098e-003
      -1.3481164192861396e-003 -4.8018466857372051e-003
      -1.4326015942586515e-003 -2.1862617901596396e-003
      -1.9156369435678294e-003 4.6361594134342685e-003
      -2.3733522616085395e-003 -5.0059125987040529e-003
      5.3048259774069748e-003 3.7507742332572465e-003
      -2.0259783195318630e-004 -2.7991841496412896e-004
      6.9881099821749986e-003 2.0472651326260312e-003
      4.5983230023633687e-003 4.3619982350737987e-003
      -1.5914690181993406e-003 -7.7302219599713565e-003
      -3.7164624178652938e-003 5.0094998805796818e-003
      -1.6436430584287961e-003 -4.6003517504285951e-003
      3.2234646863165193e-003 3.6945839097426163e-003
      2.8746300255974916e-003 6.1299130203344016e-003
      1.5584582436655504e-003 -8.0052810249139281e-003
      -2.7194926280335570e-003 1.4697392193140451e-003
      3.5767031564346613e-003 -4.4564252404407688e-003
      -6.1368004191405059e-004 1.2632545438142535e-003
      1.4143624232943676e-003 -3.9298959117120705e-003
      -4.4808954786612412e-003 -1.8598289433016738e-003
      -3.8361358208104812e-004 -3.6559981084239024e-003
      3.4044167116460138e-003 7.7440707371347339e-003
      -3.1400773526938045e-003 2.7202253113551254e-003
      3.6002884265999764e-004 2.3835219233382535e-003
      -8.1542384359159460e-004 2.3861415863930405e-003
      4.0199072363711124e-003 -4.0735313241376664e-003
      2.5084064678014841e-003 -2.4156898925075869e-003
      -5.1914754068473623e-003 -7.5864848514889185e-003
      -9.4809518725721205e-004 -2.3377090644609703e-003
      -1.3746936855610777e-003 2.5044926624885606e-003
      -2.3749676017970497e-003 -7.0955830225911964e-004
      -4.2941085258467538e-003 -3.4328261410736093e-003
      -1.5657842999634052e-003 3.5531455759419180e-003
      1.1357164691464736e-003 -1.9342451068414541e-003
      -6.0876026614702207e-003 5.0375911342652483e-003
      -2.1019333515246825e-003 1.8225796498249301e-003
      -5.5282804627470152e-004 -7.1425592468061811e-003
      -4.5329224100832347e-003 5.7288241002722683e-003
      5.0610232901365038e-003 -8.2741800355519649e-003
      -1.0571719441230566e-003 2.4709119408915597e-003
      -5.8699735537308811e-003 6.7008607367748238e-003
      -8.8502399026477152e-004 -1.2432886179073123e-003
      -3.0789768646763559e-003 4.1099188828705134e-003
      2.9628484520326402e-003 2.4559914951546844e-003
      5.8591006063745737e-003 2.7517380015962864e-004
      8.0821911620961219e-005 -1.9558480596026553e-003
      -1.5194305492542423e-003 -3.8006101856010331e-007
      -4.5802634332703374e-003 -2.5491567315048904e-003
      8.4731315576320240e-003 5.0955511590265222e-003
      1.3093155376886416e-003 -3.3448267585614562e-003
      -5.5973146401781836e-004 8.4884996449906258e-004
      5.4002364673046482e-003 3.3974177513606848e-003
      -5.5736345566966593e-003 1.9514005992977718e-004
      5.4446183639694501e-003 -1.3742068081130333e-003
      -2.0746139138116317e-003 -2.2073233028457335e-003
      6.6528515863452176e-003 4.6245840437756812e-003
      1.2882225753927917e-003 -1.5269881297938462e-003
      4.9400519346006217e-003 -4.0101546605496264e-003
      -2.2973214091481457e-003 5.0854550602736645e-003
      1.8854498391921760e-003 6.3861640666254878e-003
      1.5112300877651262e-003 1.5896761747612466e-003
      -1.8013476761741590e-003 5.6649293129147149e-003
      -7.3263491599347011e-004 -4.2532024202849017e-003
      -1.0854436953516204e-003 -5.0260145098130109e-003
      7.2908633544493316e-005 5.5369758618379330e-003
      -2.6992284075683898e-003 -4.7897272612861010e-003
      3.2342501826855322e-003 -2.8449567853038637e-003
      1.5232818456886758e-003 -2.5372082310755311e-003
      -3.5679549232914432e-003 3.5529302825853520e-003
      9.2505189717036218e-004 1.0064339398909985e-003
      2.7492770227668602e-005 -2.7061742206596017e-003
      1.3671422849340679e-003 1.6400318575451091e-003
      -5.4891972156812883e-003 -7.5932697013013032e-003
      3.8301772564553597e-003 4.0593044662792345e-003
      -3.7603966467412374e-003 9.1376179972296929e-004
      2.8919877378283860e-003 -3.0920605772248554e-003
      -2.0972240087073547e-003 -8.1153300573475991e-004
      -2.5150341220576159e-003 5.8340302441070027e-004
      6.7278841605587052e-003 -2.6400071315900121e-003
      1.3896863157194302e-003 9.1491037923984158e-004
      -3.3530128693205177e-003 -2.3591571818950283e-003
      1.1922326802685883e-003 5.0193241008760223e-003
      1.2751551622911144e-003 -4.2188875996034825e-003
      5.6448992980046870e-003 4.4717891227869276e-003
      3.0319668227932230e-003 1.0898130909615888e-003
      2.4902523060383128e-003 -2.0398608764223419e-003
      -1.1334101989799684e-003 6.4512504055703737e-003
      -1.5858428323060382e-004 -1.6424882779865252e-003
      -1.6976512135416953e-003 8.4020028351939422e-003
      -1.2469815784481157e-003 -3.0944415267748129e-003
      -2.1024559586648849e-003 7.0554569422918651e-003
      3.6621520876380168e-003 4.2837566894275885e-003
      7.9283203579069413e-004 3.9407217743069314e-003
      -4.2857319892115045e-003 3.8839090857332769e-003
      -7.4800106381261826e-004 -2.6833727443356589e-003
      -2.1492423779701552e-003 4.2114641160187551e-006
      3.9230581680878155e-003 -1.3996678008156057e-003
      6.0639539145556096e-003 -1.9285155425816250e-003
      -3.7659469207049412e-003 -6.6599710506041500e-003
      2.7922759921746852e-003 3.3327305597558835e-003
      3.6479905484914981e-004 3.9748888275567872e-003
      -4.3678112320085548e-003 -2.2727085501133130e-003
      4.1168004901755720e-004 2.2511389606079792e-003
      -2.8222048668955432e-003 1.2619242558104390e-003
      1.9316372852627869e-003 -6.6174132049564476e-003
      -3.7016123797726876e-003 7.3469351846746093e-004
      4.0286920591642018e-004 1.9730296225369359e-003
      -2.7912103487642771e-003 -2.7714786958120663e-003
      9.0169048294449583e-004 1.3183510759397145e-003
      -2.8996618673177463e-003 -5.7361468190677556e-003
      4.7298423719119263e-003 4.8656197832561403e-003
      -1.2938916360243833e-003 -2.4814969013785613e-003
      3.8027190816065609e-003 -5.8693505653816744e-003
      -1.3031267222315917e-003 5.9807254635694113e-003
      2.9354250161558451e-003 -3.1941201793352639e-004
      5.9683011117620975e-003 5.8589220097947474e-003
      3.9513658602012504e-004 -5.2018683277252334e-003
      -1.2598666418138331e-003 -3.0948271451320558e-003
      -4.3968223878014679e-003 1.6155533558995189e-003
      5.1678308799759107e-003 6.9727037621144178e-003
      2.6903233481767887e-003 -2.9835386354765403e-003
      -7.3905461587582674e-003 1.8505657542616958e-003
      4.8058973103536186e-003 2.4196971969516179e-003
      -5.2163532211395398e-003 -3.1536195640648416e-003
      7.7683158028146130e-003 -4.2954622115921430e-003
      -5.3733249385777967e-003 -3.1382203284189862e-003
      -1.6644603129273247e-003 -2.2656253711212018e-003
      -3.8881114336370096e-003 5.0698228235122808e-003
      -9.3534784993713576e-004 -4.7073954308541797e-004
      3.0854111578327631e-003 5.6595674631775309e-003
      8.2072323486746194e-004 5.0988769027138590e-003
      -5.1272597933366528e-003 -6.0633732583341958e-004
      -7.6384425381455375e-004 6.9529055346642119e-003
      -2.6103202088754930e-003 2.0379640294427726e-003
      -5.3318882641413632e-003 1.6335295700202967e-003
      -1.2091474786357042e-003 -9.1073945919856658e-004
      2.2452967681396816e-003 -3.0041659012264673e-004
      -5.2260096653340173e-003 -4.2495043474322361e-003
      -2.5628272650963829e-004 -6.2342826391639352e-003
      -1.2209105999771079e-003 4.6344228607715808e-003
      -6.0389120354065193e-003 -6.5851726641145769e-003
      3.5747179541837618e-003 3.9335733170547237e-003
      3.1384883520177674e-003 2.5329676198072395e-003
      -7.1071025311556814e-004 1.2299674693863293e-003
      -3.2028324373880378e-003 -1.2062983604721790e-003
      -2.0836454071286275e-003 7.3351490100502766e-005
      -1.1648339722581174e-003 -2.7589743048041454e-005
      2.3766068880397965e-003 2.7438756787356695e-003
      -3.3621213448366402e-003 4.7334713115472962e-003
      5.2755137553035826e-003 2.5337685371489057e-003
      3.2064644359232754e-003 2.3231109247752115e-003
      -3.3972400341953468e-003 -1.0751142672957390e-003
      1.0950891345813359e-003 3.1662286961443961e-003
      -1.1971779496362950e-003 -2.3746214070821318e-003
      -3.1016030348926349e-003 7.5233119877723487e-003
      6.8577349630477092e-003 7.9901727216284569e-003
      -2.1505000773790004e-003 -8.9840573565714524e-004
      2.0196004292421258e-004 9.4251646319662354e-004
      -2.1393295130925122e-003 -5.1380585531167066e-004
      4.6798582931338048e-003 -1.6642675334703898e-004
      -3.5636904270359626e-003 -4.8306730471642410e-003
      2.0674599690426567e-003 -2.1814342870128908e-003
      4.8134811975915634e-003 -3.3382401570387068e-003
      3.4510672586074366e-003 6.9755734310213927e-003
      2.4267293327931740e-003 3.3917589272251247e-003
      -3.9163979803236257e-004 4.4089020243917492e-003
      4.7525561066290960e-003 1.8412818327556307e-003
      -3.6833894347600678e-003 -2.1025831651844498e-003
      -1.1522430163899400e-003 -3.1416789739790786e-003
      1.7362430968529575e-003 -1.1692458063343547e-003
      6.7314503254141877e-004 1.3641473986542598e-003
      2.2647748346109648e-003 3.9155730020954153e-003
      -3.6169645422149048e-003 1.6542535017327633e-003
      -4.9048666823384580e-004 -4.8041126131006572e-003
      4.1760241465165426e-004 -1.8389530452232127e-003
      4.1012140085229477e-003 -1.9790876426579330e-003
      -2.7824633489962488e-003 3.0000547581830396e-003
      -3.0377326629122425e-003 2.5922030051723725e-003
      4.8283291164792821e-003 -1.5444154459240110e-004
      -5.2393431195174860e-004 4.0230571830376562e-003
      -1.6797066312189072e-003 -5.6634920391057057e-003
      2.8843528728975244e-003 -2.8176746359017285e-003
      -3.9558927920444630e-004 -1.1229723674632121e-003
      5.4005640429043936e-003 -2.5903376041381567e-004
      4.3155321988653204e-003 6.8292579442933796e-003
      -2.1989746820505768e-003 1.8108739781960280e-003
      6.7674048273153075e-004 -2.4077634125710908e-003
      -3.5942678378665617e-003 -3.0771548264378439e-003
      3.8029092687297873e-003 -3.4293401059632962e-003
      -3.0291850943950165e-004 -5.6858884369370764e-004
      7.2732473813446154e-004 6.5096806471420634e-003
      4.9449136664933974e-003 -9.8100470132475429e-004
      -2.4353599702286238e-003 1.1497629670732781e-003
      2.1639860175442969e-003 -2.6242242817144145e-004
      -3.3854503306841328e-003 -4.9181967457643536e-003
      -3.6833808762407944e-004 -6.2472753273922575e-003
      -1.8954691790596648e-003 -2.4132821028659789e-003
      -2.8683754514772537e-004 2.1969722263524109e-003
      3.2395227350062172e-003 -1.6487588646724228e-003
      6.2477162891034516e-003 -3.6450516836672711e-003
      6.0139726986962998e-003 3.7506671538429788e-003
      3.0510916207931275e-003 1.2918650694705351e-003
      -5.4271860654717943e-003 4.2336000961957940e-004
      -4.5662549910982994e-003 -1.4934492438495421e-003
      1.0812425417637537e-003 4.5020028045763688e-003
      -7.1984344042458400e-003 -5.5921762088706707e-003
      3.7336086695734572e-003 -3.1340459099611021e-004
      3.9756857283449612e-003 3.6674994988273655e-003
      -1.7012524335188880e-003 4.8331690525120355e-003
      -3.6951448073076626e-003 -1.8688864537502643e-003
      4.3166177583217630e-003 8.4577814526171982e-003
      -3.0045951005213695e-003 -5.3896758670432211e-003
      6.0719171855337650e-004 3.5041373907362832e-003
      2.7020509405511301e-003 5.9820298663371112e-003
      2.3408910857949943e-003 -4.4349308072983221e-003
      -3.2070553432373109e-003 -1.6342835496616084e-003
      -7.8642715302115283e-003 -1.5270598264705633e-003
      5.1513167224361087e-004 -6.5692674328867422e-003
      6.5464211205735904e-004 4.9836771146302642e-003
      -5.1229218333271745e-003 3.3329654687214703e-003
      5.5316886837445244e-003 4.8372445226274683e-003
      5.2663486503880469e-005 -1.0006084742382546e-003
      4.2081082691957893e-003 -5.1674839448694939e-003
      -1.8010936786086900e-003 -2.5158929738491099e-003
      3.4330314605397765e-003 2.6389022968220086e-003
      -1.9223880533164154e-003 5.2443211407663210e-003
      1.2920095882566743e-003 6.6329994775185443e-003
      -9.3823322429553940e-004 -4.8615063578084346e-003
      4.6646832655932958e-003 2.7679782305221352e-003
      -2.9100852526077873e-003 3.5361524670301644e-003
      3.6735383242740872e-003 4.9959874574310257e-003
      2.9801891367518584e-003 1.7285562162466163e-003
      1.9729844601886013e-003 -2.0322047112180295e-003
      3.4604187740607520e-003 3.4071973962971659e-003
      3.5920432086536344e-003 5.2650728415726319e-003
      -3.8957586728759785e-003 -1.5407910553239231e-003
      2.9372888398989240e-003 4.8224626088947805e-003
      -1.7145483330369383e-003 1.4676591246896087e-003
      1.5419363910964073e-003 -4.0680717938446458e-003
      3.0142345257955284e-003 3.4239114493762909e-003
      1.5875536264368085e-003 -5.0426420784325885e-003
      -4.0083774841893844e-003 -3.9221180440777797e-004
      5.1136866203431173e-003 -4.8900611374859985e-003
      -2.3652270611609840e-003 -2.7489173381498688e-003
      -1.2653409370344281e-003 3.7519312387509366e-003
      -7.2792629949660704e-003 2.0271486218344513e-004
      7.3165728261303216e-003 -5.6168030599090856e-003
      1.1622369646608110e-003 -1.7655216691672164e-003
      -3.3921951436530272e-003 3.7541109044494370e-003
      3.7230652615650455e-003 4.5024040118151246e-004
      -8.2445113095995035e-003 3.7621647733296058e-003
      2.1001081710702893e-003 -7.7752098186517262e-003
      6.2770794783857577e-003 2.1689702568768354e-003
      -5.2471230811175721e-003 -4.3526825377183736e-004
      4.3292390766509047e-003 -4.7237872041834394e-003
      -2.6598465351379218e-003 -1.0417330360766766e-003
      4.9968874504397725e-003 -6.7087690729536031e-004
      8.3042578218818291e-004 3.2538418017133432e-003
      1.4110053681961564e-003 1.8113295504796443e-003
      3.6143306537040642e-003 -6.4499357108041165e-004
      1.4712992348275701e-003 -2.7055144228199826e-003
      -3.4343997926464693e-004 3.8662443266390444e-003
      4.8404857419883929e-003 -6.5582642307166112e-004
      -3.6057258646363371e-003 -1.8407339126276516e-003
      -3.7544756443125022e-004 -3.7577536331468747e-003
      2.3677417604276337e-003 3.8757211674593523e-003
      6.6840995895924241e-003 3.0814432432168799e-004
      -3.2845511430703196e-003 -1.9762017270930029e-003
      -1.1710475407890682e-003 2.5725504821566955e-003
      3.8749682833161625e-003 2.8118106693378457e-003
      3.8582989992518883e-003 -3.7232574816692997e-003
      5.4796772277149741e-003 3.1250093706332751e-003
      5.2165057920679743e-003 -1.7976431428806769e-004
      2.2061583666532457e-003 -2.6325449419997314e-003
      -1.3284472894903663e-003 9.8017221836974120e-004
      -2.2614449573594374e-003 -8.5613248905582894e-004
      -2.6005886954835978e-003 -1.0327682360691565e-003
      -1.6745590061237187e-003 2.1710757222506059e-003
      -1.8373184402224988e-003 -5.7221235159019099e-004
      -1.6129969215371122e-003 -2.6990419406532950e-003
      -3.8415370804275352e-003 -6.8985664992495957e-003
      1.2991204265133563e-004 6.8984010727819447e-003
      6.8740495125802718e-004 -5.1627394895226138e-003
      -1.0733705287713211e-003 2.4958562160486120e-003
      2.1864266824200441e-003 1.5159876973328934e-003
      -3.8651365641979318e-003 -6.8574672315568335e-003
      -1.2601425469609747e-003 6.1185335235876119e-004
      -1.0368405320181732e-003 2.6466219954073516e-003
      3.6606790200939539e-003 -2.2134067265306935e-003
      3.8175449337367454e-003 5.6372620181364737e-003
      1.7065516446569996e-003 3.9803089584079243e-003
      5.8993325281393356e-005 3.9711883704102429e-003
      -1.2656637562909608e-003 -2.9133106840085587e-004
      -1.9054503067621020e-003 -4.4790180126055203e-003
      -2.9610286612921921e-003 5.5312470044027321e-003
      2.6402035036326133e-003 -1.1291082568437771e-003
      -1.0902673232505496e-003 5.4057158261965827e-003
      1.1753034861239867e-003 6.1271388498933422e-003
      -2.7698769312587889e-003 -5.0250274641194448e-003
      -2.9116608358431845e-003 1.2168830991892412e-003
      3.6056795929708496e-003 2.1086966530191615e-003
      -1.0282291765692808e-004 2.8434393939739404e-003
      -5.3127606450666630e-003 2.9001185280584886e-003
      -1.7326084252160272e-003 2.5631127825662329e-003
      5.2360309383351214e-003 -7.4589325678781732e-004
      5.1004401828166120e-003 2.8168103804018189e-003
      -3.0830443680249986e-003 1.9473903776806964e-003
      9.4597787883326340e-004 5.6806669985202925e-003
      6.2069845607007172e-003 -5.4786462755292802e-003
      2.6828055698590418e-003 -6.3906984698255812e-004
      1.3623130204855989e-003 -6.1464017503734211e-004
      1.9369643476916882e-003 -4.9218321884690695e-003
      -2.0714628441259853e-003 -1.1152852834158946e-003
      6.0441104451889422e-003 4.1620012713324472e-003
      -2.8853916770379749e-003 -8.4935937861716970e-005
      6.8714805669302045e-004 9.1633813508245897e-006
      -7.0786653881718424e-003 2.9235405653305130e-003
      2.2755096262388214e-003 1.0092241310080280e-003
      -6.0709663719400410e-003 1.2098505725466361e-003
      -4.5221640613833328e-003 4.6261202822479499e-003
      1.6436388552741449e-003 1.9543145079070601e-003
      -5.6872768131210113e-003 1.1223968679344970e-003
      -1.2986231816836484e-003 -8.4386067349177200e-003
      3.4208735986463313e-003 4.4065160768671698e-003
      -5.5170876607935869e-003 1.0067140576938013e-005
      3.0424932899591191e-003 -4.1436515776111004e-004
      3.2031313700125485e-003 6.2262142928526804e-003
      1.7551597584488442e-003 3.6632935571974871e-003
      4.9594087994750185e-003 4.9730375403434276e-003
      -5.3635852071327265e-003 -3.1911711012925226e-003
      -1.9326638262773057e-003 -3.8191968538235804e-003
      -2.8369140825149695e-003 5.5587918549801028e-003
      2.9534344053214309e-003 5.7764199764690468e-003
      6.8093008958825668e-003 -2.5412693066210225e-003
      -6.5071118596440230e-003 -4.0987337049772114e-003
      4.7499787408910076e-003 -3.0919979513956970e-003
      1.9994870069726571e-003 3.5785177652087746e-003
      7.5074839522203899e-003 -5.5134293996180871e-003
      -4.0012512583060397e-003 -5.3792373866787882e-003
      2.6879227275192863e-003 1.3284338818902606e-003
      1.6553227297864384e-003 -1.0246232662160970e-003
      4.6184729871499250e-004 -5.6161501095030640e-003
      -7.0821828018257510e-004 2.2979912556630659e-003
      -2.4706295791647962e-003 6.2523636460338743e-003
      -1.3440100258791915e-003 5.5524848404350140e-003
      -4.4607419556187706e-003 4.4689114597948497e-003
      5.7383272081439054e-003 -4.6852468939334313e-003
      -5.9965439183811992e-003 -5.2179465741885910e-003
      -2.8293845429070903e-003 4.7695449254011408e-003
      6.5695905788021932e-004 -8.1289727275921390e-004
      -4.2771455508553938e-003 2.1671892880973085e-003
      3.5232021631551678e-003 3.9593141309618451e-005
      1.0685407197884730e-003 8.9684754479463294e-003
      2.3544204625654335e-005 -3.8470653908821129e-003
      4.8706858519359975e-004 2.0880593218746335e-003
      -1.9841231653296093e-003 -3.3397397634215718e-004
      -2.1257228629985203e-003 -2.4830910441831699e-003
      2.6360289313602570e-003 -2.3118162937826215e-003
      -7.8687826054312099e-003 9.4173580771661394e-004
      -4.7621261831426974e-003 -4.5781601572839805e-003
      2.0017973059603240e-003 1.8869996835211699e-003
      3.1809929519205013e-003 5.3608626973852401e-004
      2.8870010452459482e-003 -3.3820206498498340e-003
      4.2974802022621014e-003 1.8868079728947725e-003
      -2.3233670480275752e-003 -3.3747091915469719e-003
      -1.0796209101982875e-003 6.1281692217538515e-003
      1.2309736439271260e-003 3.4197255119606073e-003
      4.7344304552443019e-003 6.9346228827818985e-003
      6.3949816061635153e-003 1.3383980356024702e-003
      2.7602747163517289e-003 2.4612301310496308e-004
      -1.1164862386632592e-004 4.5525183037919649e-003
      -2.4747642112464495e-003 6.8065795341190659e-004
      -4.1424480037514063e-003 5.2163883091248329e-005
      9.0456322421749146e-005 -4.0365453623060011e-003
      2.6701618490068468e-004 -1.8447322446317419e-003
      2.0357135277789592e-003 -4.5335343144854399e-003
      5.1372924426015282e-003 5.7276647470469975e-003
      -6.0773432849524365e-003 3.5840971492129897e-003
      -8.6373616471556447e-004 2.9468155806953661e-003
      2.8311564894200917e-003 -2.1562790380526189e-003
      2.2624971633697288e-003 -4.3103914828570757e-003
      -1.1444949847025272e-003 3.0872691233004685e-003
      1.8984343727597441e-003 -2.1973322442470893e-003
      -1.2644960037833258e-003 2.4295342660867751e-003
      1.8004092976432315e-003 2.1984820980234664e-003
      -2.0234705633735646e-004 -1.1001391238652459e-003
      1.6572084926818871e-004 -4.9468663917029273e-003
      -3.3237533156127413e-003 -1.6883955912022157e-003
      8.8426084592272587e-003 1.2546420817502740e-005
      -1.9111915194339477e-003 5.7516969425260933e-003
      1.6850621868550568e-003 2.4167036076283253e-003
      1.3213518884126541e-003 -7.8494978536942892e-005
      -1.9058269718068425e-003 3.5562540962313836e-003
      2.4711906043433109e-003 -1.8110749035560527e-003
      -1.0762977565830180e-003 8.0257275134328803e-004
      7.8812718897017589e-004 1.9535332080008331e-003
      2.6067460216072824e-003 1.8527777769410947e-003
      3.8042547387776150e-003 7.3050754635894683e-004
      -1.0371672630102129e-003 -2.4385584679214056e-003
      -1.1997562024842895e-003 5.6227906930532597e-003
      -5.0558581073425601e-003 -1.2348446688303140e-003
      5.8066207358076034e-003 4.5612011850425143e-003
      -2.7386117993496019e-003 4.8723976678493961e-003
      5.2142136567542385e-004 6.4605926647329061e-003
      2.7038170629098486e-003 5.3345765532048436e-003
      -2.2851820671485942e-003 3.4953725342891512e-003
      5.7295693699115852e-003 3.1275441577627420e-003
      2.4318138791121916e-003 -3.9235838513234532e-003
      2.5957869083873138e-003 -6.0315992034590954e-003
      -3.6552626082935339e-003 2.5048932805787766e-003
      -1.7638846020806131e-003 -2.5454167890158743e-003
      -4.5589789832794908e-003 6.3779774456306747e-003
      -1.0558058938525488e-003 -3.9089066653526698e-003
      1.9705930514233813e-003 7.3748818118403209e-004
      3.2913608420186138e-003 4.4550162771022535e-003
      -4.2901854306529579e-003 4.1824687420034248e-003
      -2.8867137021500850e-003 7.4605082829593125e-003
      1.8732091631406887e-003 -1.9964752812822485e-003
      5.3474383390337264e-004 -6.5477187157800586e-003
      6.2359533742912896e-003 7.4002941529684322e-003
      7.9809165272411717e-004 1.5265610383285080e-003
      -5.8556645521061403e-003 4.1555168157684967e-003
      4.5944108743216474e-003 -7.8352917473450759e-003
      -1.6073748001128609e-003 6.3180046287161979e-004
      -6.6148800132970016e-003 -4.7099722387327772e-003
      5.1667890732624453e-003 -3.7626036339988532e-003
      -1.1710452792705864e-003 4.3286195274249203e-003
      -6.5840625048047413e-003 -2.1110168991134780e-003
      4.2455338283728279e-003 9.2332286209856882e-004
      -4.0797738707614058e-003 5.4646120572653910e-003
      4.6147641422068412e-004 -4.5391589389862912e-003
      3.0884333304742671e-003 -1.4932141328652079e-003
      -5.8836504168483950e-003 -2.5336785259465490e-003
      -9.3689913629296491e-004 -3.0857064975074846e-003
      -4.1373073139853008e-004 -1.0309905865230379e-003
      4.0014889465247295e-004 -5.6475764127855484e-003
      -3.7733454129294320e-003 6.9530878316248551e-003
      -4.0512832375270268e-003 4.1820978226149129e-003
      3.2304795181108607e-003 6.9538963897825762e-003
      4.4438137673935155e-003 6.9336039276429451e-003
      -8.0183862511938998e-004 4.8106237845016892e-004
      7.3518622292424718e-004 -1.7652858082093368e-003
      -2.8441928546044993e-003 -2.6313276186965290e-003
      2.5391986403298546e-003 2.3141961954986803e-003
      3.7899780818851411e-004 -4.1087813410497218e-004
      1.4026939483688286e-003 6.6321712323180312e-003
      5.6144871008979988e-003 4.6868354617501358e-003
      1.1067320583457514e-003 7.1071972370412833e-003
      -2.2142155528269442e-003 1.5278637145638915e-003
      -1.7339382531647636e-003 -1.5317314276048182e-003
      4.2171407503539099e-004 -2.5994475299496488e-003
      -1.8487297600146345e-003 1.3708702489689066e-003
      -1.7154361999029730e-003 8.0547036656416159e-004
      -2.9479880443251498e-003 -2.2674149685129909e-003
      -4.6824115515342610e-003 3.6159162048102467e-003
      -2.3891298717933514e-004 4.4989780185736771e-003
      3.0086744816588845e-003 -6.4621732319886810e-004
      2.4312596041546060e-003 -1.2813717446360116e-003
      -5.4077377281968398e-003 2.2670639468470562e-003
      6.4401417166127920e-004 3.1057785217095991e-004
      8.4798519993284013e-004 -2.1271376746805812e-003
      8.8506595524101507e-004 3.0303483680762817e-003
      2.4683250292771050e-003 -5.2277111671553012e-003
      -2.1966349543152356e-003 4.7580884510392968e-003
      -1.5815490226111738e-003 -7.7368927593136211e-003
      1.3071924526272798e-003 4.0992247614339422e-003
      -3.8721612208278524e-003 3.4273909588696783e-003
      6.7204846737699501e-003 -5.7512771499576973e-003
      4.0206081832733992e-003 6.4081374739085044e-004
      -1.1509311710149405e-003 -3.0896000434621983e-003
      1.3020599572853377e-003 -1.5424115453982477e-003
      -3.6831317948516793e-004 -5.2560036344527208e-003
      4.4096041001417978e-003 -1.8281386789895731e-003
      1.6125185168147477e-003 -3.2942346337469929e-003
      4.0127483782641639e-003 -8.6460333341565720e-004
      7.2134864319184210e-003 1.4488164329232531e-003
      -6.3719000807486775e-003 -1.9497997831227530e-003
      -2.6243075353778898e-003 3.1818210792195979e-003
      -2.8307965380535852e-003 2.6678539939445677e-003
      7.1162355537891537e-003 2.5877937463598807e-003
      3.3959692204903425e-003 -2.0844670090626686e-003
      4.5272143263617092e-003 2.1176597511719485e-003
      1.8928006898022371e-003 -3.6146965076613147e-004
      4.4175032081214945e-004 1.7738644752400209e-003
      -1.9068385409409540e-003 3.5932973486229266e-003
      6.5491602607893858e-003 6.3146274919007577e-003
      -3.1916347201334481e-003 -1.4700642803174963e-003
      -3.3291585228059323e-003 5.6910751486905610e-003
      -1.0892356714374339e-004 3.1595556288875077e-003
      -2.0041035353942404e-003 -4.2896893024184099e-003
      1.0998460538240691e-003 -1.5803235528520847e-003
      -1.0423961176239832e-003 -3.6386706839600853e-003
      -4.7181204679656984e-003 3.9879848478658157e-003
      -4.2240172067389394e-003 -4.9918071913501788e-003
      -3.1218202603224441e-003 2.0145743644241322e-003
      -5.0867559050515364e-003 -5.0609416804715179e-003
      3.9717598938414532e-003 -3.2326640457104225e-003
      6.5434316956836693e-003 5.2271371829007377e-003
      -7.0249921349240622e-003 -8.0659554592207305e-003
      3.5183631689170258e-003 -1.3614124184179192e-003
      -4.8736043293914829e-004 3.7815420585200136e-003
      -6.3636612421382409e-004 -6.6642548961614468e-003
      5.3839053366436544e-003 6.2684151107974574e-003
      2.6664689339764530e-004 -5.4472971259829351e-004
      7.2437181191698542e-003 -3.2986645409349173e-003
      9.9523339182039997e-003 1.1592630041090402e-002
      3.4784818987064546e-003 -1.0911776418310511e-002
      -1.3318762253419760e-002 6.6701529050905732e-003
      5.6251152631244918e-003 1.9040331147084311e-004
      8.9710652794645039e-003 7.7595705613437028e-003
      6.3582360859070252e-003 1.7957070153722006e-002
      2.9337699658826258e-003 -1.6455908291784643e-002
      7.9843944438664841e-003 4.3239195937870446e-003
      3.0815663787799588e-003 -1.6955148094166730e-003
      2.9115267262155788e-003 1.3887481587002665e-002
      -7.8478596653126786e-003 -8.8518979420733872e-003
      -8.9401432473995637e-003 1.1677345841930144e-002
      3.6029327479115180e-003 2.5045965833432600e-003
      1.0054779872199342e-002 8.6572459053123937e-003
      -8.9401873363174050e-003 1.1520148458160134e-002
      9.2701680356112072e-003 1.4498691360326122e-002
      2.5468423534921354e-003 -6.2030796429517442e-003
      6.5367971578704229e-003 -1.0836344748043422e-002
      1.4093306849041283e-002 1.0241823077232081e-002
      -5.5729839954552973e-003 -9.3489881563636728e-003
      -1.3168911326233653e-002 6.7101397655371601e-003
      1.2228709182692527e-002 3.4842654358047853e-003
      -3.3745728340945657e-003 -5.4875054610271966e-003
      -9.9188686896670955e-004 2.9727538084911359e-003
      -1.5659317038273779e-002 5.2403298665082789e-004
      6.4099285971063588e-003 -3.9612256481038740e-003
      -6.7858737167318670e-003 8.4469178242338148e-003
      -2.1521418400145061e-003 6.4092370251600164e-003
      -2.6787176666311535e-004 -6.7937957463127798e-003
      -1.5233312613833837e-002 5.3386359547581671e-003
      4.1434103198813759e-003 -8.1275832377635283e-003
      1.0159612929436720e-002 -1.0755407235941955e-003
      -8.4152505564565935e-003 5.4196324578700372e-004
      1.2260284925473054e-002 -1.5488732412829837e-003
      1.0226975949599570e-002 1.8505793685968483e-003
      1.7208705222984814e-003 -1.9375488997738232e-003
      -6.4982439178383885e-003 -1.4617828155882909e-003
      9.7756030942167792e-003 8.2748815338792893e-003
      -6.0944654910943929e-003 -8.8409453286511432e-004
      -1.6537833472672135e-003 -4.4635541996260741e-003
      3.0071136591816633e-003 8.1129450907018764e-003
      -4.7146238197361403e-003 -3.5229781535094269e-003
      5.4813014452308037e-003 5.5437628679051525e-004
      -2.2657565942636967e-003 -7.8942541234804046e-003
      4.1348688941399798e-003 7.0059183886056681e-004
      -4.1592023790789261e-003 9.7916244915146715e-003
      4.6473904383266635e-003 3.7291498232898241e-003
      -6.6608756676197296e-003 7.5015859254155010e-003
      4.1785683550483576e-003 3.0949359679763428e-003
      -6.7279137029582561e-003 -1.1091675570132937e-004
      -9.6864779353438655e-003 2.7651680591827404e-004
      -5.5332106696244629e-003 2.4630631310441908e-003
      8.3916394152683347e-003 -7.0907178647860430e-003
      4.3192707909800523e-003 -9.4097767877308787e-003
      -2.2775885492244304e-003 8.7403201402505432e-003
      4.1829984274264530e-003 8.4260508275621517e-003
      -3.3629630474553210e-003 -1.7011496889884463e-003
      4.1690153500859957e-003 -1.8525793393831765e-003
      8.3937406379047880e-004 -1.8531448180039922e-003
      2.8268899935789782e-003 9.0680763753297061e-003
      4.4823468046766212e-003 5.8576531984194814e-003
      -1.6031554738371325e-003 8.5015724920191639e-003
      -1.0271737652723765e-002 -7.0525825455261173e-003
      -5.3514308282016834e-003 6.4963922993698745e-003
      5.1992637901071264e-003 2.5415752101945405e-003
      9.9225093994966324e-005 -3.6729974120889275e-003
      2.9284177475781656e-004 4.3574992734176348e-003
      -4.5654600475688391e-004 5.8209549118733500e-003
      3.3637248471493990e-003 -3.1085580116480238e-004
      7.7994190367002602e-003 -3.2240632374549881e-003
      -2.5302752373876055e-003 1.4590412678682015e-003
      3.2122333286868604e-003 1.1061994906542744e-003
      5.0613038257430656e-003 -2.1174209150231606e-003
      1.8501080251932041e-004 -4.3034012895009780e-003
      1.3195441196353042e-003 -3.8716296954018278e-003
      -2.2033281888973288e-003 -3.5936353197301494e-003
      -4.7392112259839374e-003 -9.2562346769048680e-004
      3.7904233817787609e-005 3.9862224803989431e-003
      2.2869263167429148e-003 -3.1639375516332854e-003
      3.4399829872048780e-003 -3.9803858927475507e-003
      -4.9205556326454812e-003 -2.7354363632136162e-003
      2.0518547072424778e-004 2.2983664101444007e-003
      -9.4663643104329919e-004 -1.7833889805240692e-003
      -2.9704271654344468e-003 2.3080269615436831e-003
      -1.5325043802801195e-003 -5.0474648594055968e-003
      2.6001866743163198e-003 -1.9280658201928811e-003
      3.0971159810741253e-003 2.0099201755330934e-003
      4.2458693805161561e-003 4.4602490853842503e-003
      5.8128649399249207e-004 -4.1144057517679350e-003
      -1.7559921455509078e-003 4.6685755449669736e-004
      -4.3073867436637164e-003 1.0472842950241612e-003
      5.2200910404656762e-004 -1.6759295392929545e-003
      -3.0685341340016474e-003 1.0600005865705187e-003
      -1.0376465485155667e-003 1.5655894796534409e-003
      9.9087861599806370e-004 -3.3691902270892482e-003
      -4.6746722921180983e-003 -2.1824219889521788e-003
      -3.1296659033813292e-003 3.7892996471744315e-003
      -4.8201205450014474e-003 4.9226964392976172e-003
      -4.1469651045706836e-003 2.5370333440457781e-003
      -1.2399749887851432e-003 -1.5532862054849202e-003
      2.5302816701514011e-003 1.1622727099552849e-003
      3.3753790408661876e-003 -2.8204624475598435e-003
      2.8253431651258823e-003 2.2650637247414378e-003
      -1.0857359260738548e-003 1.2135028995387201e-004
      4.2310773808927707e-004 4.9304291675728246e-003
      1.2660119631890273e-003 2.4915731564796413e-003
      -3.8697197125619840e-003 1.4348039048060993e-003
      -1.5470793106172067e-003 -4.4829012501974201e-003
      -4.9168519600193200e-003 5.5734872958629041e-004
      4.8964809331288259e-003 -2.5400765568835948e-003
      -3.0643096510458937e-003 -1.4826075595356376e-003
      4.0427882499973269e-003 -3.6796605810967115e-003
      -4.5624597191330678e-003 -4.9794305931700599e-004
      -2.7733644331742698e-003 3.2943154214559781e-003
      4.8106897677927659e-003 1.9205288824217558e-003
      -4.1659235971487161e-003 2.8654591990809018e-003
      -2.5678272230104412e-003 -3.5988691960282954e-003
      -4.2962241147957306e-003 -2.3470396984478525e-003
      -3.0416011833334549e-003 3.3993365773431067e-003
      -1.1341906949608859e-003 -8.8160258197757387e-004
      -1.0899823034306537e-004 2.7982645137283584e-003
      3.5361827426938688e-003 -4.4207159343724595e-004
      -4.4433477684309077e-003 3.9034044373670498e-003
      2.3470661728641528e-003 1.6974116591626396e-003
      -3.5508625863715278e-003 4.8801432138075446e-003
      -4.0048503210024415e-003 2.7279106144794080e-003
      -3.9225413037081845e-004 -6.4273055778639823e-004
      -2.1949808355514236e-003 1.8785883690881501e-003
      -1.2955553433617283e-003 -1.8164495496614617e-003
      -1.5043219236195898e-003 -2.1964837158888940e-004
      9.6603594341241087e-004 3.9488531161368063e-003
      -2.8940077312531012e-005 -7.7872923561691273e-004
      9.5201165065758058e-005 4.7623257753603111e-003
      3.2135458486742974e-003 1.4256455536684246e-003
      1.5194853561954814e-003 4.6954670636187423e-003
      4.1401125778631294e-003 5.4027053934007317e-004
      2.7447723903737111e-003 -1.8955332302260579e-003
      -2.1687106917550386e-003 1.7017156698421211e-003
      8.6608628485225557e-004 1.1839183812761506e-003
      -2.6581075844202859e-003 2.1073231602956044e-003
      -5.0533081763004203e-004 -3.3867364928070014e-003
      3.6836924175989209e-002 2.4305169363533469e-002
      -1.0332717904335266e-002 5.4576523490651460e-003
      -6.7725442821761342e-003 1.6150172530806080e-002
      6.1278257268488354e-003 -9.0232498122511922e-003
      9.0045095423711991e-003 -1.4980814960067276e-002
      -3.0614747091180141e-003 3.9601059052914250e-002
      2.1052724393585569e-002 -1.4263823567586317e-002
      -3.9987160724027230e-003 9.2270020456615906e-003
      -2.0845174004767977e-003 -1.1908650605995245e-002
      -2.1814605795702574e-002 4.3556157317307300e-003
      -1.1167554645416846e-002 1.4474675240734373e-002
      -3.8822808667310620e-003 -3.9243697763701379e-003
      4.8727522212387558e-003 -3.4054268317201897e-003
      2.9972568486318803e-002 6.9349191372686464e-003
      1.6684756098559458e-002 -1.7292862946944220e-002
      -5.9250522932269038e-003 -8.0256760493472752e-003
      5.8978345665894631e-003 -1.8835753907198748e-003
      2.4100242114277814e-002 2.2351090704966773e-002
      -1.4339372060872288e-003 8.5707109034651157e-003
      -1.2332265032809892e-002 -3.5232506964721867e-003
      1.9589205528309422e-002 6.4421159463141121e-003
      -6.6388806402527794e-003 -7.1711442126452425e-003
      -1.6617370338329721e-002 1.0468718344197644e-003
      5.1178615911864301e-003 4.3792916285287833e-003
