<?xml version="1.0"?>
<opencv_storage>
<OCRMLP type_id="opencv-ml-ann-mlp">
  <layer_sizes type_id="opencv-matrix">
    <rows>1</rows>
    <cols>3</cols>
    <dt>i</dt>
    <data>
      400 71 41</data></layer_sizes>
  <activation_function>SIGMOID_SYM</activation_function>
  <f_param1>6.5000000000000002e-001</f_param1>
  <f_param2>1.</f_param2>
  <min_val>-9.4999999999999996e-001</min_val>
  <max_val>9.4999999999999996e-001</max_val>
  <min_val1>-9.7999999999999998e-001</min_val1>
  <max_val1>9.7999999999999998e-001</max_val1>
  <training_params>
    <train_method>BACKPROP</train_method>
    <dw_scale>1.0000000000000000e-002</dw_scale>
    <moment_scale>1.0000000000000000e-002</moment_scale>
    <term_criteria><epsilon>1.0000000000000001e-005</epsilon>
      <iterations>1000</iterations></term_criteria></training_params>
  <input_scale>
    1.0422866163971632e+001 -1.0326023463239840e+001
    4.3019938177437798e+000 -4.0554096010099219e+000
    3.1311311204343948e+000 -2.7701383157360109e+000
    2.4028845945512827e+000 -1.8673729195501918e+000
    2.3572489622425645e+000 -1.8024479076599236e+000
    2.2927944895917021e+000 -1.7069564681393958e+000
    2.2926017236710812e+000 -1.7066629464245169e+000
    2.2642545985703424e+000 -1.6628929931527530e+000
    2.1566938404518265e+000 -1.4818714924154048e+000
    2.1040703340469844e+000 -1.3788041873637733e+000
    2.0825799285888480e+000 -1.3316083924733511e+000
    2.0937946499000817e+000 -1.3567263245410266e+000
    2.1565710611001956e+000 -1.4816460211707161e+000
    2.1804034794451082e+000 -1.5244134775810365e+000
    2.2141380096299610e+000 -1.5820445635777773e+000
    2.3061409241341648e+000 -1.7271536359117745e+000
    2.4148637235070178e+000 -1.8841088162728312e+000
    2.9907462267722060e+000 -2.6071917803628937e+000
    3.5549824979525266e+000 -3.2470065228632676e+000
    9.8554558467439684e+000 -9.7529224776651038e+000
    5.0493008260587082e+000 -4.8428091021637467e+000
    2.0000005180459857e+000 -1.0007200131844307e+000
    2.0271075700925429e+000 -8.4835307323901754e-001
    2.0892411584826109e+000 -7.4257396930429509e-001
    2.0788410406024407e+000 -7.5588036790078927e-001
    2.0515032825111699e+000 -7.9735192685443623e-001
    2.0365642284630483e+000 -8.2619238477202772e-001
    2.0530251534508182e+000 -7.9471941423902637e-001
    2.1171330890372522e+000 -7.1134452739686505e-001
    2.1976972503376500e+000 -6.4336174167445170e-001
    2.2351071323457510e+000 -6.1862874892511466e-001
    2.2105037124625375e+000 -6.3452723853779702e-001
    2.1150067306469369e+000 -7.1353626272430848e-001
    2.0914134067994326e+000 -7.3992490287015189e-001
    2.0976633205697133e+000 -7.3252824326902832e-001
    2.1160162518305778e+000 -7.1249228763463679e-001
    2.1068376068376069e+000 -7.2222222222222221e-001
    2.0001371934952696e+000 -9.8835543317910590e-001
    2.0798873781192859e+000 -1.3253957453054848e+000
    5.7625353879731467e+000 -5.5834341441540509e+000
    5.1367322541826326e+000 -4.9340593791402894e+000
    2.0020712218352070e+000 -9.5551315134894987e-001
    2.0866754650906487e+000 -7.4575812277204234e-001
    2.2221670427023104e+000 -6.2682471511415694e-001
    2.1922801657564603e+000 -6.4722686042616950e-001
    2.1482520965784890e+000 -6.8202049156571543e-001
    2.0578742739852980e+000 -7.8663230443120535e-001
    2.0387354413975363e+000 -8.2160384633693817e-001
    2.0810232644034663e+000 -7.5299735995231099e-001
    2.1161175066079756e+000 -7.1238791935471013e-001
    2.1243982700486019e+000 -7.0405530575123787e-001
    2.1138025479815190e+000 -7.1478973813835567e-001
    2.0769305127119759e+000 -7.5844724147389508e-001
    2.0952231473583467e+000 -7.3537767208206317e-001
    2.1481337239955485e+000 -6.8212346807239388e-001
    2.2596561143770848e+000 -6.0398450744162735e-001
    2.2821522623528638e+000 -5.9148106465875105e-001
    2.0849058711421393e+000 -7.4799050523276522e-001
    2.0000626864870026e+000 -1.0079488851222205e+000
    5.7450056342020659e+000 -5.5653214954106902e+000
    5.3877539006419441e+000 -5.1952711662474860e+000
    2.0303117696251132e+000 -8.4039470356922508e-001
    2.1019071119783113e+000 -7.2768373548892529e-001
    2.2036614703996338e+000 -6.3919592346277410e-001
    2.1805385866115392e+000 -6.5588797243036356e-001
    2.0718926354676932e+000 -7.6541947391550058e-001
    2.0001194138251752e+000 -9.8913188050060030e-001
    2.0103256305668720e+000 -1.1069089956958862e+000
    2.0017504687555578e+000 -1.0427229916746055e+000
    2.0004579598729992e+000 -1.0216302019766250e+000
    2.0003880092984647e+000 -1.0198929116308078e+000
    2.0005397781110874e+000 -1.0235045818916830e+000
    2.0049846587450570e+000 -1.0731384223342646e+000
    2.0017068571456909e+000 -9.5953048717197742e-001
    2.0476251414276891e+000 -8.0428539710727065e-001
    2.1676234889417314e+000 -6.6590278614024923e-001
    2.1853113663945676e+000 -6.5231894611607777e-001
    2.0676364172228530e+000 -7.7155862640986261e-001
    2.0042693521516157e+000 -9.3675953558980507e-001
    5.6934035941576662e+000 -5.5119806045381683e+000
    4.9998109775251578e+000 -4.7910902156550375e+000
    2.0333097592036222e+000 -8.3338692217833465e-001
    2.0961225703530588e+000 -7.3432181127201968e-001
    2.1597841742062260e+000 -6.7225631856958823e-001
    2.0871850447324922e+000 -7.4512082732843532e-001
    2.0011101452853990e+000 -1.0338785387144873e+000
    2.1846242736094661e+000 -1.5317957021526558e+000
    2.3283391453891311e+000 -1.7602323160260434e+000
    2.2286499294522804e+000 -1.6059753761079609e+000
    2.2291296475946063e+000 -1.6067586336388262e+000
    2.2408666948160634e+000 -1.6257756927383702e+000
    2.2814038624829776e+000 -1.6895196568463222e+000
    2.4319538853427622e+000 -1.9077861108011762e+000
    2.1975533400729343e+000 -1.5540899364986112e+000
    2.0086032460563374e+000 -1.0971550021643854e+000
    2.0315987517097263e+000 -8.3733825407443341e-001
    2.0550276006870480e+000 -7.9132614212152563e-001
    2.0182569959042151e+000 -8.7370204049612565e-001
    2.0001729940768480e+000 -9.8693349135205855e-001
    5.2291649039722463e+000 -5.0303724673297108e+000
    4.8030390296045811e+000 -4.5849333509717489e+000
    2.0495124001105065e+000 -8.0086946629980671e-001
    2.1011611741312515e+000 -7.2852535900814641e-001
    2.1342606283560355e+000 -6.9461574072125376e-001
    2.0408086183849505e+000 -8.1736501689028862e-001
    2.0414755487883762e+000 -1.2254463576905426e+000
    2.3111680613555983e+000 -1.7346992626977733e+000
    2.4611978124040150e+000 -1.9477973919404934e+000
    2.2791679389579866e+000 -1.6860742470626839e+000
    2.2795396292366088e+000 -1.6866475251853414e+000
    2.3549869171180484e+000 -1.7991773371897095e+000
    2.4419633077640022e+000 -1.9215501366989394e+000
    2.6110535757054913e+000 -2.1448123136430501e+000
    2.3388348564560775e+000 -1.7756658273545685e+000
    2.0783608388002146e+000 -1.3218391253770914e+000
    2.0027526035601237e+000 -9.4889299236922442e-001
    2.0254045464521138e+000 -8.5280888938162347e-001
    2.0038018852321158e+000 -9.4021221743110006e-001
    2.0034229417086924e+000 -1.0602424100333641e+000
    5.0110944077621591e+000 -4.8028862713407126e+000
    4.7385409223504542e+000 -4.5171630372128355e+000
    2.0372453221309272e+000 -8.2473577229758854e-001
    2.0782011528894180e+000 -7.5673555033891327e-001
    2.0956722215355916e+000 -7.3484966532809237e-001
    2.0255334746079461e+000 -8.5246557015496360e-001
    2.0303589261713881e+000 -1.1900775541872208e+000
    2.2135291911241151e+000 -1.5810302067860265e+000
    2.3021662552505289e+000 -1.7211641452916668e+000
    2.1890523042511418e+000 -1.5394840126998151e+000
    2.2291296475946063e+000 -1.6067586336388262e+000
    2.3162614702838771e+000 -1.7423111864413696e+000
    2.3179055247772897e+000 -1.7447611828199923e+000
    2.3366706957773702e+000 -1.7724938412711544e+000
    2.1971220512999876e+000 -1.5533536455078432e+000
    2.0588863403407900e+000 -1.2738879300047443e+000
    2.0000976266678685e+000 -1.0099295547337528e+000
    2.0068865614502349e+000 -9.2038656737582258e-001
    2.0012449894636268e+000 -1.0359123936168784e+000
    2.0211468540196469e+000 -1.1563768953443561e+000
    5.1822943913598820e+000 -4.9815538116513789e+000
    4.7042322218203392e+000 -4.4810713004816130e+000
    2.0044254195708753e+000 -9.3565209338602529e-001
    2.0271520071694309e+000 -8.4823902936913631e-001
    2.0434545506992778e+000 -8.1214047902554554e-001
    2.0147998225311601e+000 -8.8552053968080890e-001
    2.0116871442039921e+000 -1.1141084858040036e+000
    2.0926435403148962e+000 -1.3542003934904354e+000
    2.1457792568256151e+000 -1.4615953715602077e+000
    2.1000485132179803e+000 -1.3702600126813911e+000
    2.1269529284308732e+000 -1.4253910811351831e+000
    2.1448443666723889e+000 -1.4598358373438585e+000
    2.1193868739774446e+000 -1.4103359620722773e+000
    2.1089667452377352e+000 -1.3890505304955207e+000
    2.0501918506441634e+000 -1.2505325153245366e+000
    2.0075591206969068e+000 -1.0908048772012768e+000
    2.0050780085757491e+000 -9.3123363900220291e-001
    2.0073088185169552e+000 -9.1808471121072543e-001
    2.0081439394958962e+000 -1.0944075686750847e+000
    2.0487770321759955e+000 -1.2465862476087537e+000
    5.5057371200901022e+000 -5.3176853778479352e+000
    4.7416999882856778e+000 -4.5204847758504432e+000
    2.0010754950771785e+000 -1.0333368976738266e+000
    2.0020474125240733e+000 -9.5576378471344892e-001
    2.0138763601371399e+000 -8.8893606788491442e-001
    2.0048005855508180e+000 -9.3307247039344154e-001
    2.0077903879354917e+000 -1.0922442769937628e+000
    2.0280488624032622e+000 -1.1820885471627469e+000
    2.0148322140036621e+000 -1.1294292728763577e+000
    2.0047098614686996e+000 -1.0710237531173155e+000
    2.0063503835935719e+000 -1.0829277180045394e+000
    2.0009105024431286e+000 -1.0306332182969513e+000
    2.0002697851771529e+000 -9.8370920011722052e-001
    2.0003726903824179e+000 -9.8088025529842571e-001
    2.0065835854399134e+000 -9.2208575021556716e-001
    2.0217356710635275e+000 -8.6303759196613572e-001
    2.0410302734474555e+000 -8.1691959580436335e-001
    2.0238842418708325e+000 -8.5693613355664178e-001
    2.0004303694755703e+000 -1.0209616490158639e+000
    2.0515662010976343e+000 -1.2543240583037556e+000
    5.5944203234198966e+000 -5.4095624903159871e+000
    4.7640047485248731e+000 -4.5439309833963932e+000
    2.0046918216079583e+000 -1.0708829438989316e+000
    2.0012916594470491e+000 -9.6470036348533728e-001
    2.0184016733029124e+000 -8.7323639755799620e-001
    2.0044604854578125e+000 -9.3540614946575396e-001
    2.0015897723566503e+000 -1.0406747583030780e+000
    2.0096381953722928e+000 -1.1031116155845164e+000
    2.0030931769026634e+000 -1.0571844248443947e+000
    2.0003098762258444e+000 -9.8255095470963916e-001
    2.0026841658446708e+000 -9.4951576691163286e-001
    2.0174718806183165e+000 -8.7626633144960975e-001
    2.0290994059424401e+000 -8.4334485549606619e-001
    2.0334089935394983e+000 -8.3316149431030162e-001
    2.0596348212654276e+000 -7.8380135578614973e-001
    2.0770095717385035e+000 -7.5834020874833796e-001
    2.0712106363560574e+000 -7.6638723736134950e-001
    2.0644524928452892e+000 -7.7631410563252490e-001
    2.0054796478097701e+000 -9.2866449437608733e-001
    2.0118021055852653e+000 -1.1146986998688757e+000
    5.7161575451788336e+000 -5.5355055727701847e+000
    4.7575975577408247e+000 -4.5371971735963177e+000
    2.0034847068193722e+000 -1.0607994665695453e+000
    2.0017285939146152e+000 -9.5927895189626655e-001
    2.0216566725057588e+000 -8.6326843190293667e-001
    2.0049660938636498e+000 -9.3196879740936778e-001
    2.0008483577961265e+000 -1.0295538497486578e+000
    2.0144779187123474e+000 -1.1277807415103609e+000
    2.0162937303220136e+000 -1.1360534784926297e+000
    2.0000111359366888e+000 -9.9666850823096387e-001
    2.0054407299611059e+000 -9.2890891365534700e-001
    2.0176132948022385e+000 -8.7579968577622525e-001
    2.0351713175311081e+000 -8.2922278310974362e-001
    2.0350183496875149e+000 -8.2955992400400558e-001
    2.0487160265378188e+000 -8.0230094999861590e-001
    2.0489603027650811e+000 -8.0186033964784076e-001
    2.0583453404149838e+000 -7.8586959767855991e-001
    2.0748915652390125e+000 -7.6123254637801108e-001
    2.0112330686675128e+000 -8.9948164786641704e-001
    2.0055972438950569e+000 -1.0776656786538119e+000
    5.5417146131016795e+000 -5.3549722833400253e+000
    4.7322430474726032e+000 -4.5105401081288630e+000
    2.0017285939146152e+000 -1.0424496420183487e+000
    2.0020951694306666e+000 -9.5526257773267165e-001
    2.0192080361801383e+000 -8.7067859441386586e-001
    2.0009263824953467e+000 -9.7002313471883939e-001
    2.0333593565586585e+000 -1.2000851531871426e+000
    2.1045442776790124e+000 -1.3798032887746978e+000
    2.1140026977806063e+000 -1.3994219258945491e+000
    2.0380929390017317e+000 -1.2151477367129344e+000
    2.0137825802679106e+000 -1.1244926087814138e+000
    2.0040155231308212e+000 -1.0654077161184272e+000
    2.0000215827361312e+000 -9.9536505648701257e-001
    2.0009184252728920e+000 -1.0307682236585407e+000
    2.0000490192086087e+000 -9.9302309479519224e-001
    2.0005832106387644e+000 -9.7614009040981919e-001
    2.0220133538861025e+000 -8.6222999589581428e-001
    2.0451326471191327e+000 -8.0892670626415997e-001
    2.0028219081952980e+000 -9.4827058350462456e-001
    2.0071517650869688e+000 -1.0882195593476818e+000
    5.3088506849618362e+000 -5.1132815600757855e+000
    4.4951885996719065e+000 -4.2604728696098650e+000
    2.0019651687118616e+000 -9.5664147268878652e-001
    2.0115157844579867e+000 -8.9829190793206559e-001
    2.0320341094527072e+000 -8.3632104615962366e-001
    2.0000065119957573e+000 -9.9745139268675398e-001
    2.1170312821888855e+000 -1.4055824393359040e+000
    2.3019686092536999e+000 -1.7208657567704981e+000
    2.3185238288169572e+000 -1.7456817181310429e+000
    2.1499158373344178e+000 -1.4693365779596934e+000
    2.1285663549705185e+000 -1.4285614802677884e+000
    2.0903668320920810e+000 -1.3491708716715491e+000
    2.0653840656572524e+000 -1.2904765061153636e+000
    2.1258844885114070e+000 -1.4232840467479368e+000
    2.1171330890372522e+000 -1.4057885616403871e+000
    2.0582779134050275e+000 -1.2722993815309360e+000
    2.0003429788572546e+000 -9.8165100709477260e-001
    2.0319370876735525e+000 -8.3654702320499863e-001
    2.0052291904836190e+000 -9.3025420143485305e-001
    2.0001055398454977e+000 -9.8977937563642593e-001
    5.0609450730483196e+000 -4.8549706023661203e+000
    4.4925297877384089e+000 -4.2576589312048103e+000
    2.0497588786631247e+000 -8.0042929973575394e-001
    2.0840707951057733e+000 -7.4905456242334711e-001
    2.1014405097618636e+000 -7.2820970618980763e-001
    2.0073313962469146e+000 -9.1796369353986029e-001
    2.1357089725797267e+000 -1.4424385274467015e+000
    2.4338316392179826e+000 -1.9103739019864503e+000
    2.4049017191748354e+000 -1.8701993674273978e+000
    2.2209178654381287e+000 -1.5932829599334977e+000
    2.1998647721901414e+000 -1.5580276316290056e+000
    2.1390896194430828e+000 -1.4489207446492702e+000
    2.1265248651262838e+000 -1.4245476391521883e+000
    2.2671151902351894e+000 -1.6673673191286742e+000
    2.2732728741520321e+000 -1.6769533719289411e+000
    2.1494392381040797e+000 -1.4684482814267288e+000
    2.0008714041420199e+000 -1.0299584725764097e+000
    2.0231834819965195e+000 -8.5888990585574942e-001
    2.0125040134296834e+000 -8.9425602010082972e-001
    2.0024061882701103e+000 -9.5213542957265529e-001
    4.6646984010027142e+000 -4.4394450201259223e+000
    4.4636159687646009e+000 -4.2270440303559553e+000
    2.0810232644034663e+000 -7.5299735995231099e-001
    2.1268458265855474e+000 -7.0166568459362233e-001
    2.1448443666723889e+000 -6.8500852932853029e-001
    2.0283209378560829e+000 -8.4527750135479884e-001
    2.0970271007877717e+000 -1.3637605414335969e+000
    2.4637627889986176e+000 -1.9512782044126982e+000
    2.5363670507973661e+000 -2.0481126594183272e+000
    2.2637208575976606e+000 -1.6620566474581790e+000
    2.2063197076498566e+000 -1.5689512911560979e+000
    2.1551026851612547e+000 -1.4789450344808768e+000
    2.1579251546746434e+000 -1.4841295099643510e+000
    2.4074356594188013e+000 -1.8737451527047466e+000
    2.3907211813398375e+000 -1.8502551941953542e+000
    2.1372799302128000e+000 -1.4454573944042075e+000
    2.0002245571442421e+000 -1.0150979300667893e+000
    2.0214205811027144e+000 -8.6396121414401172e-001
    2.0147998225311601e+000 -8.8552053968080890e-001
    2.0019768141494647e+000 -9.5651604376885369e-001
    4.6497756941807937e+000 -4.4237216903349301e+000
    4.7866502689136485e+000 -4.5677227980001733e+000
    2.0646667940737427e+000 -7.7598940425044671e-001
    2.1090641395948762e+000 -7.1981146058541345e-001
    2.1337062285055133e+000 -6.9513337117901919e-001
    2.0402573417905816e+000 -8.1847920974403299e-001
    2.0257923658166272e+000 -1.1740131508236515e+000
    2.3045460723515667e+000 -1.7247528610585108e+000
    2.4381514511866733e+000 -1.9163171649319060e+000
    2.1944058953790329e+000 -1.5487052272170549e+000
    2.1343716850790351e+000 -1.4398594564656710e+000
    2.1162188164979323e+000 -1.4039352601238329e+000
    2.1328222466585687e+000 -1.4368604234506721e+000
    2.3067407148576939e+000 -1.7280556464310501e+000
    2.2198290203740578e+000 -1.5914850864515180e+000
    2.0386816767979257e+000 -1.2169661020367386e+000
    2.0033010808209371e+000 -9.4417180430237579e-001
    2.0285944095201214e+000 -8.4459505514470534e-001
    2.0152237666111912e+000 -8.8399268019115529e-001
    2.0004579598729992e+000 -9.7882775789637433e-001
    5.0493008260587082e+000 -4.8428091021637467e+000
    5.3088506849618362e+000 -5.1132815600757855e+000
    2.0220930314407117e+000 -8.6199935221070711e-001
    2.0650248651694345e+000 -7.7544838717577602e-001
    2.1045442776790124e+000 -7.2474098890431482e-001
    2.0444920190181923e+000 -8.1014484506799533e-001
    2.0000159311685666e+000 -9.9601657083844530e-001
    2.0502538737776006e+000 -1.2507044994587824e+000
    2.0661058613711210e+000 -1.2922793907509353e+000
    2.0026841658446708e+000 -1.0531683989330380e+000
    2.0000007235519428e+000 -9.9914974313414140e-001
    2.0000036006419943e+000 -1.0018993369439972e+000
    2.0011364943712646e+000 -1.0342849682024877e+000
    2.0258789697310213e+000 -1.1743284559868559e+000
    2.0097162798638073e+000 -1.1035489773354099e+000
    2.0039822722984115e+000 -9.3885448339047484e-001
    2.0548319992154234e+000 -7.9165417858930920e-001
    2.0734986129751114e+000 -7.6316362611954469e-001
    2.0233063479017064e+000 -8.5854489734623873e-001
    2.0000690577952374e+000 -9.9172435516405866e-001
    5.5997781332002683e+000 -5.4151096663329694e+000
    5.5890786106467027e+000 -5.4040315795018206e+000
    2.0002091391978669e+000 -9.8564254578938271e-001
    2.0384670235823457e+000 -8.2216258151943844e-001
    2.1048292767204742e+000 -7.2442596319765051e-001
    2.0588185612517838e+000 -7.8510728096416904e-001
    2.0121797205219858e+000 -8.9556019492184435e-001
    2.0000546710566756e+000 -1.0074213739314459e+000
    2.0000003467910696e+000 -1.0005890631135588e+000
    2.0496971953859400e+000 -8.0053932861733135e-001
    2.0804541441502815e+000 -7.5374433005038988e-001
    2.0778027711880429e+000 -7.5727026339837722e-001
    2.0624017754367867e+000 -7.7945643230536410e-001
    2.0073540093689117e+000 -9.1784268909703304e-001
    2.0142865299930039e+000 -8.8740373005580686e-001
    2.0453082376843033e+000 -8.0859467199427859e-001
    2.1086748839615841e+000 -7.2023051065101540e-001
    2.1252461695645155e+000 -7.0322383560084767e-001
    2.0319855788655889e+000 -8.3643402974830994e-001
    2.0038506634834889e+000 -1.0640089075553565e+000
    5.9282407288988859e+000 -5.7544625540283301e+000
    5.6653571468276445e+000 -5.4829743871443890e+000
    2.0647383180199506e+000 -1.2888571323634317e+000
    2.0043383662048821e+000 -1.0680711675961891e+000
    2.0241341926947114e+000 -8.5624730457183207e-001
    2.0110373103822243e+000 -9.0031520497514739e-001
    2.0032559566259072e+000 -9.4454376911903992e-001
    2.0002655020879807e+000 -9.8383797547571494e-001
    2.0026977840469828e+000 -9.4939118271415235e-001
    2.0983020579010696e+000 -7.3179022237863645e-001
    2.1554689191198686e+000 -6.7584944450843498e-001
    2.1580486387857305e+000 -6.7369299585465681e-001
    2.1130041325380580e+000 -7.1562581888483867e-001
    2.0118598028506147e+000 -8.9686585335478886e-001
    2.0175778857253959e+000 -8.7591633002604208e-001
    2.0341583090461244e+000 -8.3147202490421634e-001
    2.0480477514201976e+000 -8.0351333622426913e-001
    2.0513147832125851e+000 -7.9768132936153857e-001
    2.0004980279610818e+000 -1.0225669432985651e+000
    2.0712862285967568e+000 -1.3050065494443612e+000
    6.1027892216935458e+000 -5.9342766880578282e+000
    8.1101269266153064e+000 -7.9848903922515548e+000
    2.8078672729624188e+000 -2.3893420064696889e+000
    2.6017672372360572e+000 -2.1329282022724962e+000
    2.3146243069854666e+000 -1.7398680912549263e+000
    2.3061409241341648e+000 -1.7271536359117745e+000
    2.2390454074284110e+000 -1.6228427650385728e+000
    2.2425313429066920e+000 -1.6284507520498899e+000
    2.2291296475946063e+000 -1.6067586336388262e+000
    2.0628933225818509e+000 -1.2841959740262858e+000
    2.0244695938777335e+000 -1.1691401318828030e+000
    2.0233473791070953e+000 -1.1649174631134811e+000
    2.0597714828166027e+000 -1.2761876706661264e+000
    2.2168931588942766e+000 -1.5866241819005169e+000
    2.1904510445640311e+000 -1.5419009577582834e+000
    2.1779834006766157e+000 -1.5201563132249860e+000
    2.2093021607576571e+000 -1.5739633531590245e+000
    2.2582535287009247e+000 -1.6534618194178727e+000
    2.5456374100595918e+000 -2.0602623257885946e+000
    2.7937774609233657e+000 -2.3722338618335743e+000
    8.9099541610781490e+000 -8.7962696055975336e+000</input_scale>
  <output_scale>
    1.0526315789473684e+000 0. 1.0526315789473684e+000 0.
    1.0526315789473684e+000 0. 1.0526315789473684e+000 0.
    1.0526315789473684e+000 0. 1.0526315789473684e+000 0.
    1.0526315789473684e+000 0. 1.0526315789473684e+000 0.
    1.0526315789473684e+000 0. 1.0526315789473684e+000 0.
    1.0526315789473684e+000 0. 1.0526315789473684e+000 0.
    1.0526315789473684e+000 0. 1.0526315789473684e+000 0.
    1.0526315789473684e+000 0. 1.0526315789473684e+000 0.
    1.0526315789473684e+000 0. 1.0526315789473684e+000 0.
    1.0526315789473684e+000 0. 1.0526315789473684e+000 0.
    1.0526315789473684e+000 0. 1.0526315789473684e+000 0.
    1.0526315789473684e+000 0. 1.0526315789473684e+000 0.
    1.0526315789473684e+000 0. 1.0526315789473684e+000 0.
    1.0526315789473684e+000 0. 1.0526315789473684e+000 0.
    1.0526315789473684e+000 0. 1.0526315789473684e+000 0.
    1.0526315789473684e+000 0. 1.0526315789473684e+000 0.
    1.0526315789473684e+000 0. 1.0526315789473684e+000 0.
    1.0526315789473684e+000 0. 1.0526315789473684e+000 0.
    1.0526315789473684e+000 0. 1.0526315789473684e+000 0.
    1.0526315789473684e+000 0. 1.0526315789473684e+000 0.
    1.0526315789473684e+000 0.</output_scale>
  <inv_output_scale>
    9.4999999999999996e-001 0. 9.4999999999999996e-001 0.
    9.4999999999999996e-001 0. 9.4999999999999996e-001 0.
    9.4999999999999996e-001 0. 9.4999999999999996e-001 0.
    9.4999999999999996e-001 0. 9.4999999999999996e-001 0.
    9.4999999999999996e-001 0. 9.4999999999999996e-001 0.
    9.4999999999999996e-001 0. 9.4999999999999996e-001 0.
    9.4999999999999996e-001 0. 9.4999999999999996e-001 0.
    9.4999999999999996e-001 0. 9.4999999999999996e-001 0.
    9.4999999999999996e-001 0. 9.4999999999999996e-001 0.
    9.4999999999999996e-001 0. 9.4999999999999996e-001 0.
    9.4999999999999996e-001 0. 9.4999999999999996e-001 0.
    9.4999999999999996e-001 0. 9.4999999999999996e-001 0.
    9.4999999999999996e-001 0. 9.4999999999999996e-001 0.
    9.4999999999999996e-001 0. 9.4999999999999996e-001 0.
    9.4999999999999996e-001 0. 9.4999999999999996e-001 0.
    9.4999999999999996e-001 0. 9.4999999999999996e-001 0.
    9.4999999999999996e-001 0. 9.4999999999999996e-001 0.
    9.4999999999999996e-001 0. 9.4999999999999996e-001 0.
    9.4999999999999996e-001 0. 9.4999999999999996e-001 0.
    9.4999999999999996e-001 0. 9.4999999999999996e-001 0.
    9.4999999999999996e-001 0.</inv_output_scale>
  <weights>
    <_>
      -1.1556329771167431e-001 -3.7448714110141779e-002
      7.0783867438921544e-003 -4.2960353581242360e-002
      6.0786259437195074e-002 -1.0623865483267436e-002
      4.4488055104699831e-002 -4.9721037193800097e-002
      -3.7955742744192333e-002 1.2249721123997227e-002
      4.8958324757076212e-002 -1.4182162832415482e-002
      -3.6027562718270310e-002 2.2793921677343367e-002
      -5.1709725942231440e-003 3.4627068008538570e-003
      2.6012846934917147e-003 -2.7521406783226066e-002
      4.0761299430710059e-002 -4.3963032799330344e-002
      1.2319640669060584e-001 -2.5000817298675020e-002
      5.9828026789639138e-002 6.5657273351606288e-003
      -5.7399998671389839e-003 2.8793049685056062e-002
      -5.4148652396476009e-003 1.0301311612886620e-002
      2.9944234723254040e-002 3.9658218007565721e-002
      -2.7174728035797371e-002 4.6125489663671583e-003
      7.6317497891090103e-002 5.8041559786414587e-003
      -2.7169495335400019e-002 5.7547961844925822e-003
      -3.1797862013965721e-002 -3.4051653094430812e-002
      1.6598851464760121e-002 -2.2926731293840777e-002
      -6.2300557667202671e-003 6.8117770796655069e-002
      -2.9504518468076935e-002 -3.0975275305913107e-002
      -1.4774893914024026e-002 1.0983707471820649e-002
      3.9406241771985850e-003 4.9176104792369828e-002
      -2.7606518389442742e-002 4.6489609526087959e-002
      3.0509605574600421e-002 2.8667004208683889e-002
      -5.7262472222604256e-002 5.8401869925558840e-002
      3.0648365742270835e-002 4.9620429869505794e-002
      -3.4397285815859741e-002 1.2082689872624754e-002
      -2.2061985460295100e-002 1.0371617743320651e-002
      -1.7832327607004567e-002 -9.3939105798923985e-004
      2.6653932026839976e-002 -6.1275922357814728e-003
      6.6619902003637654e-002 -1.5842338790787992e-002
      5.6842063488577047e-003 -1.0139570981716028e-001
      -5.5902743851427754e-004 -4.1037337170655733e-002
      1.5129677206703529e-002 1.0950827611297869e+000
      -7.7498824291447818e-002 -9.5369537322772244e-002
      6.8419982841962740e-002 7.7107071410460831e-002
      -6.8381270243792272e-002 1.2354954923533780e-001
      2.4757495958408999e-002 1.2154398018299226e-001
      -1.4316979771592095e-002 1.6124274170171839e-002
      -4.0149865301954017e-002 3.8629159110775906e-002
      2.3410696111985013e-002 -2.8844809830239324e-002
      -2.3303487603147450e-002 2.2032317045090039e-002
      -5.2962455597016247e-002 4.7823554467680149e-002
      -6.7475041659766602e-002 8.7396413841612133e-002
      -1.6056311823204491e-002 2.0911948602513733e-002
      1.0898638890443998e-001 9.3188488024255993e-003
      -2.1587556076710073e-002 5.9934887470874769e-002
      3.6335201587532888e-002 3.9810765937400405e-002
      1.0225098346290196e-001 -8.7769194222290375e-002
      -1.9658044985802245e-002 -1.3531770774805022e-002
      -2.2373071752284693e-003 -4.8958243046033433e-002
      6.8890753636789925e-002 -2.3713495052482492e-002
      2.0673710496197238e-003 -7.8156031242161677e-003
      6.8129271634784411e-002 7.8895017447668109e-003
      1.6844160016170082e-001 -3.4423090446889994e-002
      7.8104350766194694e-002 4.5038086788515268e-003
      4.5890252779031394e-002 -7.4866416232877389e-002
      1.2438741422097975e-001 5.2817224491187751e-005
      9.4937338406994642e-002 4.9408380281934845e-002
      -1.4388741949373385e-001 -4.1941325763906738e-002
      1.2756186605648197e-002 7.8224479618230827e-002
      1.4022370106921997e-001 -2.3472616689737699e-002
      2.9689757006982876e-003 8.2085107276528096e-002
      -1.0984719648119605e-001 8.8744499972164631e-002
      1.4938582812608285e-002 4.2725533004685012e-002
      -1.3989037563930223e-001 1.3171576605534371e-001
      -1.0578322850999303e-001 1.2019584671565775e-003
      -4.8095397091926666e-002 -1.2447976646378815e-002
      -1.2453848863843070e-001 3.6130364288360778e-002
      1.1474148317217179e+000 3.6928073151287689e-002
      -3.7968430804798461e-002 6.9518254766064519e-002
      -8.7877904312657906e-002 -2.3151868897472300e-002
      -1.0985281567028600e-001 -4.2582438516704825e-002
      6.5543278533848864e-002 7.8775471442182374e-002
      -1.3347621600914658e-001 2.1740839976684773e-002
      -6.8026922630150463e-002 -1.7864089815225889e-001
      -9.9390713364986338e-002 2.3569203690121435e-001
      5.3352048302397301e-002 -1.6496416639140463e-001
      1.9591883966002463e-002 1.8600663839333544e-002
      1.6032303195159459e-002 -5.7417168656276968e-002
      -1.3658862127742066e-002 -7.3667773806883705e-002
      -7.8644712534321676e-002 2.2735865091887192e-001
      -1.0251128773560993e-001 3.3683580941760216e-001
      -9.9214850085879418e-003 -1.5224314977246067e-001
      -6.7282614807780985e-002 -5.6868464700893649e-002
      -7.9695040403452641e-002 6.9635404697482889e-002
      -2.4283535351772658e-002 2.2153308153116780e-001
      -8.2450878044331599e-002 -1.0385341405014905e-002
      1.6308586998575028e-001 3.0473956505939766e-002
      -3.4945625832785918e-002 -6.5155542914217823e-002
      -6.4382458148679558e-002 7.6453349037977451e-003
      7.9861567597008840e-002 1.5979137743777194e-001
      1.1037582207344444e-001 1.5156275141275082e-002
      3.2199400935002107e-002 -2.0080629229876319e-002
      1.7852329591556820e-001 2.2327487680188256e-002
      -4.4218167430630867e-002 -9.5297829173762311e-003
      -3.3116615530980314e-003 5.0507406285639010e-002
      1.1497466378242840e-001 -1.8239301786529055e-001
      5.4517528779602850e-002 4.7425745155283569e-002
      6.7798104685971748e-003 4.2239359315357050e-002
      -5.2248389020505140e-003 -5.3982312319558863e-002
      2.4711548438983677e-001 -4.3078156655951120e-004
      1.0997933783358095e-001 4.9729749715563834e-002
      1.1341457676445184e-002 -8.8409856479702495e-002
      7.7050544844205057e-003 1.2329476487113180e+000
      9.1161141991241562e-002 -4.4100903608473338e-002
      1.3476821687298574e-002 -1.2683501614832823e-001
      5.7777351826503336e-002 -6.9975239082066343e-003
      2.9022609738921706e-002 1.4553562293776830e-002
      -2.1533171268705886e-001 -8.8829704257419137e-002
      2.4415438669688080e-002 9.4508151864748383e-002
      -1.6858501568677459e-001 -2.5915575661700694e-002
      6.4504590516835554e-003 3.5911119445098498e-002
      -7.9838111232470213e-002 8.6288623680914490e-003
      7.9585544784458923e-002 -5.7510740480967305e-002
      -5.7181527273954189e-002 -1.1974430272944034e-001
      -6.5879975199722704e-002 -1.1416696599889582e-001
      2.6501724346115049e-003 -2.1132365626454000e-002
      1.5894267461343572e-001 7.5066079159538932e-002
      -1.9933155438717545e-001 4.7022422187474877e-002
      2.8648937781859708e-002 -1.0413586851624737e-001
      -9.3081740541576918e-002 4.3906623979179202e-002
      7.8224155877551563e-002 8.1856470252656827e-002
      -3.2026381048912533e-002 -5.5358678252824339e-002
      -3.4168161000076064e-003 -6.2485299347652450e-002
      1.1069305391792633e-001 -7.2824068339568851e-002
      -6.2016680017107209e-002 3.7118953590956204e-002
      2.1212807799413629e-002 1.0315271434616402e-001
      -2.8646714111888603e-002 -6.5766282798423101e-002
      1.1835039202091097e-001 -1.3394877401598195e-002
      -2.7589503324204408e-002 -6.2137670990981908e-003
      -4.7068919704415096e-002 5.4460340970704305e-002
      7.8213805838890718e-003 6.9132622408096395e-002
      -8.9826322856646823e-002 1.9265840024260189e-001
      6.1668403776910026e-002 -9.0523007875975184e-002
      8.4679488875978228e-003 -2.7497130327345247e-003
      -8.7501804974214614e-002 2.2515396370253249e-001
      -2.8073444383968717e-002 -5.1473370685245082e-003
      1.1224965059523900e-001 -7.8884296123557573e-002
      1.2908458302545825e-001 3.7454530058228026e-002
      2.0481674070031844e-001 -4.5588194587344949e-002
      1.2556462706139257e-001 1.3107352160017073e-003
      -1.4561560731457707e-001 7.8158745840206503e-002
      4.9510151533661520e-002 6.1232278349741147e-002
      -3.4103493520217631e-002 -1.0444560686767541e-001
      -4.1758604326568402e-002 -1.8409262884153416e-002
      -8.2503282683285498e-003 -1.0268684905246214e-001
      6.8622830912083474e-002 -4.8519234398539064e-002
      2.7716705725173195e-003 -5.7345856607921054e-002
      -6.9504648387991516e-002 4.5621993230598692e-002
      -2.1439594691034659e-002 -6.9081382585476719e-002
      -8.4283751962716091e-002 3.2436904764461719e-002
      -4.9160756327589421e-002 1.2216335865179458e-001
      -2.8628214198525400e-002 1.4338270396174813e-001
      1.5218828076060349e-002 -1.6308757943656368e-001
      5.4921740718365968e-002 -9.2537160674638214e-003
      5.5793374144732601e-002 -3.7825896137327120e-002
      4.5781460340605797e-002 1.5409306438732015e-001
      1.2484201361206335e-001 -9.2501028899566559e-002
      5.4151479276751832e-002 1.0968843737482180e-001
      2.2129289564428705e-002 -2.4310584670852679e-002
      -2.4526383385730564e-002 2.9955180474923942e-002
      6.2581514157057594e-002 2.7859525004178376e-002
      7.9995304657565505e-002 -5.0361490176373903e-002
      -3.5964057487461322e-002 1.9930987970667023e-002
      1.2331039079699713e-001 -5.7010578939126769e-002
      -8.6043809731240262e-002 -6.3962450042273758e-002
      -2.6067244674571374e-002 -6.5247861456434228e-002
      4.8292809278585723e-002 -1.2602111148356854e-001
      -4.7263403447514514e-002 -3.9960307376940771e-002
      2.4857741180330028e-002 4.1719264662939008e-002
      -3.0611514686031013e-002 7.2938311589431468e-002
      3.4052836626664910e-002 -9.6981625873480151e-002
      -4.1070463941993859e-002 7.2804336250666152e-002
      -8.8863832695495831e-002 1.6143392404686996e-001
      -4.3888364479049535e-002 -4.8403258720432191e-001
      -7.3092548731589629e-002 -1.4083271105871828e-001
      3.1489994694242178e-002 -8.9963268090460183e-003
      -2.9124171033237323e-002 -5.2579501364704200e-003
      6.0235127787437961e-002 3.3447805782768958e-002
      4.3964472375937431e-002 2.6449081455869536e-002
      -8.6583588777291269e-003 -4.2453338876436680e-002
      6.0735430151252080e-002 -4.2041672746735953e-002
      -1.5475251444832985e-002 -2.2868308115069701e-002
      2.1476935163579080e-002 -7.2271665226627688e-002
      2.2994999824097737e-002 2.2848976291376836e-002
      -4.3676226184082685e-002 4.0913857713742952e-002
      4.1027121073625231e-002 6.2970820236384908e-002
      -1.1894719701767301e-001 3.1688762258255099e-003
      -6.3706166603692729e-002 4.1772672886979242e-003
      1.9423889573120707e-002 -2.4956668607363026e-002
      -1.0747000688601449e-001 5.6537479006316636e-002
      2.9671316808295028e-002 -1.9924885132813448e-002
      -6.2131400938708621e-002 3.8510493974715856e-002
      -5.3311611710288642e-002 -1.2653824000135058e-002
      1.9216524158025210e-002 -1.7255769038522498e-002
      -1.2141944681593455e-002 5.0301870494837093e-002
      9.1379853930735097e-002 3.5237306998549218e-002
      -9.4144613248378084e-002 -7.4637995202963571e-004
      -7.3972866450191826e-002 4.2330716549456339e-003
      -6.6870068771284180e-002 -3.1568586761213643e-002
      4.9366962532751649e-002 -7.9194460228560082e-002
      8.7999075441568125e-003 1.3453028477419976e-002
      -2.4726071276952848e-002 2.4215945279536071e-002
      1.9633514694947332e-001 -2.3534965852368386e-002
      1.2194596471284035e-002 -9.7810905357621422e-004
      3.0502231064588752e-002 -6.2284615591097083e-002
      7.7336972582332283e-002 -6.6794383573053867e-002
      2.5688103909061805e-002 2.0397021927965754e-002
      -4.9497227625095369e-002 -6.3836577225178548e-002
      1.6489217002733492e-001 -1.2459546702152642e-001
      -6.0188927138494974e-001 3.2498748568964460e-003
      -9.5356324781993698e-002 1.6952825267648380e-002
      -5.1938414331049232e-002 3.5547771378315565e-002
      -4.0201857349721190e-002 8.7488074591217158e-002
      -1.0349437952306195e-001 -1.3196749049801595e-001
      6.7687981871173669e-002 3.3350097083516407e-003
      1.7872076890233630e-002 1.6781321909556435e-001
      -1.0483091379350043e-001 -3.2352133677183190e-002
      -6.7000879549798886e-002 1.1451007940992929e-001
      1.8709855858754856e-002 -2.3526299652332203e-002
      2.0802821796788457e-002 1.4195997226967863e-002
      -2.4127586504185186e-002 -4.1901328140310778e-003
      -3.7118874002827928e-002 -9.1578940539694856e-002
      -7.7657054174901374e-003 -5.8688877768408386e-002
      3.5082354940000143e-002 6.3741861056322277e-002
      7.6359151791266962e-003 -1.7703284941619424e-002
      6.3008579557942257e-002 -4.5181009542472020e-002
      1.1024870407968014e-002 -1.1753373668726338e-001
      1.1932541485917331e-001 -9.2502632109566621e-002
      2.0647901475284450e-002 1.1735347277765461e-001
      1.9232022014081678e-002 9.7377563248524195e-003
      7.4867352012088745e-002 -3.4317565340270242e-004
      7.4611842868011868e-002 -8.3177080579454915e-002
      -4.2552144834446274e-003 -6.8950073066291015e-002
      -4.7677465979784776e-002 1.3479560367017468e-001
      -9.9894505927868527e-002 3.6490494048182540e-002
      -1.3426853240852715e-001 -4.4083376972192119e-002
      5.4931093162771442e-002 1.7842459384600030e-002
      -5.3437357665552507e-002 1.2134361027231409e-001
      2.2618885220456141e-002 -9.2611897036217875e-002
      4.8261491570803457e-002 -9.4409246498787153e-002
      3.8907079982557817e-002 6.0528245955906529e-002
      -7.8111558141875939e-002 -1.0620475298346491e-002
      -4.9371394133198562e-002 -3.9196982153810102e-002
      4.7607272965646090e-002 4.8443941708626932e-002
      -5.4446636879351029e-002 -1.0377194293841394e+000
      -8.1639075510827469e-003 -4.9375046357525314e-002
      1.2246286536925858e-002 8.6838600096258693e-005
      7.1337351166831861e-002 9.5226246171891418e-002
      8.2099562407342092e-002 -8.2711799146635512e-002
      1.5436502703473520e-002 -4.8562491815834115e-003
      1.9355670203980799e-002 4.0328924613563771e-002
      2.6818473117086755e-001 -1.6016315865680170e-002
      -8.4776516479296876e-002 -1.3914396008114738e-001
      1.1190132831512245e-002 3.4910654292658577e-002
      -1.0297441915918049e-002 1.3417169329675660e-002
      1.3547158488427746e-001 2.0689967336378734e-002
      2.0314370989556862e-002 -5.2801456216460202e-003
      1.0128579519038675e-001 1.2740134327851864e-002
      -1.2423352009900576e-001 -3.6424766913582115e-003
      9.9188268543158070e-002 4.1549116492800041e-002
      -6.5510634201946069e-002 2.6021932271163353e-002
      -4.2221244742840511e-003 6.1798274521200694e-003
      -3.6855915577439051e-002 1.4835252847672320e-003
      -4.6988516713508420e-002 4.5409763542148207e-002
      -2.6919665170438440e-002 1.3312140617554161e-002
      -1.2567654642527222e-002 1.0088946563858155e-001
      -2.2699739275743223e-002 5.5882295835180965e-002
      -5.5318783062491279e-002 -1.2087965719978036e-002
      -7.8271171371832080e-002 -7.0311997831832909e-002
      1.2867685408061375e-002 -7.1094600089059601e-002
      1.3799663060931925e-002 -1.7821809088024737e-001
      -7.0585934718945365e-002 2.3452896507621328e-002
      3.9301449590509088e-002 1.0062316004505081e-001
      1.1406004759430363e-001 -2.0295678124326415e-002
      -7.5278645863475060e-002 -1.9517834807948321e-002
      -8.4620506688689118e-002 8.7325051104859778e-003
      6.2027799353977564e-002 -4.0929952831146817e-002
      -8.6528238413023859e-003 -3.4918445587823303e-002
      1.3939735748494133e-002 -6.4212796476968495e-002
      8.9813827082601050e-002 -4.9632095393816654e-002
      -1.2719476168298964e+000 5.8534960307533527e-003
      7.3344329436869152e-002 -1.2755350505896734e-001
      -1.0359184242000705e-001 9.5382432238257972e-002
      1.0116990097721264e-001 1.0781401035216112e-001
      -2.5663598352547494e-002 -1.0135175806129572e-001
      -2.9227794085896954e-002 5.3536293731491140e-004
      -5.8965663712209661e-003 1.2584668135818952e-001
      6.9448239469509135e-002 -8.1510191008209137e-002
      -9.7906842238786443e-002 6.4824466939424966e-002
      3.7930554309143438e-002 8.6430956086831184e-002
      -5.7933016068721324e-002 1.5834138268718729e-002
      6.4634547586629468e-002 -8.6725453984772424e-002
      -7.0499907344710082e-003 -1.5092937381242157e-002
      -1.2941689131094402e-002 -1.4466284317418990e-001
      -3.0912523059699994e-003 1.7907920687682577e-001
      7.4729578284653680e-002 1.5307205801028919e-002
      1.3802257303306186e-002 -1.7529605887178654e-002
      -7.0420801502065321e-003 -1.0730487088275657e-001
      -1.6629618039153141e-001 -3.2154698350674145e-002
      -3.4114123900370968e-002 -8.5900421293619425e-002
      -4.4535367012977937e-002 -2.1210368294830032e-002
      -3.7237334649543991e-003 -3.3884157213555544e-003
      -6.4499625741043912e-002 1.8932973859722573e-002
      -2.6345432312863008e-002 -1.1581917753280090e-001
      -5.0122155156354750e-002 3.0781512216168986e-002
      3.1261078337786879e-002 2.4669480428059040e-002
      -6.1576372862590628e-002 3.4078987396699456e-002
      1.1513720217310557e-002 -1.4301313574868430e-002
      -2.9313636635182987e-002 1.1605662986133383e-001
      4.3986304786985071e-002 4.8986186353698604e-003
      -8.0593013942238403e-002 -4.4267297345983739e-002
      6.3653168942687952e-002 5.4149543821467694e-002
      -7.3268961131564142e-002 6.6647752388102222e-002
      -7.1380612246731714e-002 -3.8104540518397734e-002
      -6.3459617906097873e-002 -7.3736630853834910e-003
      8.7169712798424615e-002 -1.3611552420608009e+000
      6.8454756167764530e-002 2.3964326274628679e-002
      -1.4839835561704337e-001 -7.2386162929538519e-002
      7.7671384004881411e-002 9.5773380480598941e-003
      8.7132003591859464e-002 -2.0923195292214813e-003
      2.3896383433830812e-001 -1.6581939849083713e-002
      1.3088414396367577e-002 -1.1228322324443923e-001
      6.2969378505695651e-003 1.4109688300425099e-001
      -1.4159925309114732e-001 -4.0107331016350126e-002
      -9.9362824627544696e-004 2.0368939258262990e-003
      5.4843254999505812e-002 1.1842783729190990e-003
      5.4067814545684934e-002 7.0482006345854067e-002
      4.2223151091017541e-002 8.3382003926647200e-002
      -1.8191811638763170e-001 -1.2068912267667825e-002
      -2.4216716704325864e-003 -1.2938253313596387e-002
      -7.3692179990888090e-002 5.1354996661981143e-002
      -6.9977661403388697e-003 -4.3283510769490170e-002
      -2.6808910907208380e-002 -3.9195143505276614e-002
      -8.0312845433204189e-002 -9.5180556259820706e-002
      -5.4141652136840419e-002 1.2472768772127765e-002
      -3.8538125720467956e-002 3.3852047316670762e-002
      -7.6653288330629443e-004 -1.1036215023784313e-001
      -2.4754310563959089e-002 -5.6505266780012754e-002
      -5.8216338492278981e-002 1.5026442445774925e-002
      -3.8256867164572987e-002 2.7447532811140547e-003
      2.2866004015429712e-002 6.3934377125265826e-002
      2.7784536993674770e-002 -2.3398718282647557e-002
      2.2294685264488509e-002 3.8324433301523332e-002
      -1.4970884597461478e-002 3.6943155765698628e-002
      6.3618138364082172e-002 2.8496968054745289e-002
      2.2035699631749842e-002 -4.1115236983634923e-002
      2.1330543209374535e-002 1.7078953274321761e-002
      4.8481413191481235e-002 -3.8775287097817725e-002
      8.1382758232750999e-002 6.9881232656239634e-002
      -5.3806728740551674e-002 1.2294415865405396e-002
      -1.8655960372553595e-002 -1.1851169550183838e-002
      -1.2334290751928918e+000 5.1847921092186826e-002
      4.3046157268207756e-002 -1.2186324742878689e-001
      -2.8796372555586713e-002 3.0461685958862471e-002
      -4.5215466862669987e-002 2.3242622986679437e-002
      7.0153611505925265e-002 2.6329577645654761e-001
      1.9462043816950512e-002 2.2984536381284490e-002
      -1.1263566750299282e-001 9.6212842216327112e-003
      1.0067670396754727e-001 -9.6805134418439825e-002
      -2.4593903848933014e-002 -3.8115253822302450e-002
      1.5016390046104609e-002 4.4405264240647210e-002
      -2.2084197378375472e-003 1.5971009945809543e-002
      8.6450371796793518e-002 4.8977277354446291e-002
      1.0147812786199313e-001 -1.2088299725056680e-001
      4.2845204655092450e-002 6.0044587443631836e-002
      1.7382565533445863e-002 -6.8853188021773370e-002
      4.3646765047908521e-002 -8.6118037138478015e-003
      -8.7758522968439709e-002 3.2510530454906254e-002
      -5.3714953118093489e-002 1.8092660107878019e-002
      -6.8216618543140442e-002 -1.3006889529476420e-002
      3.7766249252851825e-002 -6.7350106545589900e-002
      7.4660932826949335e-003 -3.5285121713564849e-002
      -2.7528997746079437e-002 1.2770229459282797e-002
      -6.3772905205119773e-002 2.2465946787858924e-002
      -4.6385626772576637e-003 -4.5124961441803573e-003
      -2.5309361303488145e-004 -2.1678292538859178e-002
      -1.2999754342145842e-002 3.9420224510761756e-002
      8.1633142165025444e-002 -7.2228649899451066e-003
      -1.1028457980805516e-003 -4.6236593488275024e-002
      1.7515006115595658e-003 3.3947898402479047e-002
      1.9269714894092214e-002 2.0114547634497482e-002
      -5.0481511866432627e-002 2.8325403177640353e-002
      -2.3683428421646995e-002 -7.6433589117204076e-002
      -3.8207077431905545e-002 6.9100036446026566e-002
      8.9979651640620471e-003 -5.5726101400561917e-002
      -2.8110584185413547e-002 -3.3982483913976520e-002
      -7.7165244791859100e-002 -4.7305603906320698e-001
      3.0740296789594841e-002 8.5992779473583678e-002
      -7.6828714829917336e-002 -8.5923196801564822e-002
      4.1263648072876705e-002 2.6838787913621456e-002
      -2.1466485543114082e-002 7.7982315378054112e-002
      8.3553184558106924e-002 7.3143147376632051e-002
      3.1748246141253537e-002 -7.4071546110948142e-002
      4.9294439372726741e-004 8.2081319297095168e-002
      -2.5454758145852529e-002 4.5365258628487913e-002
      2.9589467798102477e-003 2.2608588136739414e-002
      3.2961696279151430e-002 1.0305777998739132e-003
      8.1470608431825371e-003 2.9389682510749148e-002
      -9.6095240718952174e-002 1.7669669336294491e-002
      7.4042834528217430e-003 9.5642649497503732e-003
      5.2085440165435502e-002 -1.2332224796207888e-001
      1.1779690790501299e-001 5.6941452455490350e-002
      3.5534053235556362e-003 -7.5300611374589127e-002
      5.6014942652450800e-002 -4.1948930388305231e-002
      -9.4217262026998899e-002 -1.0244438922767181e-001
      3.6092451157884869e-002 -1.1307839058661256e-001
      -9.3189441482929528e-002 -5.2390240757320357e-002
      -5.3759871753627744e-002 4.3452611496468549e-002
      -3.5031362796370817e-003 -3.4374988006642078e-002
      1.1488056678735073e-001 -1.5544256022611690e-002
      1.8682832933271467e-002 2.7044368767714547e-002
      -2.7756225888709553e-002 -8.0939341050759700e-002
      4.6602794036836169e-002 7.9753788256454225e-002
      3.2286752892130309e-002 -8.5220857535284692e-003
      -2.0947159158055031e-003 -8.5426753748519824e-002
      -3.9814730869999421e-003 2.6132409718404564e-002
      1.9232278995683066e-002 -4.7250554219725772e-002
      6.9699838489011831e-002 -6.7068541132900672e-002
      -1.0046262308991576e-001 -1.1707594112404149e-001
      9.2472314174482640e-004 -8.1268460757675270e-002
      -7.1589225971289500e-002 2.5044992398508503e-002
      -1.3592803197056125e-001 -1.9475399450219769e-002
      -4.1785830526501588e-001 2.5135273382809926e-002
      -3.5537666194031823e-003 6.5654408576047374e-002
      2.6655188250579241e-002 1.1678311552469071e-002
      2.2521999597122755e-002 -7.8653174802743087e-002
      7.4199735239592599e-002 4.3058594431401892e-002
      -1.6693762233741631e-003 1.9123719928892856e-002
      -1.5063607257700310e-002 1.9751739372731208e-002
      5.3335336738606284e-002 1.2518320626938230e-002
      4.7572389592092743e-002 9.5051253469029748e-003
      1.0879804005464991e-002 -5.6668097664149833e-002
      7.2608563080726468e-002 1.8766673861137079e-002
      9.6090219460702009e-002 -8.9881363973310882e-002
      -2.0421183305527287e-002 1.2461374868697428e-001
      -2.6529364823805524e-002 9.7226419719739901e-002
      -4.6226583125106538e-002 -3.2583659319938778e-002
      -2.9441645328030085e-002 -3.9442202932705929e-002
      8.0485636860838469e-002 -3.5582137917208170e-002
      -3.1655308093142501e-002 1.1043149245778430e-003
      -4.6663182658036005e-003 1.2574385665324755e-001
      4.2146909292535102e-003 -3.5213677196275502e-002
      3.7145159209426612e-002 -4.0921671600649911e-002
      1.2159231772524771e-001 3.8166613676429179e-002
      5.8753423463873567e-003 1.2375788224213003e-002
      7.2674758424554523e-002 3.2070782440487174e-002
      1.9037865794952976e-002 -1.4077550525583833e-002
      -3.6665965077652601e-002 6.0373314055109081e-002
      1.1916983131775863e-001 -5.5910187816302269e-002
      -1.8979800102388391e-002 6.1500648534167632e-002
      -3.6277182776013495e-002 -3.0515288957697079e-002
      3.5324860004727350e-002 -3.4926852895161356e-002
      -1.1191620835383500e-002 -2.3494636625177846e-002
      -2.2821608873780954e-002 -1.1569370585330965e-001
      -9.3789751255811613e-002 -5.6748448468426027e-002
      2.7678255997227307e-002 -4.4079906051517584e-002
      5.2752309854964602e-003 -8.2828310316353959e-002
      -1.2178494487228722e-001 -2.6067843808700697e-001
      1.2113036716988482e-001 -2.8369096893760409e-002
      1.5034939541062517e-001 2.6567429738132531e-002
      -2.1346447133995562e-002 -3.4230313268991106e-003
      -7.0530705214950071e-002 5.2672547892021214e-002
      -1.4119923155216405e-001 1.7325655560172515e-002
      -3.8533145861284683e-003 1.5777064012096999e-003
      9.2886532868459881e-002 -1.2938721836241642e-002
      1.4580263800290852e-002 7.8715868036440095e-002
      -1.3372280823798681e-002 -1.6271893030770925e-003
      -6.2356509488049328e-002 6.6819290817911728e-002
      -5.5633480224243012e-002 -2.7889299813825052e-002
      1.5161720305593600e-003 4.0817299459453511e-002
      1.1630181372230508e-002 4.1688208440761425e-002
      -5.4852587519730309e-002 -1.9700459325828406e-002
      -8.4300808007339065e-002 -1.6028843128005218e-002
      -5.1393722267465275e-002 3.9793731323447899e-002
      -1.4553980609141040e-001 -7.6666322760404488e-003
      3.2730304513395855e-002 3.2087320011026869e-002
      9.7400877785487047e-002 -5.3772653099298608e-002
      5.3517798250480454e-002 2.6774059023467047e-002
      1.1928963079044799e-002 1.0331201191036787e-001
      -3.1258179697400273e-002 -5.8273760992102269e-002
      -2.2504600676494617e-002 1.4126701977502179e-001
      2.4616508850747700e-002 -5.3017123608524721e-003
      1.0212502510950586e-002 -1.1142492096165753e-001
      2.0367839806285711e-002 6.9823837267981567e-002
      -3.5674611825263776e-002 -2.1373661048674428e-002
      8.7352391218474754e-003 -1.0637191767804702e-001
      -4.4519153981071771e-002 -1.8475933358526792e-002
      -3.9087086134748691e-002 4.4646873837582993e-002
      4.1967742362174574e-003 -4.0765780407617747e-002
      -7.4841945022250292e-002 -1.4970197932055554e-001
      -1.1732345717604779e-001 -2.1343687216751353e-002
      -3.3204951138016567e-002 4.9369690345747994e-002
      -4.8265026532188927e-002 -2.7655277623382900e-002
      -2.7624072039621084e-001 6.3688593293977719e-002
      6.7829186312863736e-003 1.0835678076168656e-001
      9.6239283148387034e-002 -9.2109246284211729e-002
      -1.0126540120290779e-002 3.4701556983496567e-004
      -8.3906442324901964e-003 1.0664866621673777e-001
      4.7074690054791188e-002 4.5268285006941605e-002
      -3.4811644744655180e-002 1.5968748265860250e-001
      2.9249169724270017e-002 -2.6770945938027833e-002
      1.9413222993576915e-003 3.1774352523914279e-002
      3.0658660329169356e-002 -5.2679725806570571e-002
      1.7300805856923129e-002 -3.2725459185777225e-002
      8.2781239295867476e-002 4.5316274765627308e-002
      7.1015987037886100e-002 -3.9869801532119761e-002
      1.0918984437935318e-001 -1.9507331786457416e-001
      2.9188941203374601e-002 -2.7100433251672731e-002
      1.2480521625256730e-002 -8.9335405327828896e-002
      1.7078822027531215e-001 -5.8217115044589735e-002
      1.3800167410910705e-002 -1.3062610354325263e-001
      1.5373582990092748e-002 9.0891265432314669e-002
      5.1491168938977254e-003 5.3730555230766745e-002
      1.3662865760055017e-003 1.3523685891307333e-001
      -1.3801733399178675e-002 -6.7881485188359514e-002
      -9.5342365621959760e-002 -1.2321299494729901e-001
      4.0749981027060386e-002 -1.2897940245504256e-002
      -2.1440358794046774e-003 -2.4450715942991384e-002
      -2.2020043129906364e-001 -1.1314013139756161e-002
      5.5415902379280783e-002 -8.3876418938141958e-003
      -1.0265880056739134e-001 -1.2740086872342989e-002
      -1.2405293597432697e-001 6.3912332697365820e-002
      -6.7973393214853031e-002 -2.8728454501199291e-002
      7.0932199366693149e-002 -3.1831525826033012e-002
      2.4142751915380373e-002 -4.4826625735221691e-002
      -2.3735376761831675e-001 -8.8345387681135021e-002
      -1.8592386025295022e-002 2.8275735937890868e-003
      8.0712247454561015e-002 -3.0687999411845929e-002
      9.7708000649228775e-003 1.2677240771047840e-001
      -4.2578662647450437e-002 -4.0496843021002940e-002
      3.3831568488328218e-002 1.3348376515834728e-002
      6.0544203139117174e-002 -9.9902378986910408e-003
      -6.5207845511209674e-003 -9.3031693605301627e-002
      -5.2903755531784113e-002 7.7210700286121481e-002
      -1.2474770437188504e-002 1.1363830898166226e-001
      4.0969363365861225e-002 -3.7933560612521254e-002
      1.1239715231683729e-002 2.6942597924162634e-002
      5.3679530491751587e-002 2.7649133699093826e-003
      -2.2658294999608888e-002 2.8892908652434005e-002
      2.3139137162896655e-002 1.4516828835920353e-002
      -1.2087952009653295e-001 8.3574850063337799e-002
      5.3147665786556449e-002 -5.2085853138486356e-002
      2.9418384866550750e-002 1.3403886016240046e-002
      -5.6680421587349109e-002 2.6972277170219843e-003
      -5.5484076933734916e-002 -2.5112844453863071e-002
      4.6618559016465416e-002 4.1642853873756790e-002
      -1.1515619921825526e-001 4.5299408164048795e-002
      7.5415367565881614e-004 1.8668935511076817e-002
      4.1781081703530419e-002 -7.6835933297048275e-003
      -3.9283022134428400e-002 7.8803862828539115e-002
      -1.6396616449011206e-002 -2.1409928821851464e-002
      -6.2502494821683758e-003 2.0362035531185759e-002
      6.5746611105818906e-002 4.0258670077293821e-002
      1.2515449783434399e-002 -1.1863976524614323e-001
      -5.0985903960027862e-002 -5.1776711630630761e-003
      4.8257217709857581e-002 -4.5635247379642474e-002
      -1.2296819841339459e-002 6.6074674848246870e-003
      6.0311519929204709e-003 4.0929286210132851e-002
      -2.6928953979337675e-002 1.0164240706524558e-001
      -7.1684768037122815e-002 2.8665738451455213e-002
      -5.7866005541122641e-003 -5.2634856577974495e-002
      -5.9190458014716368e-002 5.6198047993865421e-002
      1.3856684186166371e-001 -5.5197808126338802e-002
      1.5060361706717501e-001 7.2172766735741301e-002
      5.1744959942250446e-001 -4.3490641460467057e-002
      -4.2657008896648668e-002 -9.3244721876258096e-002
      3.0157659679239980e-002 -8.1418808065687867e-002
      4.9473830444820108e-002 2.2126503088968831e-002
      -9.2629381210634923e-002 6.3570855012111113e-002
      1.3290911861390123e-001 4.5644729798320028e-003
      3.1288043622891892e-002 2.1985861877776150e-001
      -6.3416338810342340e-004 -9.7503487936968072e-002
      -8.5004688406849646e-002 7.2084055422100307e-002
      -9.6916426093316185e-003 1.4675450335662170e-002
      -1.0378897613043161e-002 9.2906051686324223e-002
      1.0278549010678897e-001 -3.7700176690619765e-002
      -3.4653986586684220e-002 -5.1735526163730755e-002
      7.3096823122504222e-003 -9.6335109246024689e-002
      -2.4203092236451635e-002 5.4937564285842261e-002
      -5.6047235041429652e-002 -2.2193105032279049e-002
      6.0488477903984629e-002 2.2495704875737550e-002
      1.3331146904569689e-002 -1.7778209030074724e-001
      -1.2539093034291966e-002 2.0892880467040097e-002
      5.5545805550687895e-002 1.8348056197897870e-002
      1.6588377799084033e-002 6.0756916885033742e-002
      2.0693321331623785e-002 -6.9282365298998838e-002
      -7.6906580598574753e-003 -8.9867787332403984e-002
      -1.5229775288405054e-002 -1.8343147886038524e-002
      -4.2271251350571359e-002 -8.5684202783506080e-002
      -1.6083818551129053e-001 3.9231465226096766e-002
      -6.1332810551950855e-002 7.9712101104874020e-002
      -2.9675323021418384e-002 6.1041453433862110e-003
      -4.8521456359285715e-004 5.6689140825492430e-002
      2.1528005119350390e-002 -6.9660155200783544e-002
      2.4833698199664613e-002 -4.5889497908899672e-002
      5.1523706017866447e-003 6.8546448627629736e-002
      -1.5149448085423362e-001 4.8277924211731313e-002
      2.3512739950158013e-002 -8.3669713416657840e-002
      -2.8889590504898411e-002 -5.4698799912750763e-002
      -1.7987381724902708e-002 1.1129096986174378e+000
      -8.8421611208357495e-002 8.3290332359197958e-002
      -5.8247767439615968e-002 1.2388679286041557e-001
      -1.2503429186756118e-001 2.5113957641081253e-003
      -7.1017654854647547e-002 -2.6212042196462233e-002
      -4.9440479010193640e-002 -1.2514362084725001e-002
      2.0647448372526883e-002 -9.4698513342687915e-004
      -9.4437776313980523e-002 -3.5472726255045772e-002
      9.0803197581909550e-002 2.3380304999230141e-002
      1.0552575371825396e-001 -3.5797608271201996e-003
      -4.5921974716672628e-002 1.2469720531102335e-001
      -1.2348871062016540e-002 -1.0353587865043445e-001
      1.4153280058921280e-002 -6.9968758274228590e-002
      -7.7838991232038232e-002 -6.7880900729432550e-002
      -4.6646553309484008e-003 8.3297456067071313e-002
      8.5491010930740671e-002 -5.3405171394710092e-002
      4.2872950730184219e-002 -4.2696690518556485e-002
      7.2127341589283689e-002 -2.1060859858123258e-002
      1.3920142132266022e-001 5.4268863598375136e-003
      6.8861460571912989e-002 1.0895309228473567e-001
      -7.8976449904364115e-002 6.6076036007196290e-002
      -1.4305618126604896e-002 -6.2166873629857754e-002
      5.0767310207825607e-002 -5.6255444157698259e-002
      2.8520205739544823e-003 -1.0922053334696494e-001
      2.5660337904159541e-002 5.6960951551366240e-002
      1.1666228847311035e-002 9.2943410862867965e-003
      -5.3431534133159320e-002 4.6640035490475504e-002
      6.6300448922482089e-002 2.0735931513067945e-002
      9.1955606617563537e-002 -7.2271156701549225e-002
      -1.6311114976317009e-001 2.1399146827299188e-002
      3.6539835386772482e-003 5.1725370514497417e-002
      -4.8776856204189721e-002 1.8893174341203599e-002
      2.5223958912634660e-002 7.5961977439344816e-003
      1.3560148930158028e-002 1.7654356082023537e-002
      1.5899165287287265e-001 -9.8838560180274978e-003
      -9.0148120488417471e-003 1.2216140383032720e-001
      1.5451211617887053e+000 -4.8582258006247631e-002
      9.9633641219347341e-002 -5.5751199752341538e-002
      1.3896520808200993e-001 -1.0592602910124671e-002
      -1.8633102851267000e-001 -9.5172177290805945e-002
      4.8763007387470046e-003 -5.7198814055016188e-003
      7.0459290635503366e-002 2.8149915948937733e-003
      3.0788295339318726e-002 -1.3720957829194055e-001
      -8.4175248252116766e-002 3.5171024292536310e-002
      1.9987855490242106e-002 -9.5649698432743985e-002
      -3.5451532037800063e-002 -4.6518517686159090e-002
      7.6106918152113012e-002 -3.1544092653836973e-002
      -1.1954151900353423e-001 2.6132621178262469e-003
      -1.5042354964735058e-001 1.3068390831952784e-002
      -1.0105989561171108e-001 1.0928473846451042e-001
      7.3710400905480478e-002 8.8789457548807765e-002
      -3.5348572963587184e-002 1.6733854981732518e-001
      -1.0924062256836174e-001 -2.7339894355142641e-002
      -8.8349100914087413e-003 1.1801641818944107e-001
      -6.0048338110077787e-002 -1.3667728344074214e-002
      6.5650469527354427e-002 -1.0983266244768126e-001
      8.3669479633796506e-002 -1.2230217175985741e-002
      -4.3557326889649320e-002 1.2519692954049320e-003
      -7.0851526075942708e-002 5.7007121990678526e-002
      2.4594713030698569e-002 -1.1428681374443592e-002
      9.4248515655191586e-002 -7.1155103586029222e-002
      6.8782944612252900e-002 -5.0977659599911393e-002
      -3.8324287822880200e-002 3.0707043933565895e-002
      2.1190506345441913e-002 4.1513007330303803e-002
      -1.2714945825773314e-003 -7.4130369898617543e-002
      -8.7043491916071331e-002 5.1448862711725891e-002
      7.2032169492108620e-003 9.0258595055851820e-002
      -2.8028720198179986e-002 -1.3777497831561647e-001
      4.1604153735181872e-002 6.0253352399724638e-002
      1.0338244218592292e-002 4.6968475925773322e-002
      3.3953592330075361e-002 5.1754184074646180e-002
      3.3267644407455839e-002 1.3105119690834807e-001
      -4.9705539263845980e-002 1.6422037426399187e-002
      -2.5601275035270054e-002 3.4576033414475203e-002
      -1.1822779551035063e-002 -1.8173280306497570e-002
      -7.3802424385529058e-002 -6.2507864008173690e-004
      -2.8740739618523126e-002 -1.7325585757549198e-002
      7.8862818835794025e-003 3.2558631011498099e-002
      2.0003953938757757e-002 -5.9863704347087755e-003
      -2.8892004733249144e-002 3.6610283952357207e-002
      -3.8438744503857800e-003 -3.1567656176040640e-003
      -6.8072474515455644e-002 6.4546735674205755e-002
      2.2957992608036732e-002 7.3956911295466020e-003
      4.0049594669488231e-003 1.1243399367089865e-002
      -2.9476321852500521e-002 -6.7864927078317332e-003
      -3.0400115687518429e-002 5.7077293405363709e-002
      3.4968956467637501e-003 -2.5849562418898148e-002
      5.7984067315120111e-002 -2.9030310821623385e-003
      2.5877132281734824e-002 -2.4893925029113594e-002
      9.2409857701749240e-003 2.1913978476761083e-002
      -4.7941097130404640e-002 4.9317388566094958e-003
      2.4011656026238084e-002 -1.5184569339224473e-002
      3.1726775442206916e-002 -4.4426988660900169e-002
      -1.0150981736425296e-002 -6.5445226472247126e-002
      7.1031543452455242e-002 -2.4569880587115824e-002
      5.4279313410482151e-002 -1.3014444626085774e-002
      5.6117755073751094e-002 -5.4250783975115138e-002
      -2.7233488210492308e-002 2.7975695838581050e-002
      2.2952862183376648e-002 2.4399827863057930e-002
      8.7618024938634242e-002 -4.4182377207168180e-003
      2.5940606353133753e-002 -5.4077082843856936e-003
      -2.0516038363451613e-002 3.1302122811079192e-002
      -6.9052746141118919e-003 1.6086316637915939e-002
      -6.3557474844201337e-002 -5.0513109471118339e-002
      -3.4685061624518971e-003 8.6592041826429406e-002
      1.5118822377701589e-002 -2.2368790482534012e-002
      4.9099990353470159e-002 -2.3893500459302112e-002
      1.6558590409118465e+000 5.3525720846176864e-002
      -4.6285107852971165e-002 -3.1221671597869680e-002
      8.0749303934420258e-002 -6.4835092665843832e-003
      -3.7346289460899254e-002 7.3395130245035925e-002
      4.4063465198209133e-002 -6.2026727307389749e-002
      1.2341293945334830e-001 -7.1769467981678992e-002
      -1.6301706644008342e-002 -5.3121466147580731e-002
      -3.5082458913788146e-002 1.0645911627785534e-001
      4.1553197278038377e-002 -7.8757200722597523e-002
      5.9474331993634947e-003 -2.3786363065908887e-002
      5.0703579210308491e-002 1.4510125967446627e-002
      8.1089526469624792e-002 7.1040169435263242e-002
      -1.0807253468533286e-002 -4.7292657489509872e-002
      -1.4034332592209966e-004 4.0142358892346450e-002
      -1.2174049147759367e-001 -2.4606839546240919e-002
      -8.2303697659997319e-003 -8.2333012940033544e-004
      -2.1730234248338448e-002 2.2101280793024550e-002
      -1.9503304619781739e-002 1.6165780444877850e-001
      -8.0161982248572017e-002 -8.7640702187331068e-002
      -1.9960802967635187e-002 -1.1686081993622635e-003
      2.6611936408114718e-002 6.2433561375563079e-002
      6.7333226533060717e-002 6.4667593573695503e-002
      -5.4359802956109940e-002 3.2110860689505541e-002
      5.7461048332536756e-002 4.9360726005176117e-002
      -3.4295123996005386e-002 1.4662392908438848e-001
      1.6043845214648668e-002 -4.3976204234654939e-002
      1.4708219683378758e-002 4.8261895971134124e-002
      3.2279004651701353e-002 1.4481408541200378e-003
      4.8012565134012933e-002 4.1159293387612900e-002
      7.9648624637591703e-002 6.6337289527882495e-002
      8.5223756843047338e-002 2.5291166757778434e-002
      3.6980981590632310e-002 -4.8892250951197364e-003
      -2.0475715244988986e-002 -1.0608389081807040e-002
      -1.8446033365801383e-002 2.5109413484990538e-002
      5.0149880508002405e-002 -4.1526482835858670e-002
      -4.3882040687899353e-002 6.4855878706949321e-001
      -2.8281955441574025e-002 2.5907727431909933e-001
      -8.8818495565171161e-003 2.0735934350490461e-002
      -8.6941638973674254e-002 -1.1806238952413520e-001
      -1.9234063242079125e-001 -1.8664715818164170e-002
      -3.1832946235529141e-001 -2.7973207148932266e-001
      2.7095004528756340e-002 3.7122428595310797e-001
      -4.1555049798585880e-001 -2.0535257117789699e-001
      2.2278385500520295e-001 1.5462542272910429e-001
      -5.0301138981845261e-001 -2.5570119815376374e-001
      6.4740512906997283e-002 -4.6271919516341686e-002
      2.3852690871676567e-002 -2.8902287738537480e-001
      -7.6366468101931706e-002 -1.3787076341904594e-001
      2.6373866420991232e-001 -2.4935409225621710e-001
      4.6748187195894514e-001 -2.3610758317503686e-002
      -3.3928503130867682e-001 -4.7980313003847253e-002
      1.1953427354527278e-001 -3.3527928612562014e-001
      -3.4949386822460356e-002 1.2447777636899003e-001
      4.8327971631814753e-001 1.9265439700543180e-001
      -2.1652744120673420e-001 2.6532033277382361e-001
      2.1545086790802605e-002 1.5579412318177631e-002
      -2.4240659152893240e-001 1.2544753621723956e-001
      1.7266217311510992e-001 1.7939405325009602e-001
      1.8529989040930078e-001 -1.9119956199563082e-002
      2.9014977507496671e-002 1.1156543328388197e-002
      -1.0392245953205657e-003 2.6291308887131348e-001
      -1.8975719354947890e-001 2.5810891961875825e-002
      1.0321749166491058e-001 1.7407478313377500e-001
      -5.8707179213165719e-002 2.4012857936641510e-001
      -2.6708195307685795e-001 4.7343874284553264e-003
      -4.4356914523037992e-002 -4.2443044675525558e-002
      9.4644052386088515e-002 -5.0385560393524140e-002
      4.7017593112638680e-002 3.1727353771380473e-001
      2.0826782950563581e-002 1.6402356581903604e-001
      3.7847730987697098e-001 -6.9554485019841183e-002
      1.1481332588912858e-001 1.2992350298307723e-001
      3.3844581929887585e-001 -4.5440429083919813e-002
      2.3953932301981035e-001 2.5906969113750018e-002
      4.4939093052271506e-002 -1.8148581818564710e-001
      -9.0346444888187327e-002 -1.3076269619493378e-001
      2.9797314428797925e-003 -3.0299268408714708e-001
      -8.3970355155519663e-002 6.8469759931942417e-002
      1.9661432264504083e-001 -3.5380865547830526e-001
      -1.0094781080845992e-001 9.2426134540630603e-002
      1.5482995128904795e-001 -2.6474286160621291e-001
      -1.5587524446925363e-001 6.1127729850814723e-002
      -6.5116864301047461e-002 -2.6547262001394237e-002
      -2.8644037042000081e-001 4.0442232441047159e-002
      -8.4882632820797013e-002 1.9449723724129434e-001
      -7.2383840275255643e-002 3.4161429776293639e-001
      -3.9671662777519948e-002 -1.5836429521031803e-001
      -2.3821690344906239e-002 1.0742712426912225e-001
      -2.8149071091721883e-001 -8.8503245249086458e-003
      1.3038480221617202e-001 2.7608747030977138e-001
      1.3112919016272090e-001 -1.6175561361233667e-001
      8.6753482529207018e-002 2.6366842110084818e-002
      -2.1594531443017905e-003 -9.4428744737412404e-002
      -1.8632454215861471e-002 1.1276683786898914e-001
      7.4829761020277413e-002 1.6781384939126442e-001
      -8.0080044088708807e-002 8.1760030769916753e-002
      -8.7929892647815810e-002 2.9657480389262601e-002
      1.3060281872093665e-001 -4.1501538073506879e-002
      7.9353375116013217e-002 8.3898716942066909e-002
      1.1108881806948422e-001 -1.1066150937933766e-001
      1.8522871210188629e-001 -2.3577010468867493e-001
      3.2319071193236709e-002 -4.6010433723678357e-002
      -6.1280204413336245e-002 1.0669097544537826e-001
      1.7249273601286010e-002 1.6185429157513012e-001
      3.6887820802109655e-001 -1.6891637350156540e-002
      8.7333628369739819e-002 1.9380196294532551e-001
      -5.8598717657640735e-002 6.9935087457388204e-002
      6.5281477498838988e-002 2.7049959065690105e-001
      -1.0744905980007972e-001 4.0362966064619157e-002
      1.3793561084063599e-001 -2.7614474529676879e-003
      -1.2037110304841985e-002 -2.5163533897427686e-002
      -1.4639744372595070e-001 -1.2441762368737752e-001
      -2.7913685748080364e-001 -1.0213388846929203e-001
      -8.2617939447019811e-002 1.1035165937543862e-001
      -3.5322686423509025e-001 6.4710210745058810e-002
      -3.1402956731658098e-002 -4.8983859619512876e-002
      -2.5007271302864087e-001 -1.6983195593360253e-002
      -1.3038891736340388e-002 8.6501428819326681e-002
      -1.0887455223514766e-001 3.4129684957821586e-002
      1.4590968747170774e-001 -4.0713339101306888e-002
      1.3858949039197915e-001 -7.1745970078179302e-002
      4.6809578013104362e-002 9.4332950014790598e-002
      -2.1573799248914466e-001 4.7631421739724240e-002
      1.3731743689727022e-001 -1.2788173382810794e-001
      4.0292685676460972e-002 -3.2614344149960841e-003
      2.6938881921664148e-001 1.1907285803371763e-001
      -2.5619228975464309e-001 2.1123276197690024e-002
      -7.4844738921196197e-002 -1.7874229924359650e-001
      6.8206264754208212e-002 -1.3131925014742238e-001
      1.0299523123238263e-001 1.6480324193752852e-002
      2.2502124377397470e-001 2.0435563122513278e-002
      9.3501450934736163e-002 -1.1917166892991082e-001
      1.0601518472347660e-001 1.1096077226630560e-001
      5.7982992766898549e-003 1.0326594360365376e-001
      4.2999728562330024e-002 6.3417755183994340e-002
      1.2387785595395336e-001 1.8656382192620227e-001
      3.3655502066434390e-002 8.3187198145807814e-002
      9.9772694805320191e-003 -5.0300473050520704e-002
      -3.3433217257067639e-002 1.3647769976366256e-001
      -1.8797608001322055e-001 3.7395456134853378e-001
      -9.9453948331824277e-002 -2.8348965944364535e-002
      4.2774358323889483e-002 -2.6306284222882148e-001
      1.8213472036047604e-001 1.9159112974334785e-001
      -7.3203797286211014e-001 -6.3143937423625522e-003
      -9.5338802211083415e-002 2.4848336589275083e-001
      -1.1124878449397373e-001 1.5052244906031995e-001
      1.2068894751423032e-001 5.5014958964550624e-003
      -6.3434262677197609e-002 -1.4083289018039266e-001
      -1.2852980391292895e-001 -1.7393900236208081e-002
      1.3442445564128519e-001 -1.9737792788881064e-001
      1.3223425364287508e-001 6.6387901023686399e-002
      -1.1104991133175032e-001 1.3175323086394700e-001
      -2.3412433109206800e-002 1.1865598763324594e-002
      3.7080120941447040e-002 -1.0945595608156196e-001
      -5.6597658957495869e-002 -1.7823831381151206e-002
      -5.6366925263274650e-002 1.2467125683066550e-001
      -6.9039620468811938e-003 1.4303702298669825e-003
      3.8760060628306781e-002 -3.8690901708853892e-002
      1.2449248467697020e-001 -8.6910280552791486e-002
      6.6738880899848196e-002 1.6378689878907451e-001
      1.0147857608560736e-002 1.3134558424148185e-001
      4.3542677483534617e-002 -1.6156758574642752e-001
      6.0504743466926060e-002 1.1163071880961209e-001
      -4.2400530124779831e-002 2.3126783965133773e-002
      -9.1474084710910550e-002 1.1023543249216555e-001
      1.3239303562973712e-001 1.1698766032607914e-001
      -4.2909177567657115e-002 8.2704408940408897e-002
      -2.2887203385751054e-001 2.3763369602421433e-001
      1.0520566447446113e-001 -6.1389293662951767e-002
      5.0003122028432483e-002 -4.6438600730156050e-002
      1.3977438390008298e-001 -5.1777278379313927e-003
      -6.5002800129530330e-002 -1.2426469401492857e-001
      5.3460806447211885e-002 -7.5203469638695829e-003
      3.2889223666463976e-002 -2.3281960894275370e-002
      7.2322067371475257e-002 2.6112532854275044e-002
      1.5311915677015855e-001 -1.6538229989006015e-001
      5.7363956652563483e-002 1.3521834925016840e-001
      -7.8812353674345415e-002 1.0733659579061360e-001
      8.1089030839634438e-002 -7.3727403218135523e-001
      -1.2640451293694491e-001 -2.9594809165204454e-002
      1.9195074264667857e-002 -1.5177743593144777e-001
      7.0151921498038866e-002 -9.5453042725887866e-002
      3.9637670869355809e-002 4.5402904329832220e-003
      4.8539786089353137e-002 -4.6201004203478453e-002
      8.5035005572296735e-002 -1.6877262212541704e-003
      -3.4224424752931658e-002 1.8970084690403892e-002
      4.7608010785383403e-002 1.2944390768046614e-002
      6.6762310302506220e-002 -4.2288473743254319e-002
      1.2877144607861249e-001 -8.0826048273295925e-002
      -6.7562538752824433e-002 -7.9100397624254880e-003
      5.7161267801594896e-002 -6.0535191703773389e-002
      -3.6473846272564059e-002 -2.6068868627497081e-002
      -1.0906699640850566e-001 3.4220623144924141e-002
      -7.0329812767402120e-002 4.0353401241143956e-002
      -6.1359311795270217e-002 1.5787996383705172e-001
      -2.2385881659467904e-002 5.3834741667447880e-002
      -1.5696862302787756e-002 7.5923237340249999e-002
      -2.2762814631131387e-001 -3.8459867304702751e-002
      9.7154531086834875e-002 -4.5867019940945726e-002
      1.8008660813545643e-002 2.9557881624665502e-003
      6.4537579641293544e-002 1.7183889570882309e-003
      -1.4092649021147272e-001 -6.1114950346547727e-004
      -4.2421350030028851e-002 2.5460224354447933e-003
      1.2506377345591138e-002 7.1875017240315905e-002
      7.7227822181786865e-002 1.4996576324453443e-002
      1.8729670854405633e-002 -2.9843859477353348e-002
      -2.5679802728608141e-002 1.4462030790628463e-001
      7.1704060446994955e-002 7.0962699643709132e-002
      -6.0093202160001122e-002 -6.8014114403456352e-002
      6.4195879763758013e-002 -1.9062376311558080e-002
      1.0161716883498695e-001 1.1871703681624940e-003
      -6.1980761426844846e-002 -2.4172935328690909e-003
      -2.4897973524482954e-002 -5.0141197865883322e-002
      1.3071716016201057e-001 -2.5450465301671159e-002
      -1.3716394257652855e+000 1.7562326182529491e-002
      -2.8199564199873711e-002 -3.2096138061436491e-002
      -2.3800943656558768e-001 3.1410314849193495e-002
      4.0557094126391607e-002 1.8046717882011415e-001
      6.7255207033340439e-002 -2.7281340019244754e-001
      -2.4269317924321378e-002 9.9803169141969045e-002
      -2.8608437634299391e-002 2.0688429792142193e-002
      -5.2382002970317781e-002 -2.6125268498528038e-002
      -6.2660263785772677e-002 1.8568156174442696e-001
      3.0681422944883151e-002 1.4470825363556697e-001
      -1.1096412637626243e-001 1.8122010104188221e-002
      -3.1824266353027694e-002 -5.9790668797440626e-002
      -1.3747899240204939e-001 5.3993514760679560e-003
      7.9216600048378129e-003 5.7502037893346521e-002
      1.5303055027553605e-001 -1.0469682213426387e-001
      7.2360644120518694e-002 -1.7198217938415813e-001
      1.9547915396688648e-001 -1.7207097736640038e-002
      6.9541609691429626e-002 -9.2471398724776166e-002
      1.0023835961290739e-001 -1.3195255511085272e-001
      -6.0582656688508575e-002 2.1094472829499022e-001
      2.3079014666000711e-002 9.2477597817351570e-002
      -6.9013672023313030e-002 9.5361946519774796e-002
      2.1756743154069574e-001 -2.4168942196690563e-001
      -4.1811087692721335e-002 -8.7771714735793011e-002
      -5.8723250969462092e-002 1.4077516446032545e-001
      1.3754123425102528e-002 -1.0393754017612668e-001
      -1.0822755336620880e-001 -2.9270671777043084e-002
      1.2987451177565679e-001 -6.3985116119686006e-002
      7.2518259106832336e-002 -1.0955776518549899e-001
      4.4038172699994611e-002 -1.2904105961786858e-001
      4.2434091558375797e-002 -1.1159100273214560e-001
      4.3190496555805084e-002 2.4971009125908575e-001
      -3.4480475569592745e-002 3.1967096368365644e-002
      -1.0168600749315888e-001 3.7351020895143784e-002
      -9.6643601381996527e-002 1.2656464950563151e-001
      -5.6131586701714677e-002 -1.4849829723941035e+000
      -2.2589755638760933e-002 -4.8768047141572554e-002
      6.2067332842120883e-002 -3.8795023422061668e-002
      9.5843594242534219e-002 9.1609787542477797e-002
      1.0860146924624674e-001 -2.4125372002579445e-003
      -1.7143911825061631e-001 5.4099625733483861e-003
      1.6572755692326210e-001 3.7669941356107295e-002
      2.8071593790912031e-001 -4.7107716002441312e-002
      -1.1684097681677036e-001 -9.5481393978793710e-002
      8.1981047610605109e-002 7.2034633039612786e-002
      1.5734440729646837e-001 -1.2941428540114719e-001
      9.0063449477637447e-002 -3.1723699317374808e-002
      -2.4305966700238751e-001 -1.8231682563005119e-001
      1.4938577810324230e-001 2.9835196242106489e-003
      -1.5837555811875022e-002 1.1668484025253784e-001
      2.6768231593556291e-002 4.5802619489184156e-003
      -2.0910937984075417e-001 1.1959195560131661e-001
      -8.1846608656945527e-002 9.6543278806095312e-002
      -2.2618317852224002e-002 1.7361401115288075e-001
      -9.9707461013490470e-002 4.6832741627405160e-002
      5.6191288225566197e-002 7.7408814511721588e-002
      1.0212576045601522e-001 -1.1178828287384573e-001
      -1.0444730257885787e-002 1.1549952524776916e-001
      -1.9288927623174745e-001 2.0654817321603340e-002
      -9.2437272585218111e-002 7.8341889332064985e-002
      -2.6058061913967083e-002 2.7376354676392184e-002
      -1.5240544897409497e-002 -1.7500396454328043e-001
      -2.6071029468721425e-002 7.8289035589480749e-002
      6.2226772118284118e-003 1.4251385452480514e-001
      1.1891894791679099e-002 -6.8878148135248840e-002
      -9.9111848270740890e-002 -4.5120836383649505e-002
      -1.4207466105722924e-001 2.0383601946562559e-002
      2.7995703365169111e-001 3.7795884956353748e-002
      -9.6017622945796504e-003 -1.5628476116223056e-001
      1.5757411800090555e-003 -1.8320538876533890e-001
      8.9854791388131225e-002 -1.0814042931843024e-001
      -2.0380617406446579e+000 -1.6906771487290983e-002
      -5.2256140150827815e-002 4.3329558113986956e-002
      -6.8628360949576125e-002 1.2049513642752224e-001
      1.2240227366979009e-001 1.3625112661885841e-001
      -6.4798058352879065e-002 -2.0167657354101537e-001
      -1.3984548764010984e-001 8.2855189852086050e-002
      -2.8000915547358920e-002 1.1521689245568159e-001
      7.9025703758459326e-002 3.4557161313558305e-003
      -2.9233035187768205e-002 3.6057410581637035e-002
      1.3698949396647159e-001 1.4913847064523725e-001
      -1.1894250557266858e-001 1.1549931012272034e-001
      -6.3048127971782331e-002 -1.8295587294897692e-001
      -1.5089820143140203e-001 8.6076122104185929e-002
      1.4239108771038983e-001 4.3375123683608574e-002
      8.7439832206850227e-002 1.0603317868752115e-002
      6.0471995388747680e-002 -1.0983882423810362e-001
      -3.4639448154845952e-002 -2.1249836870533037e-001
      1.1895507697396408e-001 -3.4718352242927701e-003
      5.2416215940788678e-002 -4.3604885494587006e-002
      6.6163433846816083e-002 6.0554149056975530e-002
      -5.4628964968661979e-002 5.0752191090664544e-003
      -1.7361950180170651e-003 -6.7927512862637582e-002
      3.0821309130567395e-002 -1.7956017454116951e-001
      1.7847755462173798e-001 -1.2389345646872478e-001
      -2.9248266071866050e-002 -3.0199219955436608e-002
      1.3957501843604653e-001 1.4552241879475463e-002
      -2.2301539789819882e-001 -6.2545295207049548e-003
      2.1894814542402920e-002 -6.2228900756418079e-003
      7.3805388003794256e-002 8.0897931106913720e-002
      -1.5506582790345997e-002 -1.8175110031595657e-001
      4.6391846574384721e-002 -1.2356470497385252e-001
      7.8454759783736852e-002 3.7309215576368199e-001
      1.3129601718747955e-001 5.8765403571360633e-002
      -8.5312319174147777e-002 2.7494917151101281e-002
      -8.8527838024351976e-002 -3.1472460868319133e-002
      3.7557476834728563e-002 -1.6390837763449901e+000
      7.1019616478875447e-002 -2.0054025165392766e-001
      3.2942127416421031e-002 -2.2146172864562494e-001
      8.4527313514485794e-002 3.6002387959431011e-002
      2.4828030210686289e-001 -1.5438919420531344e-001
      7.2370980517866626e-002 -5.7511844252274479e-002
      2.7358720825742595e-002 -1.7234327837716765e-001
      3.2710139353488216e-001 2.7558577243534538e-001
      -1.5742144033634056e-001 -1.6476041620989996e-002
      9.9928083992733133e-002 1.8809160522196214e-001
      9.5191773977184146e-002 -1.0483986285001845e-001
      1.7400202058291145e-001 -8.4696955571415933e-002
      2.4415595581843072e-002 -7.8759160141165963e-002
      5.6303246940848747e-002 1.6920701529915896e-001
      1.1249337948029667e-001 1.1325973087635417e-001
      -4.5984899637380353e-002 -3.1182548371607270e-003
      -1.6133549068486117e-001 -9.4009637033815929e-002
      -2.7796792839515067e-001 9.7094063554136231e-002
      -7.6345465340892149e-002 1.6317787858997762e-001
      -1.1001938167221630e-002 2.5928114910545691e-001
      1.7758400229424581e-001 1.3167644667036715e-001
      -3.8995808454911102e-002 1.0219554431872380e-001
      2.7209823621850017e-002 -9.4515783501382617e-004
      -4.0370772656759496e-001 1.4876011819449772e-001
      -1.0389046337139626e-001 7.7364420192223291e-003
      -9.2203329581390017e-003 2.1518962925747277e-002
      1.4853636000932350e-002 -2.8313470029544779e-001
      -4.6268604902809506e-002 -3.1454288871073287e-002
      3.0215375996712108e-002 -5.3240054259421132e-002
      -4.0893876582176393e-002 1.4632572647532384e-002
      -2.5287418563477126e-001 4.9223116111861580e-002
      -1.0599519565681970e-001 4.6486485152465493e-002
      4.3861516589956173e-001 1.2497718913630544e-001
      -3.7404198366799159e-003 5.9591455411159552e-002
      -2.7497865790575720e-003 -6.5229507194903294e-002
      2.2066930494229434e-002 -7.5035790548173789e-002
      -1.4538241228695199e+000 9.4869257709056590e-002
      -2.5249867645153734e-001 9.3641887130532411e-002
      -2.1150269052448448e-001 2.4956991019663758e-002
      5.6851621870625743e-002 1.1467970238537549e-001
      -1.2213690828938221e-001 -3.2264146754994567e-002
      -6.7789050795872604e-003 3.0123635426103627e-002
      -2.4649402030494080e-001 3.7933008765551091e-001
      2.4833090693098817e-001 -1.3765320294585345e-001
      -1.0563888992166766e-001 9.5807825263140231e-002
      2.1118726150364195e-001 9.8804794409127913e-002
      -9.7509743688199008e-002 7.0666978047948789e-002
      -5.2249593068382678e-002 -4.1688261065223955e-002
      -6.0730386174911895e-002 6.6152351790485578e-002
      2.4526441665725862e-001 1.3180391699784702e-001
      6.6676540166831597e-002 -5.1210304108152464e-002
      -1.8349591135039426e-002 -1.6375202095478725e-001
      -1.7411645417921781e-001 -3.6205519045155299e-001
      9.2558950039026866e-002 -6.4571334518526938e-002
      1.5916455661369427e-001 -1.2129811394545801e-002
      2.9683251773032659e-001 2.2434397742574333e-001
      2.0493916804984832e-001 1.5396694387845919e-002
      1.6090759930617832e-001 -1.3540021456101805e-002
      1.1683798500916102e-002 -3.8621475993464216e-001
      1.8537576443038983e-001 -1.2885815095003991e-001
      -7.3648420469510284e-002 -6.3085206048442335e-003
      -3.8490967527683134e-002 8.3481708753138109e-002
      -2.6724249407004935e-001 -1.3853397395524530e-001
      -3.7297854908838503e-002 -2.6265655190327425e-003
      -1.1509931681549920e-001 -1.1945680675053641e-001
      -2.4433690843428387e-002 -2.6241988531106086e-001
      3.8914477410860862e-002 -6.8249378301106695e-002
      1.2257920422572826e-002 4.7704760310363342e-001
      1.2083986505088032e-001 -1.8999104011352581e-002
      6.4570953828150687e-002 3.7022337668295171e-003
      -3.4554372240128306e-002 8.3095454338851188e-004
      -1.5659618265934280e-001 -1.2252483604696087e+000
      7.4418582375493314e-002 -3.4263627504245393e-002
      2.5718253605062552e-001 -9.3506785441152693e-002
      -3.0477261492915395e-002 1.9209697222736702e-001
      2.3397672637491661e-003 -3.2366724270245992e-002
      -1.1460541072802129e-001 -3.9538010975801570e-002
      3.2056062892317008e-002 -9.8983880428758650e-002
      1.9818671831759932e-001 1.7898324315828100e-002
      -4.0106621026829818e-002 -1.7076266493542452e-001
      1.0268469815052972e-001 2.4798510245718153e-001
      7.8033928717099335e-003 -3.7542756681614102e-002
      8.4615035278140571e-002 -3.1756721997393267e-002
      -2.3121288441727350e-001 -1.0074909812134447e-001
      2.5309023290318622e-001 1.7718803181111645e-001
      2.3701347549287630e-001 -3.6292356169585538e-004
      -7.8172547602322728e-002 8.9902064858198728e-003
      -1.1408872515903783e-001 -2.2078868122988915e-001
      -3.0186755595264231e-001 2.0087836083660715e-002
      -5.3009902727679831e-002 1.9240603425066069e-001
      1.0603266105840066e-001 1.1871006517521995e-001
      3.6143768304443352e-002 1.3985032079668622e-001
      3.7374483157432192e-002 1.4107566328432103e-001
      -1.0689876072742779e-001 -5.8699195877605234e-002
      -1.3119870696783928e-001 2.2243514775763987e-001
      -1.0469521491851985e-001 -1.8195898532323049e-001
      -5.9277607123651439e-002 -9.3305621045719947e-002
      -4.7091711692031371e-002 -6.9871914390668768e-002
      -9.8947167267247393e-002 -3.2744586112654274e-002
      7.5952318676708167e-002 -3.5767849711230627e-002
      -8.0987934868655756e-002 2.0694794541486795e-002
      -3.0946241627867765e-001 8.6844838424865220e-002
      -1.2215057092227113e-001 3.3960560004687841e-002
      2.6485685260193959e-001 4.2181154758133652e-002
      -6.3913858938073359e-002 2.1920065331479541e-002
      1.3683830722682383e-001 2.4725068084818381e-002
      -8.7780429239448343e-002 -1.9089798669357827e-001
      -7.2093763375608533e-001 8.7901600862182270e-004
      -6.7656126927134755e-002 3.7733445791940973e-001
      -3.5388131274948643e-002 -1.6289608260035865e-001
      6.2216554963574679e-002 -8.3603752436989615e-002
      4.8084589131743911e-002 -2.1260093011598910e-001
      8.4979915438731943e-002 6.1294188248058996e-002
      -1.4036593676397205e-001 2.9206379878749250e-001
      -9.0480705884356083e-002 -7.9780390929806641e-002
      -2.1511536219246230e-001 2.5730274537483264e-002
      1.4578398305753934e-001 -2.2701480785280583e-002
      7.8474471354031232e-003 -4.4686554767700056e-003
      -5.3164275833671455e-002 -1.6223890319765816e-001
      -7.5729122426348897e-002 1.4516642477720354e-001
      1.5805310880551809e-001 2.0018567914152782e-001
      -6.0695893168307424e-002 -7.6350744523816599e-002
      -4.9833257482874357e-002 -1.6134441442473124e-001
      -1.4289520620379370e-001 -2.6041029077620154e-001
      6.8204118615579745e-003 -1.3583776431606581e-001
      2.3387966094363072e-001 1.1047901003281300e-001
      1.1340090765625460e-001 3.8404763408783606e-002
      2.5197359270419983e-001 9.9902216596413171e-002
      2.0288933989901092e-001 1.5568755544551088e-002
      2.8623979747961464e-002 -1.0520879218858896e-001
      1.8249779933528845e-001 -4.8212486877230960e-002
      -3.9674673510931874e-002 -5.2557462119301304e-002
      -2.5379891069577953e-001 5.5216193634432434e-002
      -2.0970473288564548e-001 -9.6438247668022156e-002
      -5.6090181142251797e-002 7.2947007989356771e-002
      -2.3546860240302728e-002 -1.2598035813355909e-001
      -7.5994899675338512e-002 -2.9698437523749105e-001
      1.7366631174715519e-001 -4.8007084273452981e-002
      6.2601461334003558e-002 2.4296068341041394e-001
      -7.9502646370582394e-002 -1.5035661241047524e-001
      -5.2620585975988038e-002 5.0059894669927676e-002
      2.4023055021831437e-002 -5.0968242332903053e-003
      -2.3955360194037009e-001 -3.5978110527425999e-001
      1.8706324680116221e-001 2.0218369323783021e-002
      3.8294410297453324e-001 -9.2519225492140728e-003
      -1.7889024703401091e-001 4.1052955513210899e-002
      -1.1019076490199967e-001 5.7231954477307084e-002
      -2.0605541404581829e-001 6.8104062958433562e-002
      -9.6604954356123204e-003 -4.8409954012339711e-002
      2.9128482153223639e-001 -9.0856285122408842e-002
      -9.4443112647012620e-002 -3.7060310673748778e-002
      1.7186556149558130e-001 1.0499568434692280e-001
      -5.7955989848117860e-002 4.6146028830686511e-002
      3.8374537746336299e-002 -8.1203594106629987e-002
      -1.1416478692078234e-001 8.5496997343721855e-003
      9.2465066623802009e-002 1.3615498707033069e-001
      2.0854534120484458e-001 -4.0345810090072605e-002
      -9.7266531567587633e-002 -9.2413148861683336e-002
      -1.1805169615513526e-001 -1.1539782565834181e-001
      -2.5231818972203368e-001 -2.0392387483233614e-002
      -9.6489219651946859e-002 2.8176017731669623e-001
      2.0780640408782303e-001 6.1102473631200020e-002
      1.3257060567072329e-001 2.4888565964079484e-001
      1.0653794011840553e-001 1.4501897432546743e-001
      -6.8874132738602462e-002 5.7518288071578445e-002
      -1.7863713121511804e-001 -4.0267662071726395e-003
      6.0904183444167419e-003 1.5070093762687086e-003
      -1.0160644572333802e-001 -3.3534634284742038e-001
      -9.3897759255323412e-003 -2.3180515664645174e-001
      -6.5399500530309296e-002 -1.3061046363650786e-001
      8.3836472486987224e-002 -1.5565884959594703e-001
      -2.4802435037400977e-001 -9.3618395734512277e-003
      -1.9001527240793317e-001 2.1646610874075783e-001
      -1.5406464976532436e-001 1.7361634320879932e-001
      1.6231866527220656e-001 -2.3324644182452367e-001
      -2.4059428563268517e-001 1.2324019674738643e-001
      7.2062148804515669e-002 6.9889397018424754e-002
      -1.9359352891659399e-002 -1.2433835610500650e-001
      -4.5782905436716675e-001 4.2970926301040650e-002
      4.4228077194367110e-002 2.1221021137536672e-001
      1.4864896265801564e-001 -1.0337912125759423e-001
      -1.2154394595602369e-001 -1.1888270530391441e-001
      -8.9636229886071672e-002 -7.3959133468652127e-002
      1.0149498351176550e-001 2.6171744001061908e-002
      7.7479602753804167e-002 1.0487635027303038e-001
      -1.0145590220900129e-001 1.8325572408460162e-003
      9.6322492750296154e-002 -1.2847898354100148e-001
      -1.5167383913554539e-002 -6.7127914100009831e-002
      3.6831078794729702e-002 -1.0830686202785914e-002
      -2.6044155135648173e-002 2.3256997075053080e-002
      4.1684186461913818e-002 7.2153846872244229e-002
      2.6254816655042625e-002 6.9600162389027900e-002
      3.3686944818447202e-002 -1.9175995577440880e-001
      2.7006561520389272e-002 -5.3893369071103848e-002
      1.6010635906768926e-002 -1.3889361334081490e-001
      2.5489470272206933e-003 -1.2347370044871684e-002
      8.2909494954049451e-002 1.2914336310616736e-001
      5.0602563298930536e-002 1.9275828376650320e-002
      1.1082682261997501e-001 -1.5139254084421419e-001
      1.4361026823200454e-001 -1.0392974288485730e-001
      -9.5962354672979339e-002 -5.8615240543977327e-002
      -3.2925272502791474e-002 -2.5527674205993677e-002
      -1.4793872368930661e-001 -1.1143647980495215e-001
      -2.2796875717945755e-001 -1.2128107939367698e-001
      -6.0737807066706707e-002 7.1630504473946654e-003
      -2.7876958653610142e-002 6.5868529230536637e-003
      -2.2536265575099031e-002 -9.8779945161534113e-002
      -9.2009624417973473e-002 -1.5462822494592302e-001
      1.6306682075218948e-001 -9.6834805507077959e-002
      8.9541710176100964e-002 -1.2237263209969919e-001
      -6.8755209829374830e-002 -1.1558730782405338e-001
      2.8400788841284583e-002 1.1793761421156632e-001
      -4.9247924424440835e-002 -8.8929356703908204e-003
      1.2287671114437440e-001 -3.5585942998921494e-001
      -5.4636929866461799e-002 -4.2551213833888829e-003
      4.6740646582711411e-002 2.0139927714807745e-001
      -6.4154605517959623e-002 -2.6505443279870994e-002
      3.6763266796269414e-002 -1.2693882124704356e-001
      2.2478237845214709e-002 4.9321170440143940e-002
      -1.7534073490219102e-002 2.2058640538616625e-001
      8.7189477743558882e-002 -6.8593757815405915e-002
      -6.2052434635998840e-002 9.3668352225180040e-004
      4.3434115769387695e-002 2.8121231516374447e-002
      -5.0979248960361809e-002 1.1978909977556972e-001
      -1.1560314585708106e-001 2.5430281599228680e-002
      1.4111673010321044e-002 3.5256830957969970e-002
      -7.9370828556885265e-002 -2.7282927293259755e-002
      -4.5071677708027121e-002 3.7966716105285431e-002
      7.0218412375637751e-002 -2.1665038060937964e-002
      8.5600792162878400e-002 -9.1825398642420009e-003
      2.4863526655593389e-002 -7.9604768724046537e-002
      -8.5077570615528050e-002 5.1995662007443551e-002
      1.3920174502335525e-001 -5.9343846822719926e-002
      3.5106188278686751e-002 8.9681511152253562e-002
      8.5877154525217644e-002 2.9997868193175098e-002
      -4.2615506735530259e-002 -1.3495011740944976e-001
      -3.2016312051082407e-002 -1.2166567323779015e-001
      3.9754935224285595e-002 5.0003867263583586e-002
      -1.0580327153168469e-001 -1.3172055496735124e-001
      -7.0230991295569700e-002 -6.0601014218463985e-002
      5.4858376592036115e-002 -4.9928638403561798e-003
      6.2588966036269927e-002 -1.2033341244256714e-001
      1.3425535744184754e-002 -2.5431194629172219e-002
      -1.3368378458128002e-001 1.2532657204008590e-001
      -7.9343318905173862e-002 1.4886471891077793e-002
      6.8409298594305945e-002 -1.8965703227801747e-001
      6.0921758732353183e-003 9.2960389957462766e-003
      -2.4104603863471661e-002 3.8872207303784455e-002
      -1.0235431886556498e-001 8.4251685466745996e-002
      -2.5384453909333582e-001 -8.6722257903137479e-002
      1.7292919824496020e-001 -4.6612856978893794e-002
      1.5972031272054552e-001 -1.6753619161004732e-001
      -1.2374590566348205e-001 -8.4469008759814945e-002
      -2.5927984841206949e-002 -1.5045520935733911e-001
      1.2753568100878776e-001 -6.2200357348442578e-002
      9.3737559901521342e-002 -3.3487205553003552e-002
      -1.0579860904955407e-001 -9.7933840253522267e-002
      3.0186232243843432e-002 -3.1244154946076879e-003
      1.5577202114382335e-002 -1.7037471622472791e-002
      1.7748990123550284e-001 2.5809190484396817e-002
      -7.4945472878719926e-003 1.4101696953287127e-001
      -2.1019936156637638e-003 -1.1342627373836256e-001
      -8.9449304261093598e-002 -8.1090338349360233e-002
      9.7999651937276749e-002 1.1350695015406995e-001
      -1.0705575958386235e-001 1.6793933942048633e-001
      -4.2208863583678369e-002 1.7675438062861600e-002
      -3.1533896183823566e-002 -1.0916528855418524e-001
      2.5759922391869872e-001 8.1981356130889790e-002
      -8.8488372488135084e-002 -5.4724671410518982e-002
      1.0748318279065890e-001 4.7590390482681016e-002
      1.2253077691862853e-002 1.9518490925386384e-001
      -1.4556825247984140e-001 -9.9761533859168500e-002
      -2.7386044354304073e-001 7.3153415851387391e-002
      1.1109328513536684e-001 -1.0064970187322282e-001
      -1.5937566454034099e-001 -1.4551748748597798e-001
      -1.0789892630059215e-002 1.7257849422355040e-001
      -9.8817230484192723e-003 9.1439006012562704e-002
      -1.5775938601711326e-001 2.0076315114078094e-001
      6.2767074226360409e-002 -1.2185615209823329e-001
      4.1961333282589136e-002 5.3314616021343318e-002
      -1.4053858000753763e-001 1.1787051984485969e-001
      -2.5394240062532497e-001 1.1897462684925547e-001
      -4.4228736998520625e-002 -9.7987124888016655e-002
      -2.5076660578006331e-002 -1.2677577151433447e-001
      1.4995661656486828e-001 3.3013274207506861e-002
      -8.3366387183644711e-002 8.8617562363028451e-002
      1.1956225579860634e-001 2.2236518364955576e-001
      -1.6726537827298241e-001 -1.9950736480002864e-002
      -3.8054438624491815e-002 -9.7154580877195279e-002
      5.1427437807432495e-002 1.2100278005025446e-001
      7.4840203420184020e-002 -9.4538947084935140e-002
      -6.8334572041121922e-002 -1.2581445053157944e-001
      3.7695983957596192e-002 -2.4313642139534544e-002
      -3.7946851844445711e-002 1.0127565825087524e-002
      -1.0824100540380427e-001 1.2026022117017947e-001
      4.4767495105611642e-002 -1.8640020721653043e-002
      8.1872037893752650e-002 -3.9511710590046885e-002
      -6.6221873394693681e-002 -1.7168160086583797e-001
      1.5250739400011160e-001 -5.2524592852065947e-002
      4.6465993240569062e-002 -1.9489685851086419e-001
      8.8979301311963466e-002 1.8779054954310384e-002
      2.7504477446660368e-002 2.3559845814088782e-002
      1.2871906222662589e-002 -2.5445021542739622e-003
      1.1283594143298083e-001 1.4089843609303207e-001
      -3.0691131655480174e-002 3.8993056466811553e-002
      -1.5255016180825995e-002 -3.2527968798679627e-002
      1.0236491844883969e-001 1.9943698748831565e-002
      -5.4861866112853652e-002 -5.3861463774143171e-002
      8.4603285441050460e-002 -3.3799278760587768e-002
      -1.1984277691353024e-001 -5.1676149600889891e-002
      -1.6491176432328150e-001 -6.0494556258385963e-002
      2.9601803621863348e-002 -4.0198327735343408e-003
      1.8516652888796295e-002 -9.7815638601229951e-002
      -8.5217916798441554e-002 -1.1036533785752307e-001
      -6.1753998017327623e-002 6.1718417875649918e-002
      -6.0147182415457294e-002 -1.0742484315902866e-001
      3.9701795240504829e-002 -6.5105702613745445e-002
      2.6951925556281685e-002 9.4628354026215625e-002
      -6.6184314519477885e-002 -1.2065879958191299e-001
      -1.5283893109277441e-001 3.9713139325959483e-002
      1.2247733206455218e+000 -1.8941472073593033e-001
      3.2441686812272233e-002 -2.0386140242143869e-001
      8.6367695327987146e-002 -1.3139741867034613e-001
      5.7869916190046972e-002 4.6569192588311520e-002
      -2.2913518606186375e-001 8.8614803104494155e-002
      6.9597546238507224e-002 9.6835782817250318e-002
      -3.0311463118629634e-002 1.3396494171814999e-001
      -1.1044565174261579e-001 5.7805549304282937e-003
      6.9943442903020195e-002 -2.1334254093535364e-002
      4.6938776978505951e-002 -3.3174132541098349e-002
      7.7295538186672782e-003 6.6415065477318735e-002
      -4.9474823232863431e-002 1.2380603230501211e-001
      -4.6534935961061112e-002 -1.7558942369201624e-001
      -4.2967393537527016e-003 -1.9104276608596904e-001
      -1.9365675214212741e-003 1.0558177370703853e-001
      -1.7720801439442915e-001 9.3937990475371672e-002
      2.6706712512377089e-002 3.0927335494894369e-002
      8.6375021412567574e-002 -1.8683392401992072e-002
      2.1032434180312171e-002 8.2542138022378947e-002
      -1.9395539361486754e-002 7.6246997934122608e-003
      1.2179059782927291e-001 1.7690098598331777e-001
      2.1040548548072910e-001 9.6703481299640695e-003
      -7.5993112722284664e-002 -1.8833768703732906e-001
