<?xml version="1.0"?>
<opencv_storage>
<OCRMLP type_id="opencv-ml-ann-mlp">
  <layer_sizes type_id="opencv-matrix">
    <rows>1</rows>
    <cols>3</cols>
    <dt>i</dt>
    <data>
      400 71 29</data></layer_sizes>
  <activation_function>SIGMOID_SYM</activation_function>
  <f_param1>6.5000000000000002e-001</f_param1>
  <f_param2>1.</f_param2>
  <min_val>-9.4999999999999996e-001</min_val>
  <max_val>9.4999999999999996e-001</max_val>
  <min_val1>-9.7999999999999998e-001</min_val1>
  <max_val1>9.7999999999999998e-001</max_val1>
  <training_params>
    <train_method>BACKPROP</train_method>
    <dw_scale>1.0000000000000000e-002</dw_scale>
    <moment_scale>1.0000000000000000e-002</moment_scale>
    <term_criteria><epsilon>1.0000000000000001e-005</epsilon>
      <iterations>1000</iterations></term_criteria></training_params>
  <input_scale>
    8.3379767043853370e+000 -8.2162669293007653e+000
    3.6073716978445223e+000 -3.3047796639792741e+000
    2.8757072693128776e+000 -2.4710153232099450e+000
    2.4148981763621560e+000 -1.8841567802825621e+000
    2.4360558313138427e+000 -1.9134357120753569e+000
    2.4599664304287594e+000 -1.9461247582832784e+000
    2.5154511732171274e+000 -2.0205320176314383e+000
    2.4907348162066234e+000 -1.9876207214444919e+000
    2.2649971954824837e+000 -1.6640558137452004e+000
    2.1867904653904970e+000 -1.5355639051277226e+000
    2.1894114408934624e+000 -1.5401051079393464e+000
    2.2686606647197296e+000 -1.6697790254310512e+000
    2.4874319389331645e+000 -1.9831951190754136e+000
    2.5403292336333116e+000 -2.0533109338053794e+000
    2.5971466634497640e+000 -2.1270011788347318e+000
    2.6314414867844378e+000 -2.1707769255186178e+000
    2.5925694140838731e+000 -2.1211204735499121e+000
    2.9781588919861179e+000 -2.5924187394467975e+000
    3.3239387139638352e+000 -2.9894263783377459e+000
    7.8866346494208246e+000 -7.7577309786500690e+000
    4.0784137460476400e+000 -3.8163857247400972e+000
    2.0233617751686221e+000 -8.5838960178052059e-001
    2.0652518852642703e+000 -7.7510635619858670e-001
    2.1078607456558704e+000 -7.2111025509279780e-001
    2.0665006595238782e+000 -7.7323832243697743e-001
    2.0131960580191368e+000 -8.9153460299613907e-001
    2.0000781583236216e+000 -9.9119827315770759e-001
    2.0000034237260049e+000 -9.9815137974812429e-001
    2.0159159573657335e+000 -8.8154877494179995e-001
    2.0328587139435750e+000 -8.3441661644497278e-001
    2.0329360828837011e+000 -8.3423939585441353e-001
    2.0143223970671302e+000 -8.8727091606010000e-001
    2.0015927032385701e+000 -1.0407129824198897e+000
    2.0053482153567983e+000 -1.0758544753235126e+000
    2.0016928714871018e+000 -1.0419996608974800e+000
    2.0054699151959365e+000 -9.2872553124565116e-001
    2.0274723598251860e+000 -8.4742008789568324e-001
    2.0012662438921875e+000 -1.0362230746797851e+000
    2.0509077829334008e+000 -1.2525126581422013e+000
    4.6401869253575034e+000 -4.4136152981427816e+000
    4.1503534562969335e+000 -3.8935162049923742e+000
    2.0375915865299730e+000 -8.2400136733233076e-001
    2.1081650278360011e+000 -7.2078092954179074e-001
    2.1831205794797128e+000 -6.5394874266076108e-001
    2.1193137800120176e+000 -7.0912483079143895e-001
    2.0443818934050180e+000 -8.1035532287929168e-001
    2.0026047377401222e+000 -9.5024912308885734e-001
    2.0001422050999236e+000 -1.0119962925063550e+000
    2.0057174739860826e+000 -9.2719073607271929e-001
    2.0105658025259632e+000 -9.0235714369123710e-001
    2.0108673630071165e+000 -9.0104552172574237e-001
    2.0050206818622671e+000 -9.3160911616133302e-001
    2.0028194856609338e+000 -1.0545272826434315e+000
    2.0026258275103164e+000 -1.0525725592167194e+000
    2.0002378005449262e+000 -9.8469765900592632e-001
    2.0370120745098466e+000 -8.2523279046497799e-001
    2.0867681203595998e+000 -7.4564206274362343e-001
    2.0345834321668721e+000 -8.3052331508374266e-001
    2.0000285738572301e+000 -1.0053597580347302e+000
    4.6263527871123431e+000 -4.3990299425153347e+000
    4.3673318086133248e+000 -4.1249017945661208e+000
    2.0589957660126257e+000 -7.8482281048260860e-001
    2.1121689693057415e+000 -7.1650468736728479e-001
    2.1603606725614442e+000 -6.7178156193445404e-001
    2.0917832288097848e+000 -7.3947805549720913e-001
    2.0157054507809593e+000 -8.8228554784388624e-001
    2.0225310267174392e+000 -1.1617910544096475e+000
    2.0540020400460643e+000 -1.2609477984328841e+000
    2.0283225735488508e+000 -1.1830491655341469e+000
    2.0229763884737180e+000 -1.1635025589546106e+000
    2.0231686605046670e+000 -1.1642370642994579e+000
    2.0315583478924610e+000 -1.1941252706876124e+000
    2.0906846158285624e+000 -1.3498756241796053e+000
    2.0600675084809739e+000 -1.2769538523992878e+000
    2.0099757019378557e+000 -1.1049907539025134e+000
    2.0106086166226045e+000 -9.0216967635255640e-001
    2.0397011845821238e+000 -8.1961265733259880e-001
    2.0157054507809593e+000 -8.8228554784388624e-001
    2.0004573287326486e+000 -1.0216151325188936e+000
    4.5901031497877813e+000 -4.3607867300923804e+000
    4.1217057053098261e+000 -3.8628280134981172e+000
    2.0439281122909190e+000 -8.1122599111381977e-001
    2.0685734152999560e+000 -7.7018636001402552e-001
    2.0841267488826754e+000 -7.4898305037971147e-001
    2.0230403855680676e+000 -8.5929305850814719e-001
    2.0162878374415953e+000 -1.1360273064368198e+000
    2.2902668400795099e+000 -1.7031034458403758e+000
    2.4524504917935444e+000 -1.9358930228703357e+000
    2.2866741726384370e+000 -1.6976111096622937e+000
    2.2772636181516046e+000 -1.6831337802744692e+000
    2.2975586335471818e+000 -1.7141941367480926e+000
    2.3556761055876962e+000 -1.8001743594715185e+000
    2.7850873655418056e+000 -2.3616556001597813e+000
    2.6087492316029381e+000 -2.1418667879124862e+000
    2.1894114408934624e+000 -1.5401051079393464e+000
    2.0209777356677039e+000 -1.1557050928782315e+000
    2.0002012688673392e+000 -1.0142879172823380e+000
    2.0035642537047953e+000 -1.0615100908300281e+000
    2.0189582098867898e+000 -1.1474938263223746e+000
    4.2300850140271082e+000 -3.9787497819025535e+000
    3.9990102791550775e+000 -3.7309845079781541e+000
    2.0357866367506765e+000 -8.2787540450099473e-001
    2.0516965657591415e+000 -7.9701493852835070e-001
    2.0619145767902776e+000 -7.8021253671515334e-001
    2.0031576626632819e+000 -9.4536357208954835e-001
    2.0782334259869897e+000 -1.3215411156615458e+000
    2.5070826876405627e+000 -2.0094288358895422e+000
    2.6575577898177101e+000 -2.2037950956475605e+000
    2.3219462038016090e+000 -1.7507684421139804e+000
    2.3216194636413574e+000 -1.7502834237608671e+000
    2.3942717314310373e+000 -1.8552652458395518e+000
    2.4698646032282023e+000 -1.9595410164180989e+000
    3.1779827952388189e+000 -2.8238572452759407e+000
    3.1221417477386213e+000 -2.7597961439971632e+000
    2.4827499998070954e+000 -1.9769101046983717e+000
    2.0859706262849835e+000 -1.3393269461118429e+000
    2.0077150613322363e+000 -1.0917776186726491e+000
    2.0154443567291009e+000 -1.1322371925909269e+000
    2.0371771522225637e+000 -1.2122963131390234e+000
    4.0663186342923332e+000 -3.8033956880577651e+000
    3.9488442294395205e+000 -3.6768740779464615e+000
    2.0397868707218501e+000 -8.1943740653587471e-001
    2.0517956383577678e+000 -7.9684250840004589e-001
    2.0536981392985818e+000 -7.9357024112082331e-001
    2.0025212338845844e+000 -9.5103290507265414e-001
    2.0756260387570320e+000 -1.3154023981226461e+000
    2.4666939081172812e+000 -1.9552504857619610e+000
    2.6122751306721712e+000 -2.1463728535631850e+000
    2.2972519438733947e+000 -1.7137291690675602e+000
    2.3206408625187485e+000 -1.7488299920975479e+000
    2.4189726272590542e+000 -1.8898223650461361e+000
    2.4467794483388992e+000 -1.9281467157654195e+000
    3.1257529344283390e+000 -2.7639521733092693e+000
    3.0541221748335157e+000 -2.6811475506864948e+000
    2.5434552113866484e+000 -2.0574063587994997e+000
    2.1665120450321598e+000 -1.4997216397251814e+000
    2.0324733325179567e+000 -1.1971702503420940e+000
    2.0409099486764473e+000 -1.2237487387571666e+000
    2.0662726021724427e+000 -1.2926948043607613e+000
    4.2096794727387783e+000 -3.9569602280760061e+000
    3.9007231481369180e+000 -3.6248496360153926e+000
    2.0375085006694529e+000 -8.2417721526873944e-001
    2.0494469548157821e+000 -8.0098656683898062e-001
    2.0497372326887642e+000 -8.0046790162259607e-001
    2.0035889434645791e+000 -9.4185981069731906e-001
    2.0465957800286723e+000 -1.2404120804943515e+000
    2.2435433900783739e+000 -1.6300744943538186e+000
    2.2984802099703181e+000 -1.7155905432354521e+000
    2.1613423511796532e+000 -1.4903664156777459e+000
    2.1683271831441555e+000 -1.5029841895498603e+000
    2.2026728852531634e+000 -1.5627927892698739e+000
    2.2477787452785525e+000 -1.6368487491317092e+000
    2.5674789852914399e+000 -2.0887159425983199e+000
    2.5625909641640234e+000 -2.0823685826188942e+000
    2.3335543353817179e+000 -1.7679168844329010e+000
    2.1393933757739600e+000 -1.4495005900211935e+000
    2.0613680289588565e+000 -1.2803027992361649e+000
    2.0719900703356058e+000 -1.3067083759774816e+000
    2.1017383265675975e+000 -1.3738645167190946e+000
    4.4701067900447677e+000 -4.2339189929556431e+000
    3.9218665305270557e+000 -3.6477228996925164e+000
    2.0324733325179563e+000 -8.3530308217586247e-001
    2.0463157986013072e+000 -8.0670447035732040e-001
    2.0481999503865636e+000 -8.0323630866825035e-001
    2.0111293036970803e+000 -8.9992247728139296e-001
    2.0135338260230262e+000 -1.1232985273259626e+000
    2.0513999813867287e+000 -1.2538676284257289e+000
    2.0305828845467513e+000 -1.1908383384394752e+000
    2.0060669316765978e+000 -1.0809830238331337e+000
    2.0051980386411943e+000 -1.0747432744115120e+000
    2.0056862257159564e+000 -1.0783037582745119e+000
    2.0138268425654160e+000 -1.1247040743891763e+000
    2.0706828175874055e+000 -1.3035425138677295e+000
    2.0836042653447424e+000 -1.3339522373115806e+000
    2.0665006595238782e+000 -1.2932623370869007e+000
    2.0335585516616739e+000 -1.2007360527081266e+000
    2.0170997259984413e+000 -1.1395949932244482e+000
    2.0465957800286723e+000 -1.2404120804943515e+000
    2.1077088023802637e+000 -1.3864338637367708e+000
    4.5460564663948526e+000 -4.3142674031411676e+000
    3.9325833968512369e+000 -3.6593076591588609e+000
    2.0220902400121128e+000 -8.6200742447884782e-001
    2.0375915865299730e+000 -8.2400136733233076e-001
    2.0555359596701921e+000 -7.9047697626708358e-001
    2.0139252336913800e+000 -8.8875216161976711e-001
    2.0019567113561583e+000 -1.0452239038834219e+000
    2.0103530608976103e+000 -1.1070581154634560e+000
    2.0013861854764494e+000 -1.0379310552763865e+000
    2.0040218211816572e+000 -9.3856120654848174e-001
    2.0062947851759021e+000 -9.2374530662036036e-001
    2.0109107978628522e+000 -9.0085827067087898e-001
    2.0071784353669986e+000 -9.1878757942940426e-001
    2.0028194856609338e+000 -1.0545272826434315e+000
    2.0101425325052182e+000 -1.1059090084259795e+000
    2.0134368722736959e+000 -1.1228304926074015e+000
    2.0027541627278382e+000 -1.0538752630554897e+000
    2.0002572088128074e+000 -9.8409035787192600e-001
    2.0078983093952920e+000 -1.0929092874432638e+000
    2.0463157986013072e+000 -1.2396113282439867e+000
    4.6541555024940626e+000 -4.4283371022908140e+000
    3.9406857414734180e+000 -3.6680622316038032e+000
    2.0159159573657335e+000 -8.8154877494179995e-001
    2.0262227755072835e+000 -8.5064697935564815e-001
    2.0551245605863073e+000 -7.9116380339182990e-001
    2.0123940392114035e+000 -8.9469615744133635e-001
    2.0022789281801265e+000 -1.0488911819496223e+000
    2.0108240168819811e+000 -1.1095912132630010e+000
    2.0055005567069850e+000 -1.0769669930342609e+000
    2.0055005567069850e+000 -9.2853356367272410e-001
    2.0125336934438525e+000 -8.9413760516697482e-001
    2.0184414563774338e+000 -8.7310872208431767e-001
    2.0212837443672145e+000 -8.6436475910440091e-001
    2.0000051144613815e+000 -1.0022640761717962e+000
    2.0060026126309345e+000 -1.0805359467707747e+000
    2.0187276233332136e+000 -1.1465327013688327e+000
    2.0041007922099174e+000 -1.0661206414151236e+000
    2.0021052704920641e+000 -9.5515733556267168e-001
    2.0074980510522940e+000 -1.0904214331579278e+000
    2.0497372326887642e+000 -1.2492693310661680e+000
    4.5075626179716854e+000 -4.2735659976925220e+000
    3.9433989682996753e+000 -3.6709931185158164e+000
    2.0124870526730030e+000 -8.9432375911856410e-001
    2.0200736087595854e+000 -8.6800037876388436e-001
    2.0400445322465672e+000 -8.1891179054511154e-001
    2.0007707817225264e+000 -9.7261976015273721e-001
    2.0511043462467851e+000 -1.2530543924490793e+000
    2.1045483173132693e+000 -1.3798117976792794e+000
    2.1078607456558709e+000 -1.3867504905630730e+000
    2.0268437153272609e+000 -1.1778112173874391e+000
    2.0116178369068800e+000 -1.1137514051789119e+000
    2.0043151709807261e+000 -1.0678829699006067e+000
    2.0008892798540812e+000 -1.0302687502867078e+000
    2.0366831107215861e+000 -1.2107461378806468e+000
    2.0615863181669387e+000 -1.2808622231703308e+000
    2.0938645379892487e+000 -1.3568793223154012e+000
    2.0303600997667335e+000 -1.1900815469644237e+000
    2.0015927032385701e+000 -1.0407129824198897e+000
    2.0299907226237468e+000 -1.1888216639378584e+000
    2.0858381351095501e+000 -1.3390274623518852e+000
    4.3787992600888144e+000 -4.1370830591566916e+000
    3.9272127167931736e+000 -3.6535027844344388e+000
    2.0150313129271047e+000 -8.8468325837907724e-001
    2.0302860313371114e+000 -8.4045660446078818e-001
    2.0567804673222465e+000 -7.8841841721264982e-001
    2.0000973928476355e+000 -1.0099175980332633e+000
    2.1401093506313509e+000 -1.4508656627686842e+000
    2.3752899700883767e+000 -1.8283482006601322e+000
    2.4259814037466709e+000 -1.8995374539821539e+000
    2.1814109244953404e+000 -1.5261803815907984e+000
    2.1526499621921693e+000 -1.4744147510368446e+000
    2.1077088023802637e+000 -1.3864338637367708e+000
    2.0861032386421825e+000 -1.3396265349298637e+000
    2.2649971954824837e+000 -1.6640558137452004e+000
    2.2969455050397354e+000 -1.7132644515386841e+000
    2.2485789719078251e+000 -1.6381249150812867e+000
    2.0793667151713215e+000 -1.3241855263657829e+000
    2.0025628147833472e+000 -1.0519218733082756e+000
    2.0218404126413323e+000 -1.1591081395251552e+000
    2.0421385027163006e+000 -1.2274243241552436e+000
    4.2473404784926645e+000 -3.9971630428248712e+000
    3.9379787527157926e+000 -3.6651377083767258e+000
    2.0367652028002463e+000 -8.2576089225371818e-001
    2.0717513581742120e+000 -7.6561946264764513e-001
    2.0944242930082813e+000 -7.3632104051072389e-001
    2.0011239682831992e+000 -9.6703163804474912e-001
    2.1776043725107823e+000 -1.5194879194699003e+000
    2.6841648488199192e+000 -2.2371719360846942e+000
    2.6247834805169621e+000 -2.1623164898091010e+000
    2.2588845943751963e+000 -1.6544564900208958e+000
    2.2134578641996669e+000 -1.5809113117248443e+000
    2.1399301342030039e+000 -1.4505241884184423e+000
    2.1429970944455303e+000 -1.4563480459888365e+000
    2.4424614845579735e+000 -1.9222332571726817e+000
    2.5274934004200698e+000 -2.0364405090966806e+000
    2.3881089890249720e+000 -1.8465620698443503e+000
    2.0875699906190723e+000 -1.3429289680606655e+000
    2.0028414311864822e+000 -1.0547447216250359e+000
    2.0106945107206484e+000 -1.1088996761941075e+000
    2.0308065392067332e+000 -1.1915957777335560e+000
    4.0483970874364941e+000 -3.7841359699897246e+000
    3.9515763106992807e+000 -3.6798241980494226e+000
    2.0462226780586161e+000 -8.0687810372459412e-001
    2.0882415686603708e+000 -7.4380726104113748e-001
    2.1048468312431186e+000 -7.2440657802240560e-001
    2.0065940007723087e+000 -9.2202664303579562e-001
    2.1576331892027585e+000 -1.4835946137517733e+000
    2.7889619416484828e+000 -2.3663745750788010e+000
    2.6854920817575167e+000 -2.2388302614158575e+000
    2.2165787503749979e+000 -1.5861024549095764e+000
    2.1353223637921959e+000 -1.4416937998958823e+000
    2.0981117378093321e+000 -1.3661019477060350e+000
    2.1120133051132624e+000 -1.3953443166080322e+000
    2.5134702175060708e+000 -2.0179073189476164e+000
    2.6652283858105887e+000 -2.2134436810201219e+000
    2.3599577392473559e+000 -1.8063574554313129e+000
    2.0667291655378213e+000 -1.2938302444618968e+000
    2.0027325596035062e+000 -1.0536580222091636e+000
    2.0062947851759017e+000 -1.0825494785555414e+000
    2.0250039281117331e+000 -1.1711217207603424e+000
    4.0753787793777834e+000 -3.8131268143396979e+000
    4.1091814498583448e+000 -3.8494007558140519e+000
    2.0422270165306848e+000 -8.1453955840245240e-001
    2.0874360410924759e+000 -7.4480782263897860e-001
    2.1058957398595410e+000 -7.2325222726878358e-001
    2.0150826268936259e+000 -8.8449864482275720e-001
    2.0819194404587469e+000 -1.3300914188374910e+000
    2.5757207184002175e+000 -2.0993924317634995e+000
    2.5874628276038005e+000 -2.1145486718184840e+000
    2.1490749666740676e+000 -1.4677687169595504e+000
    2.0733111974406313e+000 -1.3098859600606620e+000
    2.0648011371743649e+000 -1.2890149368893831e+000
    2.0881070087843900e+000 -1.3441330272417609e+000
    2.4467794483388992e+000 -1.9281467157654195e+000
    2.5351585597609398e+000 -2.0465255108760960e+000
    2.1969766497209120e+000 -1.5531053063456737e+000
    2.0268437153272609e+000 -1.1778112173874391e+000
    2.0004060665985137e+000 -1.0203551503353026e+000
    2.0015599950371983e+000 -1.0402844711048596e+000
    2.0181575825727571e+000 -1.1441343614194854e+000
    4.2232470481337510e+000 -3.9714498351488028e+000
    4.3942432130551152e+000 -4.1534813264845587e+000
    2.0317857816724478e+000 -8.3690024950262110e-001
    2.0824356950662097e+000 -7.5115818811547386e-001
    2.1042503241815953e+000 -7.2506651795402011e-001
    2.0221529297676724e+000 -8.6182627948363177e-001
    2.0198952802171020e+000 -1.1513486152142096e+000
    2.1831205794797128e+000 -1.5291718368189520e+000
    2.1411877739875029e+000 -1.4529174029699330e+000
    2.0004485732871147e+000 -1.0214050229766756e+000
    2.0066276821111653e+000 -9.2183584615078107e-001
    2.0071784353669986e+000 -9.1878757942940426e-001
    2.0002441853375803e+000 -9.8449518497084032e-001
    2.1008606454104553e+000 -1.3719950329248172e+000
    2.1320176846677952e+000 -1.4352985009137942e+000
    2.0274021293141447e+000 -1.1798029866413831e+000
    2.0015599950371987e+000 -9.6127552393233884e-001
    2.0186128811903785e+000 -8.7256035828593159e-001
    2.0084230569064374e+000 -9.1233773524563599e-001
    2.0007822497286161e+000 -1.0283625872371587e+000
    4.5331069562122712e+000 -4.3005801910858406e+000
    4.5417266501322873e+000 -4.3096914789649619e+000
    2.0132921146528324e+000 -8.9116322426964389e-001
    2.0621339663166505e+000 -7.7987159355252433e-001
    2.1015917247733178e+000 -7.2803907406312518e-001
    2.0207345982194496e+000 -8.6599943873117657e-001
    2.0096462821022913e+000 -1.1031569846244074e+000
    2.0653648511652105e+000 -1.2904284092703691e+000
    2.0479146814536651e+000 -1.2441586931939925e+000
    2.0243400127097093e+000 -8.5568319616183441e-001
    2.0858381351095501e+000 -7.4681067275766477e-001
    2.0901382737937286e+000 -7.4147483376461321e-001
    2.0453892338896784e+000 -8.0844177675841011e-001
    2.0315583478924610e+000 -1.1941252706876124e+000
    2.0428494580967747e+000 -1.2295316177175797e+000
    2.0065940007723087e+000 -1.0845673577365131e+000
    2.0104378918446559e+000 -9.0291973164774897e-001
    2.0414340426682971e+000 -8.1611194407247190e-001
    2.0163413264701822e+000 -8.8007661103951418e-001
    2.0018488740716740e+000 -1.0439329089397207e+000
    4.8069161266704494e+000 -4.5890039132800640e+000
    4.5635104401490567e+000 -4.3327078973290183e+000
    2.0094836907761273e+000 -1.1022414652530239e+000
    2.0028855791097717e+000 -9.4770583065812908e-001
    2.0332465352301350e+000 -8.3353075477978811e-001
    2.0002773787878660e+000 -9.8348341927861460e-001
    2.0234909867544086e+000 -1.1654625821119400e+000
    2.0559490752137215e+000 -1.2661586050170031e+000
    2.0330135494502604e+000 -1.1989513500407221e+000
    2.0556390775246931e+000 -7.9030531968979767e-001
    2.1701556391512429e+000 -6.6389629750350521e-001
    2.1831205794797128e+000 -6.5394874266076108e-001
    2.0820483250548545e+000 -7.5166053840384961e-001
    2.0299171365446766e+000 -1.1885699023189225e+000
    2.0409099486764473e+000 -1.2237487387571666e+000
    2.0140734949245660e+000 -1.1258770215254719e+000
    2.0000855984253407e+000 -9.9079075851271758e-001
    2.0160217548978410e+000 -8.8118056145411383e-001
    2.0000547817261114e+000 -1.0074289093809565e+000
    2.0316340620547426e+000 -1.1943786185126515e+000
    4.9597193982724566e+000 -4.7491556532594501e+000
    6.4996309145683737e+000 -6.3419507237955388e+000
    2.5264795205721153e+000 -2.0351041861845287e+000
    2.4140875380435736e+000 -1.8830279850611262e+000
    2.2735099514429273e+000 -1.6773212295955890e+000
    2.3989497354320726e+000 -1.8618493526431072e+000
    2.4493886985721995e+000 -1.9317136200088316e+000
    2.5070826876405627e+000 -2.0094288358895422e+000
    2.4818187189154348e+000 -1.9756583222945236e+000
    2.0614771186079923e+000 -1.2805824658458158e+000
    2.0082336741992690e+000 -1.0949497746662131e+000
    2.0090833835536737e+000 -1.0999566304283375e+000
    2.0646887287766824e+000 -1.2887325206755773e+000
    2.4907348162066234e+000 -1.9876207214444919e+000
    2.5090398879482558e+000 -2.0120292111312033e+000
    2.4459127865260863e+000 -1.9269608959638080e+000
    2.3865814703533750e+000 -1.8443996190498224e+000
    2.3252285176077852e+000 -1.7556335795465852e+000
    2.4860228721512958e+000 -1.9813050295835728e+000
    2.6543895962321908e+000 -2.1998035490156171e+000
    7.1710798555232049e+000 -7.0288082259882572e+000</input_scale>
  <output_scale>
    1.0526315789473684e+000 0. 1.0526315789473684e+000 0.
    1.0526315789473684e+000 0. 1.0526315789473684e+000 0.
    1.0526315789473684e+000 0. 1.0526315789473684e+000 0.
    1.0526315789473684e+000 0. 1.0526315789473684e+000 0.
    1.0526315789473684e+000 0. 1.0526315789473684e+000 0.
    1.0526315789473684e+000 0. 1.0526315789473684e+000 0.
    1.0526315789473684e+000 0. 1.0526315789473684e+000 0.
    1.0526315789473684e+000 0. 1.0526315789473684e+000 0.
    1.0526315789473684e+000 0. 1.0526315789473684e+000 0.
    1.0526315789473684e+000 0. 1.0526315789473684e+000 0.
    1.0526315789473684e+000 0. 1.0526315789473684e+000 0.
    1.0526315789473684e+000 0. 1.0526315789473684e+000 0.
    1.0526315789473684e+000 0. 1.0526315789473684e+000 0.
    1.0526315789473684e+000 0. 1.0526315789473684e+000 0.
    1.0526315789473684e+000 0.</output_scale>
  <inv_output_scale>
    9.4999999999999996e-001 0. 9.4999999999999996e-001 0.
    9.4999999999999996e-001 0. 9.4999999999999996e-001 0.
    9.4999999999999996e-001 0. 9.4999999999999996e-001 0.
    9.4999999999999996e-001 0. 9.4999999999999996e-001 0.
    9.4999999999999996e-001 0. 9.4999999999999996e-001 0.
    9.4999999999999996e-001 0. 9.4999999999999996e-001 0.
    9.4999999999999996e-001 0. 9.4999999999999996e-001 0.
    9.4999999999999996e-001 0. 9.4999999999999996e-001 0.
    9.4999999999999996e-001 0. 9.4999999999999996e-001 0.
    9.4999999999999996e-001 0. 9.4999999999999996e-001 0.
    9.4999999999999996e-001 0. 9.4999999999999996e-001 0.
    9.4999999999999996e-001 0. 9.4999999999999996e-001 0.
    9.4999999999999996e-001 0. 9.4999999999999996e-001 0.
    9.4999999999999996e-001 0. 9.4999999999999996e-001 0.
    9.4999999999999996e-001 0.</inv_output_scale>
  <weights>
    <_>
      1.1877171119422667e+000 -5.9214682620453776e-003
      -8.3087787837481993e-003 7.2853597471857039e-003
      -7.4608614582340161e-004 -3.6959952258991489e-003
      9.7521379664696258e-003 -2.8253308773295675e-002
      -8.2850075409992924e-002 -3.3768800204130769e-002
      1.5940779441265315e-002 2.9074918897066468e-002
      -1.6654798233349914e-002 -8.8266714182437620e-003
      3.5965094067490939e-002 -2.8495048247369904e-002
      4.9187168389943692e-002 5.6806186251339374e-002
      7.6611462711812073e-002 7.1424286913593052e-002
      -4.1249638319235886e-002 -2.7958817294768682e-002
      1.1166017489443859e-002 2.0540438148207770e-002
      4.6442677774753041e-002 -2.5712689290167529e-002
      -4.2479032153767589e-002 -8.1254550665338637e-003
      -4.0520772541967620e-002 -3.2922494883676351e-002
      5.7375352384893301e-003 6.4021868571739195e-004
      8.7780782368446567e-003 1.9347817731651642e-002
      1.4217532148232700e-002 -3.4483268717650499e-002
      1.1860938402394203e-002 2.4716601244380212e-002
      -3.3306284849092940e-002 -1.1397009942035539e-002
      -4.1103637937998181e-003 3.2840850272246494e-002
      2.2844435634971193e-002 -6.5548054244225851e-003
      1.8041213739184117e-002 4.1807485309168842e-002
      3.0460902961415483e-002 9.5066498327393088e-003
      -4.6128855237148958e-003 -7.5207013900321484e-003
      7.9051939075205618e-003 7.4272675438152178e-002
      -1.4324336772474019e-002 1.3949673847597391e-002
      -7.8885819599914236e-003 -2.1577752548975402e-002
      -1.3857106248799196e-002 -4.1119495287457154e-002
      -3.4603923431488187e-002 -2.2687613847734395e-002
      4.3919917242791866e-002 1.6201716640162463e-002
      2.5511511226247768e-002 4.5372882151938181e-002
      8.5958388737915337e-002 -2.3235098684930362e-003
      -2.7686549719642743e-002 3.8746123315078623e-002
      -7.4818711281465396e-003 1.4505179618223740e-002
      9.7303507914741016e-002 3.2361863896812735e+000
      -1.4199580791873929e-002 -3.0371197979939982e-002
      9.2552042131584092e-002 -9.8329733476918479e-002
      -1.1822555217507756e-001 6.7000949836432261e-002
      5.3701406940971211e-002 -5.7942893408016997e-002
      2.5005864249466191e-003 6.8894465243595382e-002
      -7.9057762233702339e-002 -1.3992847780393697e-002
      -3.9814632603186517e-002 -1.1071496636605178e-002
      -1.2794357752105544e-002 -1.9173700061966403e-002
      -4.0662582669708187e-002 -8.6558694052422114e-002
      -1.0276829691532452e-002 -4.1231375763262608e-003
      -2.5089124532338303e-002 2.5637332678303707e-002
      4.1464261069398102e-003 -4.1976765555309242e-002
      -1.1283696033837847e-002 7.1295422003168725e-003
      -4.8775172784982029e-002 -3.1940121751625340e-002
      -5.3914240420667500e-003 -1.5185878807951584e-002
      -8.1458107885293202e-002 3.2612004822004118e-002
      -1.9393362824827291e-002 1.0581263549459704e-002
      8.2715686398797172e-002 -6.6656609643800949e-002
      1.9242109363597409e-002 -5.1985469681084716e-002
      1.7196189028698742e-002 5.1732148630404609e-002
      2.4399241870957742e-002 2.0910771212877422e-002
      -1.5300284844826614e-002 -1.9921694744421851e-002
      2.3614206374767920e-002 -7.6744534247324678e-002
      -8.4778854688036757e-003 5.2875415626499052e-004
      6.1651417374193780e-002 3.3315459132283273e-002
      -5.0307492542905112e-002 -7.8746771984815250e-002
      -2.3923665683087049e-002 -2.8818373622324033e-003
      2.5469389863246643e-002 -1.5862821909401327e-003
      -1.8769794631497059e-002 6.0678392703412800e-003
      -7.7213764895895959e-002 8.6113741588811757e-002
      4.5605267595240855e-002 2.5476291793594542e-002
      -3.2509093735741580e-004 6.3657342041354738e-003
      -2.5583012895993535e-002 -1.1158176201044476e-001
      8.4452771662679744e-003 -6.6584088084793838e-002
      -2.4724363711056810e-002 4.0438332693524100e-002
      1.8001379149791874e+000 2.7035690710755116e-002
      7.4104946611800851e-002 1.0358145165250007e-002
      8.1858744373774064e-002 -2.1468632428272632e-003
      1.8661680671050007e-002 -5.8322505117147802e-002
      2.7987961916425943e-003 2.1057426492505318e-002
      -1.0219987953699641e-001 -8.2528298855632978e-003
      -1.0878689757170239e-001 -1.5700003269329171e-001
      -2.0097203722085139e-002 -1.8125353224201547e-002
      3.0706217347883268e-002 -1.7386067235927194e-001
      -2.9919170545297508e-001 7.5569889489819830e-003
      2.2000522423095883e-002 -1.4862059754191888e-002
      3.1438996605952743e-002 -1.0237183492129651e-001
      -2.3103501832906598e-001 1.7339081971321194e-001
      -1.5169565310749780e-002 2.4600760515950587e-001
      -5.9680820323559737e-002 -9.3193189507284613e-002
      -1.4639727457015724e-002 -2.1355248465606550e-002
      -9.9654326241131644e-002 8.4653232422048242e-003
      9.0080414018718954e-002 3.1070303464738597e-001
      -1.3401512088923426e-001 -3.5365849186866201e-002
      1.1782159091508390e-001 -1.9540697752578008e-003
      -5.9153938713006081e-002 -1.2854900903203312e-001
      3.1867404819667162e-002 -5.0557293416030831e-002
      5.4085817461722946e-002 8.6426256297408910e-002
      -3.3003914209277584e-002 -9.9423909084394149e-002
      3.2442344195951184e-002 -9.4415694672792302e-002
      1.8753707712356110e-001 -1.4128101029805235e-001
      -2.9562179857014443e-002 -6.0711576702916784e-002
      5.5471237368707897e-002 -3.2400781209902555e-003
      1.1525057583500360e-001 -1.0980893896721056e-001
      3.4988803279837777e-002 1.8034966096506864e-002
      1.7260141952319223e-002 9.0221582564917260e-002
      1.2143382255337228e-001 -1.7058817098587857e-002
      -1.9795934600299169e-002 -1.3131207837248481e-002
      -2.7946900110683643e-002 3.7764670996009303e-002
      1.2320283248175598e-002 -8.2146180506235414e-002
      -2.7351344177295300e-003 2.0932344139382306e+000
      5.2990000838818552e-002 -9.1367863666346652e-002
      5.6573185612216269e-002 -2.8368123652952791e-002
      -2.9524352886613328e-002 6.3838441921193173e-002
      -5.2059517999570940e-002 4.2509684956815452e-002
      -1.3501621693334272e-002 -3.7684497793508243e-002
      2.3799578507450053e-002 3.5447394904599781e-003
      -6.1295620339348107e-002 6.5586908813696304e-002
      1.6895077887507777e-002 3.7155941896817195e-002
      -7.7571627720361816e-002 -1.2113481476594780e-001
      3.2144245176742289e-002 -2.0102453732209126e-002
      -7.9974985446325014e-004 -5.3964772874860701e-004
      -2.6570617572994594e-002 -6.1067191184280362e-002
      -4.1996975664013482e-002 -1.5170352318654460e-002
      9.7606407896654063e-002 -4.6042624351479797e-003
      -7.6608206157280173e-002 2.8187112837980307e-002
      -3.4677599271371179e-003 -1.1461510318794808e-001
      4.5268478557602736e-002 9.3047493956218794e-002
      1.1779587244982830e-001 1.9659296371967810e-002
      1.5588131995552243e-002 -2.7004483829913908e-002
      2.2348160347501339e-002 -7.0701743605145456e-003
      -8.2468270423617637e-002 9.4968480166389303e-003
      6.3043304961778984e-002 -7.6222420207241505e-004
      -4.2893166611018739e-002 3.4338193938505963e-002
      -6.9721295348785475e-002 1.0549005750977402e-002
      -1.3399885378677378e-002 7.1425069770926525e-002
      5.5430834877346818e-002 7.1089053620681547e-002
      -4.9920312730152877e-002 7.6956944048313464e-002
      -3.8770290884820681e-002 1.8968380273152386e-004
      -3.1810523502143931e-002 3.6260804701811436e-002
      2.7339878522674759e-002 -5.4836994071946379e-002
      -2.6677705407622945e-002 2.1688549701053120e-002
      -3.0141294822026102e-002 1.3215974642063913e-002
      9.4135047936565620e-003 -3.2849632326444687e-002
      -1.2293765193302520e-002 6.9399683054006692e-002
      2.8403539718131077e-002 -1.9236847761173140e-002
      2.4232398204869146e+000 5.7182165695466351e-002
      -3.4553534412813905e-002 -2.2466878484017683e-002
      3.0908752581819590e-002 8.3623673577376725e-002
      3.7787681571629921e-002 4.3848403062653356e-002
      5.0300594410713342e-002 4.3663226663731902e-002
      -4.7817028580668552e-002 -5.6178890205591490e-002
      -1.8095858588585333e-002 -4.4968855909417613e-002
      -8.3605625968523264e-003 1.2345069687337415e-003
      -7.9815801511551793e-002 -3.9864562737866607e-002
      -3.8279970176551013e-002 -2.7705336641487718e-002
      2.5010797368825711e-002 5.8776471197567660e-002
      -3.8325271918596679e-002 -3.7241204161815249e-002
      -1.1124229368642527e-001 8.9927480898973441e-002
      -2.8123953082404667e-002 1.3992216346250141e-001
      -4.6971920352240161e-002 -5.5545542888695287e-002
      3.6609108963437130e-002 -1.4231727413867789e-002
      2.0025989043976527e-003 3.2503133048923079e-003
      2.2732282655269723e-002 6.3953838372385691e-002
      4.3786865616118831e-002 -9.4303411226032766e-003
      3.8889412570878412e-002 -6.5215274055732122e-003
      -1.7030076691229332e-002 -5.6022275761366355e-002
      -3.3952178465964988e-002 4.1823198283686830e-002
      1.4457011170446772e-002 -9.2335527093117577e-003
      1.9819516950170566e-002 -3.9762195339916900e-002
      7.7997980821565898e-004 -3.4975015946531761e-002
      1.5016362892677015e-001 -1.3697452364489117e-002
      -2.1536316607398173e-002 -6.0417276954036467e-002
      1.6360008984547810e-002 3.2158956957927629e-002
      2.3471958186855494e-002 -6.9480316032123068e-002
      -2.8847628307468336e-002 6.8680800536049177e-002
      3.3142340393066710e-002 -2.3455073263074167e-002
      -5.3649290313353276e-002 2.8016324046732953e-002
      6.1194022423868955e-002 -2.9697483667227648e-002
      -4.3116693777685719e-002 4.0664021217139058e-002
      -5.7130384154815410e-002 2.5222948364811881e-002
      -1.9827327076208934e-002 2.5240928678388510e+000
      1.4863331423305200e-003 -2.6020072686685883e-002
      5.0207903704618459e-002 -2.3278984493360067e-002
      -1.0772092700096797e-002 2.6527537905483203e-002
      -2.7829362334618666e-002 4.9089165375672372e-002
      -8.0228915271890683e-004 -5.5670228775588915e-003
      -2.6924717249793843e-002 3.7751024954266570e-002
      1.5772702511102198e-002 3.3552683720783245e-003
      6.1141462052162797e-003 -5.2921257853086892e-002
      9.7729059450854930e-002 6.5243332088750799e-002
      -4.3110851034904772e-002 -6.8594209515905587e-003
      -1.6312451745620436e-002 -3.3492830042097473e-002
      8.6639420139223544e-002 6.8865018331841291e-002
      -9.1975873125900082e-002 -2.5094554968388690e-002
      -5.7388151693994242e-002 -1.6474270091219344e-002
      -2.2064809269435461e-002 5.0242426857266140e-002
      -3.2649540210302468e-002 -1.5842683597929239e-004
      -1.1075302059168748e-002 1.0907811402393454e-002
      -1.0408507080798779e-001 3.9669013739044988e-002
      -3.0735436488311511e-002 -5.3964472858290924e-002
      -5.2817963291579111e-003 3.5093543592170956e-002
      6.8402446595839592e-002 -8.2231920441968274e-003
      8.4420694976825320e-002 3.0732886934779255e-002
      -2.5972547950373990e-002 -2.2894994850689741e-003
      -2.0759287559157204e-002 2.1011394349443262e-002
      2.5563577930998827e-002 -2.2910546290875532e-002
      1.6867636325716303e-002 -6.6135568866936278e-002
      9.9059852216175342e-003 4.7541414606514431e-003
      -2.5006311089410635e-002 -2.1777138119929020e-002
      7.7326510340110677e-002 2.6757906356330827e-002
      4.5061044974037581e-002 -8.9035764374231965e-003
      -7.0645672505481229e-003 -1.2733731929008993e-001
      4.3433234995740255e-002 4.9188607016300408e-002
      1.5747141936542402e-002 -4.4010327131054780e-002
      -5.5422527227515173e-002 -6.4273654975843558e-002
      1.2632118191574967e-002 3.9874019144418328e-002
      2.3487152118689285e+000 1.2864889317486762e-002
      1.4226158781384423e-002 -4.4023360114800051e-003
      3.3734429003870664e-002 1.5102820369948870e-002
      1.2971918414776813e-002 3.2619566316010283e-002
      3.3918948293514363e-002 1.2649072535577923e-002
      2.4180365619632009e-003 -2.0854780114665534e-002
      3.2127206662909413e-002 3.5430369567603877e-002
      -3.2940254849081911e-002 7.5029630257806790e-002
      -7.6579061305206197e-002 6.7759733030319014e-002
      1.1293744837456138e-001 -5.1816818667274132e-002
      1.9138039801607765e-002 2.3836985390416118e-002
      -7.3093529591672313e-002 5.8842182712629906e-002
      1.2609541102499589e-002 6.2735563236779909e-004
      -2.3701145757247144e-003 -3.8962352852107258e-002
      -4.2187786600004608e-003 -2.1453558211183991e-002
      2.1802966192871403e-002 -1.5995561992710874e-002
      -2.8054399599111796e-002 -4.9809212667883233e-002
      3.3455524393642570e-002 -7.1036049360321388e-002
      -1.4870468198596264e-002 -3.1354158528997679e-002
      1.4055818767611571e-002 1.6743466528364337e-002
      2.3300319965550908e-003 1.3411827891331867e-002
      3.1552105102109749e-003 8.9832482345811357e-002
      3.1120178242381538e-003 -2.0607712863936860e-002
      -7.1044125548402120e-003 -5.5531884425203411e-002
      2.1104758160993099e-002 6.3472132495604003e-002
      1.2590273715965116e-002 4.3789018506230439e-002
      -2.4566294962922040e-002 9.0506403352473303e-003
      2.2071632423970516e-002 -2.2408876424955891e-002
      -3.6412364561325954e-002 1.5876600724785202e-002
      7.8620341592227781e-004 4.6378597814447496e-002
      3.4630722613734548e-003 -4.1129885174488401e-002
      -1.9057416746518945e-002 1.1227390573298496e-002
      8.8114468583250435e-003 1.7067675788332390e-002
      -1.2988860166087022e-002 -1.5701165688227617e-002
      1.0751241024157945e-002 7.8078808649779622e-003
      1.0530804177203720e-002 2.5520176588083490e+000
      9.4573842650122527e-003 -5.5787314022322657e-003
      -5.2261592647199380e-003 8.8487476338331844e-003
      -1.2502403366996435e-002 2.8709340569093442e-002
      4.2478197545619711e-002 2.9933337473839597e-002
      3.5384882250310536e-002 -7.6057416650969420e-003
      -6.3191128392238560e-002 1.7424989887673305e-002
      4.0652278425086522e-002 -4.4038963061116251e-002
      8.3986804457894221e-002 -1.0236583273829536e-001
      5.8983043049499639e-002 1.4992373176149795e-001
      -1.2824463055927757e-001 6.1849623376399494e-002
      8.2459859583775122e-002 -9.4278074540887880e-002
      1.3552460034161964e-002 3.2637296843600174e-003
      1.2971687255233438e-002 5.3561724110370600e-002
      -5.0273296767061479e-002 4.0453018321915279e-002
      1.1133418926111558e-002 -2.1351193990797619e-002
      -9.3339277065862383e-002 -1.7987889341984194e-002
      -2.2614967465117125e-002 7.6888108952552206e-003
      -7.7718327092155939e-002 -9.6262746756644018e-003
      4.3836424189117509e-003 1.7536858071170280e-002
      1.5372885964687140e-002 6.3607694480281082e-004
      4.5846784018576954e-002 2.0332572018115534e-002
      1.2415335721959812e-001 -2.0690002478549858e-002
      -2.0551508650071534e-002 -6.0344563055136219e-002
      -1.4160224516036782e-002 4.2034756313930145e-002
      8.1882849289737283e-002 4.3716872980559957e-003
      1.4572061582552311e-002 -4.2345820184515229e-002
      -7.0789793628518163e-003 -2.8562897670350740e-002
      5.0328014972736215e-002 -5.3966025006165652e-002
      -3.5813254093449843e-003 -3.2085728461286531e-002
      4.0755120105162281e-002 2.0381272566363236e-003
      -8.2242863759678472e-002 1.9830682886943737e-003
      6.0939248141165013e-003 -7.0411958299118841e-003
      -2.0428623884152421e-002 2.2747737388650845e-002
      3.1644674774102925e-002 -3.0020894781961380e-002
      2.7704706019453625e-002 1.1139649683928391e-002
      1.8133821795745373e+000 -3.7157359421646964e-004
      4.2839416076817592e-002 -3.7804902411739442e-002
      6.9898540307983426e-002 -6.4820275237415714e-003
      4.5030339625311153e-002 3.1513835060583088e-003
      -5.3221465100336776e-002 3.4038959181648287e-002
      4.8457020711349649e-002 -2.3458244932620803e-002
      4.0540520138782100e-002 -8.2773796300481938e-003
      5.9015097458137615e-003 2.0943617868671011e-002
      -3.9374527080414459e-003 6.4441120632714580e-002
      7.7106058853891865e-002 -9.2058821742696362e-002
      2.8957973284308141e-002 1.8835484756301271e-002
      -2.8942821688897804e-002 2.7056758481669215e-003
      -6.4755476954666399e-003 -2.1818656433033544e-003
      3.1756007268294514e-002 -9.3720375247693832e-002
      8.8967993121089432e-003 -1.6026127668899572e-002
      7.0690461718321725e-003 -2.9269597612894858e-002
      -5.3301247765765968e-002 6.0546629532097357e-002
      5.5387967122109338e-003 -6.4220459668368077e-002
      1.8479265927182933e-002 1.8006091480562026e-002
      2.3689755119414672e-002 -2.9487829840739881e-002
      -2.7186157487511721e-002 5.5458963635711393e-002
      3.6376564250133719e-002 2.0316065773613917e-002
      2.9494175201299233e-003 -1.1615453004757642e-002
      -9.0710266186428603e-003 -6.1159497232735921e-002
      4.3066389330724243e-002 5.8904334844176879e-003
      2.9840944611174789e-002 1.1865156564017121e-002
      -4.2094966059333848e-002 1.3669345362732996e-002
      -1.2134186076708665e-002 2.9299682679141317e-003
      -1.3274712690025794e-002 5.5494724227384502e-002
      -2.2697589624072838e-003 2.9325327412555485e-002
      -1.3869283328670028e-002 2.9982248365266525e-002
      -1.8077411908252686e-002 -3.3296247839571455e-002
      3.7133507365914038e-002 2.6193387174110070e-003
      5.2230159263130941e-003 1.1319092510042742e-002
      -2.3042681773305148e-002 -1.6403593805696056e-003
      4.8337778510223937e-002 1.6801014547114206e+000
      -1.5481848686184978e-002 4.5172891077937455e-002
      -3.2186407682268423e-002 1.9887223897909001e-003
      8.4573219629124161e-002 5.9986620159519929e-002
      1.9113869877998454e-002 -8.1924526083965565e-003
      1.7367979201514696e-002 6.6237251449342088e-002
      4.9173665582154837e-003 5.6521142079029980e-002
      6.2343767756283322e-003 -1.3106933228524114e-003
      4.7681137691476340e-002 1.2725002702665894e-001
      -7.0972438831540339e-003 7.0330485681292396e-002
      -9.6635265965898012e-002 5.7819214718597836e-003
      9.9731499946175643e-003 -5.5530086628122867e-003
      -2.7934009364472743e-002 -1.0740619207801017e-001
      -2.0788709797599978e-002 5.1421489119607089e-002
      -1.3012417477032659e-001 5.3336613359227097e-002
      3.5019651261792822e-002 2.1805340975388370e-002
      2.9572785470347720e-002 -6.5268168599688814e-002
      6.4458790612101260e-002 2.2472271759535031e-002
      1.6213843248038456e-002 -2.1550617069829348e-002
      -3.9742848910588713e-002 -2.7507265183510897e-003
      2.5097722736956752e-002 -5.7297855651101973e-002
      -4.7017742913644807e-002 6.6689006473828250e-002
      3.9403729443173864e-002 4.1297423965906993e-002
      -4.5416244889239725e-002 5.7561078341667447e-004
      -8.3241988926928911e-002 3.7134643673288746e-002
      1.1044780861192430e-002 2.6462700245024697e-002
      2.6677434348034500e-002 -6.6111032817715770e-002
      -7.1868346449168521e-002 3.9393593761117444e-002
      -2.1127175020328015e-002 -5.1701525670564165e-002
      9.3960810845750448e-002 -9.2475586143672805e-003
      7.7340005263549115e-003 1.7888967433936007e-002
      8.9550824475864904e-002 -2.4846848191520943e-002
      -1.7628426224721553e-002 5.7364411057386509e-002
      1.9757309037798744e-002 -4.1794403579449073e-002
      -6.3350963352804573e-002 -4.2057857071755959e-002
      -2.2399744055346772e-002 1.1516839612614047e-001
      1.7461051758476256e+000 -1.7914135175823378e-002
      4.8798384611768580e-002 -3.6919486287238200e-002
      1.2524323088189489e-002 7.9158390657494263e-002
      6.4145421681935280e-002 2.1335586103854377e-002
      2.1107509460616151e-003 1.1754232237831471e-002
      6.3458515156546852e-002 1.1952952405018988e-002
      4.7145692855025595e-002 -3.4283161217098629e-003
      3.4879007410570056e-003 4.9208473636669380e-002
      1.3551758300869751e-001 -1.2072796167536624e-002
      7.2218120407545147e-002 -9.0750697268738287e-002
      -1.7795349027618207e-003 1.3695316449735442e-002
      -1.0446062957845890e-002 -2.0117905653196426e-002
      -1.1200577119536026e-001 -1.7663415658205051e-002
      5.7943756115705951e-002 -1.3617726275239850e-001
      5.8935495015214084e-002 2.4726151929659813e-002
      1.5684158023265598e-002 2.3267482379180034e-002
      -5.8959903986943923e-002 6.2893411106815900e-002
      3.1042774247624895e-002 1.1528239476637578e-002
      -5.2875571745612734e-002 -5.3314402482494562e-002
      -5.3321087846069674e-003 2.0727831440976532e-002
      -5.1024532065059552e-002 -4.8857267820442536e-002
      6.6038315829195796e-002 2.5790041479796327e-002
      3.7974504870069335e-002 -4.0698850495057996e-002
      2.8622909204541677e-003 -8.9295979365279526e-002
      3.3504836174012932e-002 -1.9820484608006851e-003
      -1.0896628877373237e-002 1.1535217115010902e-002
      -6.5803527361072436e-002 -4.9319983757959616e-002
      4.1818386466996801e-002 -3.1991043488009026e-002
      -4.7754979887012952e-002 8.7431847980389568e-002
      -8.9859369606973966e-003 1.0656631454032748e-003
      2.2070143815776953e-002 9.4199635120158179e-002
      -1.4625312067111861e-002 -6.9391929145353748e-003
      6.2129152712493391e-002 1.9579041876754685e-002
      -5.3193117891482782e-002 -4.7368546499389416e-002
      -5.8486907228958156e-002 -1.5664239696108768e-002
      1.1280353911769687e-001 1.8339395088534576e+000
      1.2878401045282281e-002 4.7256860151295779e-002
      -3.9059977384039490e-002 6.4721373146059302e-002
      -1.5028310031199322e-002 5.9375502578451013e-002
      1.2719538077703997e-002 -5.6525194105533069e-002
      3.0192389608661590e-002 3.0671500653498433e-002
      -5.7613521126290319e-003 4.5217287019345014e-002
      -3.0575576806387804e-002 2.1852643083751802e-002
      -1.7752838722516859e-003 9.7377632719667043e-003
      6.2931068898524761e-002 5.2721201885973602e-002
      -9.7428176622855731e-002 2.8873068523486284e-002
      3.1418930023169214e-002 -2.2207769577930546e-002
      4.6761389837168543e-003 -3.5963040504295288e-002
      1.8239854219358035e-002 9.1549166576812020e-003
      -8.5590773320723984e-002 3.7855383036955341e-002
      -4.4250191395421176e-002 8.2097068338615187e-003
      -3.7261057237714605e-002 -4.4205787568935270e-002
      7.8667857059947333e-002 2.0605703389317824e-002
      -7.8556802995096292e-002 7.6763085932711724e-003
      1.0882362721056861e-002 2.6990270065829693e-002
      -3.9221581793251012e-002 -9.2924155179039229e-003
      4.0036637959967362e-002 5.1609158068437938e-002
      1.3906823302398657e-002 9.4826518407350267e-003
      -9.6487712974355159e-003 -1.7495547862300214e-002
      -5.8366504319500849e-002 3.1087040219704088e-002
      1.6195742297253105e-003 4.2233337330074370e-003
      -2.7103392844668433e-002 -3.0576049437617464e-002
      2.9887818089050611e-002 -6.5374776849596835e-003
      6.6574149372953468e-003 1.8668078967606163e-002
      7.2790709633364592e-002 -1.1277544863193979e-002
      5.8171771320042443e-004 -2.0515627782424831e-002
      3.8258567042039046e-002 3.6068269427395484e-003
      -5.5301614096476735e-002 4.4378645295641082e-002
      4.2332276545123957e-003 -1.5855544338510656e-002
      2.3784239834836584e-002 -2.3874155405668611e-002
      -2.0724658709800923e-002 2.8150836634569902e-002
      2.4817814907169726e+000 1.6836819150629956e-002
      5.2347951602231164e-003 -1.0578241824556123e-002
      4.1229740202345641e-002 4.2990979008721859e-003
      7.9407676941737303e-003 5.8559238017483570e-002
      1.3494534988800056e-002 -1.5285711442275224e-002
      -1.7122863383820464e-002 -3.0170784327255118e-002
      6.5925965260093368e-003 8.7046443948044850e-004
      -1.5951480338789140e-002 7.4478151966280798e-002
      -7.1793442603802216e-002 4.1867863477815154e-002
      1.2241351092509647e-001 -9.2451098103082191e-002
      3.4011772120520513e-002 2.4303662217986140e-002
      -7.4589922283846657e-002 4.8573141036502766e-002
      5.3090311703686667e-003 -3.1454325074269096e-002
      -5.7841072383496258e-003 -8.7540885110288888e-002
      3.3234023294246057e-003 -3.8724057328539473e-002
      -1.7821584763855357e-005 -6.2876179992967213e-002
      -2.5099281198402337e-002 -7.8785605461298425e-003
      2.4585382001392084e-002 -1.1336598713251243e-001
      -3.8241928470213030e-002 -1.9448207385909421e-002
      3.0181656550992267e-002 5.9376868596373866e-003
      2.8745298832104353e-002 3.4508361864784502e-002
      4.9554595435014580e-002 9.0072810200440667e-002
      -1.6528633338757755e-002 2.2536993609717903e-002
      -3.3261076340740277e-002 -3.7720416634762582e-002
      2.1393627227020040e-002 9.0166102536997209e-002
      7.6481889433169256e-003 4.9785597500832577e-004
      -5.8624572289831117e-002 1.7192013441762306e-002
      1.9259452172227864e-002 8.1438796647328882e-003
      -1.4236292088140964e-002 2.9338333854274010e-002
      -1.9672670118855696e-002 -7.8183196258176380e-003
      -1.0308978014303151e-002 -3.6021762941026124e-002
      -1.7168469096147384e-002 -9.9897625481434318e-004
      5.4926106550762053e-003 8.7736594430253886e-003
      -6.7257866938565019e-003 5.8143934689879745e-002
      4.0093944941761691e-003 -2.6431761879272406e-002
      2.0478587549550478e-002 2.5146827774559588e+000
      5.7476879730725215e-003 2.1557394884555280e-002
      3.8517771409373451e-002 -1.0969256064606265e-002
      2.6419560930309414e-003 2.3093101119589270e-002
      5.1670879573122393e-002 -2.0113122550259797e-002
      -3.1014923976658074e-002 1.2092187396562808e-002
      -3.8125307517403902e-002 3.4887271699606565e-002
      3.6387178294457923e-002 -2.7521209574532181e-003
      6.2849821370240158e-002 -7.4673873694365220e-002
      9.9509475418227841e-002 1.3832316349610407e-001
      -9.2050401825528649e-002 3.3964317197576407e-002
      5.1797690044050312e-002 -8.9533571605783804e-002
      5.1211002945292745e-002 3.0992261978670006e-002
      -3.7854867919542963e-002 2.9724886974697981e-002
      -1.0329056867513595e-001 2.7067617077814105e-002
      -4.6977856487218209e-002 -6.6527576238527165e-003
      -7.4110086431068742e-002 7.8687138146659660e-003
      -1.2198123127672055e-002 6.1352385964799458e-002
      -8.8173182659752103e-002 -5.7381922252362216e-003
      -1.5686744422282093e-003 3.2844376366075161e-003
      1.1045200795712425e-002 6.3190063309748676e-002
      2.0264057808572700e-002 1.4132773866907694e-002
      9.8909525957861066e-002 -2.6834891288946377e-002
      -9.2124819169974361e-003 -3.0910060767682306e-002
      -4.9900740919518752e-002 -5.7482159135527960e-003
      1.0317928237283809e-001 -2.3175620390300700e-003
      1.6375685622562631e-002 -3.8563952914469839e-002
      1.7009909357275632e-003 -7.7982429979815094e-003
      1.3198577629246868e-002 -5.7163550538797424e-002
      4.1668271630785556e-002 -2.6107281034800412e-002
      7.3028147395509625e-003 -1.5377639449469863e-002
      -8.7045229880269616e-003 -5.3636180438650025e-002
      1.0041346890243571e-002 1.9594738125301846e-002
      -8.4821404098929043e-004 -2.2534861555168730e-002
      1.8240489245567176e-002 4.6040534657670754e-003
      1.9599294662813557e-002 5.0528254737760667e-002
      2.4291379289287658e+000 3.4244048977758512e-002
      7.5172567363934488e-003 1.1497971361234678e-001
      -1.0850332364161518e-002 -1.6128086136158810e-002
      2.0500286302391549e-002 3.4309748889905671e-002
      -4.1921711204283792e-002 -3.2245256585260076e-002
      1.1880986841761884e-002 -4.3074904667439205e-002
      6.5763586119552506e-002 6.0629380832830169e-002
      -1.1008547838996012e-002 4.0091510601210356e-002
      -6.4267270264514384e-002 1.8575317756354806e-001
      1.8068056128344062e-001 -1.2995363744120561e-001
      3.6203193051712962e-002 8.4953470227788014e-002
      -9.0600900337549140e-002 -3.2862474348281964e-003
      7.6828202974585424e-002 -7.4573507035525163e-002
      2.4244274419705791e-002 -1.2940374070962862e-001
      5.2241273210382820e-002 -6.9187600637486787e-002
      -2.8591606598072850e-002 -1.1510380010416729e-001
      6.4991806101818483e-002 1.1423970414015093e-002
      2.2781970554848239e-002 -9.7169933159008848e-002
      7.0135955830765873e-002 3.9736275666426187e-002
      -2.5335636197362208e-002 1.0672271220828380e-002
      3.2379437973699098e-002 2.5486667880541956e-002
      -3.4485362457637621e-002 7.6972861971460152e-002
      -7.3313352927060288e-002 4.8101197028734451e-003
      -2.6298770838996195e-002 -1.3498098666056613e-002
      -2.6521783431312767e-002 1.2086005813029756e-001
      -2.8296249568165299e-002 7.0470956021716172e-002
      -4.9299639583793325e-002 1.1762289625506467e-003
      -5.6880363146507803e-004 4.7588527568136883e-002
      -6.9569091201136093e-002 6.3634646878775306e-002
      -4.6668862844975893e-002 -3.8549024553359360e-002
      3.2111363640545711e-002 -8.7046829832526887e-002
      -1.8538055007522959e-002 1.5694220047026669e-002
      9.4865368585222987e-002 -1.0784118525087193e-002
      3.2974145247505873e-002 2.6825921660706721e-002
      -8.3347296560759756e-003 -2.8800078595257645e-002
      1.1566659797520919e-001 2.4989653508193248e+000
      -4.6524226100504917e-003 5.7903058864021577e-002
      4.6086408301452914e-002 5.0844363690313144e-002
      5.6678230042254828e-002 -6.6717223020930569e-002
      9.6659573622865994e-003 -3.9093231382267626e-002
      3.4534605446019198e-003 -2.6572516616621640e-002
      -2.0639283210925451e-004 4.6454794511051070e-002
      6.9004321529180929e-002 -5.4770446793808193e-003
      9.1347081382355436e-002 8.0034652438384594e-003
      1.0267891625563796e-002 1.3500231327736689e-001
      -1.0287489042328359e-001 3.1915875950430848e-002
      1.1441774465328067e-001 -1.3895608669056009e-001
      -4.1078860706788699e-002 -1.9733859275107749e-002
      -4.4775227131694788e-002 -6.0741233889958945e-002
      -1.0808241473631972e-001 6.6400164988559707e-003
      -7.6837990276548737e-002 3.4646186967787262e-002
      -6.5798656284257517e-002 3.1454505124134682e-002
      5.1724357609569505e-002 2.2164192575777897e-002
      -9.6267042089068680e-002 1.3510223551203349e-002
      6.5011845505319492e-003 4.4446456162614022e-002
      -2.1213268412165545e-003 3.0418598318535335e-002
      -2.3763207420989883e-002 8.9212407946385013e-003
      -3.2809745316792552e-002 -2.6180798506104122e-002
      -1.2230509979825073e-001 2.6326115240413658e-003
      -4.6353855102330789e-002 2.0803325245942989e-002
      3.7431740688893135e-002 -1.4827776392633702e-002
      8.3425940158629738e-002 -2.0504986696958771e-002
      5.0873933697498673e-002 2.7711473935041569e-002
      2.1645776191400602e-002 -5.2290451167752924e-002
      -3.1259597853922072e-002 -2.1882193000295588e-002
      4.4195873981738916e-002 -2.3210519337344894e-002
      -1.2514178103637019e-001 -2.8368261524688090e-002
      -1.1334506508418439e-002 3.7913345957274393e-002
      -1.3990428004252115e-002 6.5992563938023418e-003
      -3.5670153021323078e-002 5.1343379895116489e-002
      9.6612196238494725e-004 1.9103596815873280e-003
      3.3230684126119368e+000 -5.5768271774862009e-002
      7.7097600857682469e-002 6.1113880124747132e-002
      2.2174571662065257e-002 -3.3405982467520662e-002
      -5.8421215211843160e-002 -9.5306771079797636e-003
      -4.8391649827202579e-002 5.2117649411069347e-002
      8.8434049095237263e-003 -6.8625051623829397e-002
      -5.4992477412524443e-002 4.4275429263973771e-002
      1.3917906688653279e-002 2.9686897808066364e-002
      2.4431816915672352e-002 1.2227410617006103e-001
      1.1968437649888945e-001 -1.9614094083774958e-002
      -4.3022249394252338e-002 3.1428423329307155e-002
      -7.2053264778371914e-002 1.3155009211863180e-003
      1.1956690971616495e-001 -1.5239383140765553e-001
      -7.2534400034926672e-002 -1.5501583197552438e-001
      5.1401935323464175e-002 -4.6832387397888468e-002
      2.6887802152231990e-002 -9.0633771580406544e-003
      1.9147301789646361e-002 8.0299668972629648e-002
      -3.5437983674736627e-002 -1.6544107119734552e-001
      4.8161798272692430e-002 5.5165981045134760e-002
      -3.5152811226586915e-002 1.4147740136627694e-002
      -7.9507930173311533e-003 -4.1668080290279505e-002
      1.2129756431795933e-002 -2.6331021462634031e-002
      -6.8169345570939940e-002 -1.3052830412523103e-001
      5.0387118497736610e-002 -7.8869704345814681e-003
      -3.9275235255901327e-002 5.0038359516061351e-002
      -1.4987977912999537e-001 8.7085221119862749e-002
      6.1125184382697876e-003 6.5689930182163112e-002
      3.9975864121977026e-002 -2.4227264716702789e-002
      -2.2742392144567091e-002 1.8245449613845145e-002
      -2.5745101442795817e-002 -1.9468868188244573e-002
      -2.7309769065886603e-002 -9.5675895321649981e-002
      8.2264427106759491e-003 1.1714758235856165e-002
      4.3463478630586493e-002 3.4567010386092230e-002
      -2.2764377453250478e-002 -3.5482264619188131e-002
      5.0024173439566909e-002 5.3528502156690597e-002
      9.6084735902056545e-002 2.7256553582320038e+000
      -6.1735104937696225e-002 5.7984340169736921e-002
      -1.8595033229563341e-002 -5.6248944548978039e-002
      -3.5183862683303472e-003 -1.4186374917259520e-001
      -2.8560948083914441e-003 -7.6942029637686038e-002
      6.9583676830450414e-002 1.5990267032542586e-002
      -3.9466839510974218e-002 -1.8359506690447677e-001
      -2.0313278841901535e-002 -8.1879160731664957e-002
      4.1527825631276438e-002 5.6306386309898301e-002
      2.0036729033349479e-002 -1.4469063436703962e-003
      -5.7603398731573406e-002 -1.7507638907806683e-002
      3.4100263612801218e-002 -1.8227425884832435e-002
      -3.6706709981240017e-002 8.5361704864510793e-002
      -6.1003991092524169e-002 -1.2971200904597900e-002
      -6.1655478305029036e-002 4.3793367193674597e-002
      9.3055912587606412e-002 -6.2578762599225110e-002
      -1.1673155107839688e-002 -7.8452705378590313e-003
      -4.6653717460903493e-002 -2.4030970639506034e-003
      -1.9733222609417154e-002 3.7332225391491211e-002
      1.5963759136172553e-002 -1.4214238657201618e-002
      -8.4567312996612479e-002 -7.0273279642606587e-002
      1.7490187638854911e-002 -4.2780890434532728e-003
      -1.1867781201688477e-001 2.6982687243106016e-002
      -5.8767543108105676e-002 1.7553102053280641e-002
      1.6470959473993477e-002 3.6256546260666475e-002
      -6.6530741890562781e-002 -1.3524128527754628e-001
      -4.2176130356437573e-002 1.9543390951076028e-002
      2.0087770827576564e-002 -2.4979151052392370e-002
      3.4555355708109220e-003 -2.3172677137411973e-002
      3.1598499564512848e-002 -1.2686505386301400e-002
      -5.8859035149183073e-002 -4.9757987377261607e-002
      2.0482723669612291e-002 2.0817019803186511e-004
      2.6517140296678940e-002 -1.0167200904510096e-001
      4.7341758836196360e-003 -3.9967749233799719e-002
      1.7832766657605772e-002 1.4107131877733322e-002
      4.2135100527501863e-003 -8.5600884698882416e-003
      2.2035594272592789e+000 -3.7297563333998314e-002
      9.1571507969857344e-002 -9.4189051198738299e-002
      -5.5156585440585479e-002 -2.3415040948707857e-002
      -1.0966764873270159e-001 -2.7004201181488201e-002
      -4.4781052776054632e-002 4.2381039462586471e-002
      6.6095679711597743e-002 -4.5530600136076467e-002
      -1.6461944746018123e-001 -1.0373660944640622e-001
      -2.4602803590514727e-002 2.5439939952002125e-002
      3.2288697950275752e-002 -1.1773090192308792e-001
      -4.3528426063571643e-002 2.9479197871965325e-002
      -4.9478204245277185e-002 -2.3930707707540664e-002
      -2.0394898624369769e-002 -7.2425315369013726e-002
      6.6904179460103338e-002 6.9526375908258553e-002
      -7.1210107854799282e-002 -1.1652603491920106e-002
      8.5493130782668555e-002 8.5075583487136605e-002
      -2.4447763404681272e-002 2.1805846839838158e-002
      -3.6868099132371539e-002 -3.8623283642889507e-002
      3.0252235307711389e-003 1.2141610233062296e-001
      9.7203260455456797e-003 4.1333266428790170e-002
      3.5428171903752255e-002 -5.4652405641926853e-002
      -1.8345821307830499e-002 3.2577821501629634e-002
      -8.8933649350796826e-002 -2.0641713414280716e-001
      7.1449415457728203e-003 -6.9019441376291471e-002
      4.9479801591685718e-002 -8.5231688168717051e-003
      -4.0855270298756395e-003 -8.2937896731985247e-002
      -1.5811011143343676e-001 -1.3334670639533519e-001
      9.8790044614305336e-002 9.9249972910899736e-002
      -2.6979890844942383e-002 3.2397280930240226e-002
      1.6172660302039000e-002 -5.4539104693986304e-003
      1.8352903719919763e-002 -8.4858879607174309e-002
      5.4248636768086701e-003 5.1674054062348831e-002
      3.2172260952944752e-002 -8.5825147543148364e-002
      -8.5002165473576641e-002 4.1648654785797525e-002
      -1.2616937080429802e-001 5.4003935717695406e-002
      6.5694440319319619e-002 -5.8120939336416919e-002
      -4.3652518041159084e-002 1.5170011352484769e+000
      -5.5718018475962340e-004 4.7732426639867466e-002
      2.5584580413108869e-002 3.9223055390587847e-003
      -1.4792655915488246e-002 -1.7158476165751013e-002
      -2.6397827439119087e-002 -6.5855796170027903e-002
      -5.7164619779414262e-002 -1.0912640438212648e-002
      5.1939172575158010e-002 4.1994116582302010e-002
      2.9788449363549588e-002 2.5984473465177519e-002
      4.7008244971188967e-002 -9.6599948557843027e-003
      -5.7535599601970577e-002 -2.4240623519827687e-002
      8.1894734678702383e-002 -7.6154535094147130e-002
      -5.0659166230075187e-002 -3.4236643927054639e-002
      2.7753515080057301e-002 5.9074260358764836e-003
      -1.5664297567216298e-003 8.5746233145375726e-004
      7.5047682869889241e-003 3.4922619284308218e-003
      3.5146999028736775e-002 2.8109568217576378e-002
      2.4717949021396221e-002 1.9268451182170510e-002
      1.5167368155631414e-003 4.5965004198059031e-002
      1.2004734990735861e-003 3.9610528468825767e-003
      -4.8200195175406302e-003 7.5987616658391077e-003
      1.0576967827173107e-002 4.7970279395627445e-002
      9.3814731282581779e-003 3.2937496580499659e-002
      -3.8579355648744325e-002 1.3933719990636804e-002
      -4.5208283677788709e-002 1.6344734175886860e-002
      -2.2483602209623060e-002 1.0991497914013904e-002
      1.6576902099085591e-002 -2.1133307889644650e-002
      3.5242703569814821e-002 -5.4143269387346558e-002
      1.2799861979999813e-002 -5.2200255041684645e-003
      -5.8006828837145856e-002 -1.5990162072052266e-002
      -4.8220490375379989e-002 -3.0844803218231843e-002
      -1.9419207096949283e-002 2.4880515073599500e-002
      -2.2361379703807398e-002 -8.2436383018293421e-003
      8.5574417665529191e-003 -8.7737747638145912e-003
      3.5825269261758226e-002 -3.4924185375433049e-002
      2.0048568964252066e-002 9.6950347148650238e-006
      2.8048630787143237e-002 -6.6293661427050316e-002
      3.8387583934494187e+000 -3.0969732271188981e-002
      -1.9765683980408344e-003 4.0272520283429564e-002
      -7.1803317324177413e-002 -1.1927492997358265e-001
      5.0470038032207065e-002 -8.6766764771131905e-003
      -9.4036825364779378e-002 -6.8645350386591392e-002
      3.5279380095160850e-002 5.8865493699711925e-002
      -1.4032969296804353e-003 -3.7820930395925323e-002
      -1.9023290865815955e-002 5.2580192691035268e-002
      -1.7013361304109294e-002 -3.6869200451967982e-002
      -1.2728513707698330e-001 1.2488549982769800e-001
      -8.2452587483262979e-002 -6.7263653013258554e-002
      2.9681956012400524e-002 6.6465209014269486e-002
      -2.4791263786362056e-002 2.5546665072614525e-002
      3.5878045722055461e-002 1.7923033420482362e-002
      -2.8293160712228548e-002 -2.9871754908917244e-002
      3.6693223455939041e-002 1.0901456697402070e-001
      -2.5598186748847576e-002 -3.3301337366600896e-002
      5.8091022100808853e-002 1.8001840004496639e-001
      -2.5344654914307336e-002 -1.4101659335226641e-002
      -3.7230687194695300e-002 6.6549765991694668e-002
      7.0417008764286623e-002 -7.8635966030653134e-003
      9.6465667126291482e-002 4.3395769380253822e-002
      3.0537592106111299e-002 5.7363523992460475e-002
      2.7942620970386859e-002 5.6062150000701205e-003
      -4.4979315070531746e-002 2.9462428253750936e-002
      2.4400543946391122e-002 -4.0028681013344038e-002
      -6.8582438229958104e-002 3.3575301437183763e-002
      2.1796856413512703e-002 -5.1818792636393794e-002
      -3.7244483712043662e-002 -5.8368827049363324e-002
      6.9141746371844739e-002 -2.8447500940702228e-002
      2.1583373955153411e-002 8.5793142030812959e-003
      -2.7686040401905039e-002 -3.9207865517741740e-002
      -4.8727842079820879e-002 2.8177584996387769e-002
      -1.3729379461411145e-001 2.2258524800840014e-002
      1.6840083283839864e-002 -1.9969434277542983e-002
      -4.4522686589752291e-003 -9.7093442793284424e-001
      1.7593986257276398e-001 -1.2533981539228398e-001
      -1.4766859666986537e-001 1.6670539069005424e-002
      5.4066320232023964e-002 9.8633312065270262e-002
      6.0903979579404318e-003 7.2229916822246108e-003
      -3.8882304303582832e-002 -1.7033327660877137e-001
      4.6384756494218943e-002 -1.0751725382262053e-001
      -2.8937429233908063e-001 -8.9893942993927320e-002
      -2.5797367582128146e-002 1.6500134112340414e-002
      -5.2392608795934403e-001 -4.3413143626289113e-001
      6.2558591432869390e-002 1.4862987900355024e-002
      1.9477569897200592e-001 -1.0143031091437529e-001
      -1.4207175747825138e-001 -3.2817755949039973e-001
      2.0704036697375450e-001 1.8046828626950260e-002
      4.3708346918157120e-001 -1.3769027852593704e-002
      -8.4308027631302448e-002 -2.5401793052904336e-002
      1.0335552492944682e-001 -1.9325671162405886e-001
      -1.2180828389473571e-001 2.1046182774183162e-002
      5.9538608508219182e-001 -2.1377303850407625e-001
      -3.2590646093305464e-001 2.1687101363115663e-001
      9.9152256598814218e-003 1.0359958567128678e-001
      -7.2750353445486304e-002 3.6871276296401932e-002
      -4.1338018959452529e-002 1.0432991216844177e-001
      -5.7060897252434108e-002 2.4503473049688574e-002
      -7.7282182946143724e-002 -1.5671796038654002e-002
      -2.6316214497569240e-001 1.0198189980271609e-001
      -2.5455475827157664e-001 1.2503651961141438e-001
      8.0401364859336005e-003 -4.2433713632032471e-003
      -1.5654937010213449e-002 1.9578997558877353e-001
      -2.7219560156565831e-001 3.8084941371556297e-002
      -2.7161900823777774e-002 3.8083906295419769e-004
      1.4413394753629175e-001 1.9546410108593312e-001
      -2.7618977594305698e-002 -2.5052143072871752e-001
      -3.6637835975478501e-003 -1.5943779208377595e-001
      4.7192343398783566e-002 1.5335980704257973e-001
      -1.1782666615792579e-001 -2.0278991108422978e-001
      8.2756746164194572e-001 1.4797625673748765e-001
      -1.8974731755346133e-001 -8.5162679816538481e-002
      -3.0193700026452702e-002 1.4392455493887249e-002
      4.7654185922571750e-002 1.4028833236267108e-002
      8.3241103275479345e-002 1.4204494950975772e-002
      -1.0523650277970396e-001 4.6542087548254743e-002
      -1.2308678326102426e-001 -1.7552459528467226e-001
      -1.4782152372639626e-001 -8.0111807882255776e-002
      -3.4985810154170086e-002 -2.7606954282038637e-001
      -2.1772141257649413e-001 1.9742995667696970e-002
      -1.7290032269510369e-002 1.4721573149117753e-001
      -8.3792093076841670e-002 -1.3925215146014108e-001
      -1.4339537267390806e-001 1.1335669439578076e-001
      5.0919870650982219e-002 2.9432276943138908e-001
      -2.9023263144877780e-003 -4.2254156659052751e-003
      2.8425625542549599e-003 3.3239665389076994e-002
      -1.5911301797476335e-001 -1.0131961562560675e-001
      1.2932367476851057e-002 4.1631860622167505e-001
      -9.8772227121715891e-002 -2.0524501771086756e-001
      1.1002103764492484e-001 1.9814105952185770e-002
      7.2411308207749964e-002 -1.4034933732514829e-002
      2.8287614215137438e-002 1.5148542258126846e-002
      8.5100785344738680e-002 -4.5978073020185500e-002
      1.6981267382824461e-002 -7.1971470063775411e-002
      2.1946822367651032e-002 -1.6860530901383661e-001
      8.9453721187993759e-002 -9.8230314874757960e-002
      9.2652798211429452e-002 -3.1952934880709133e-002
      -3.8420833976196868e-002 -5.0093377194360876e-002
      1.4924425652735399e-001 -2.1391809070716697e-001
      -1.5033927991192617e-003 8.5613024530859810e-002
      3.8892364967715393e-002 8.1210128280344601e-002
      1.4248281203109864e-001 -5.7353033089432241e-003
      -1.8219551109258930e-001 -1.3564955621081913e-002
      -1.0806117966038520e-001 2.6419363176034022e-002
      4.0297081817070195e-002 -8.0818914565050290e-004
      -1.4723009597624678e-001 1.1881970841678671e+000
      7.8198263079403599e-002 -9.4773744466913792e-002
      5.5470100289206035e-002 -6.3331255648393217e-002
      -2.9901084805992469e-002 8.1939748384725775e-003
      -4.3185423457687881e-002 6.5522999996182121e-002
      -4.0868288589172262e-002 -1.2017972902290855e-002
      8.3659705419529051e-002 -1.3818766506501642e-001
      -1.5082746562690710e-001 -8.2677138761955440e-002
      -6.0007050590656925e-002 -2.5108103468925089e-002
      -9.8309021100808719e-002 -8.1978862673197345e-002
      8.6337387823558404e-002 -7.9772816869585192e-002
      1.9217827110742394e-002 -2.8837112904137957e-002
      -2.6052371903917872e-002 -1.8273301760258230e-002
      5.5866707125705593e-002 1.1378698614544332e-001
      9.3056360217667888e-002 -4.7306644404800147e-002
      9.0746315087835558e-005 5.3200295064701038e-002
      2.6354119737210288e-002 -1.0570770923540639e-001
      -8.8857477451385648e-003 9.0466368184846432e-003
      1.5189177068862333e-001 1.4711207959434652e-002
      -2.2462325419768980e-001 5.2199510260688267e-002
      4.5943443923040742e-002 5.9564740294173996e-002
      4.3727881979275601e-002 2.0527985016417127e-002
      -5.8769164923589655e-002 1.0072425010665821e-001
      4.7570143279565956e-002 8.7396148885280064e-002
      -4.9117646730385767e-002 2.9819714492915424e-002
      -8.1211130009230387e-002 -1.2462647578923704e-003
      -4.8140117579803313e-002 6.8226836181872322e-002
      -1.2447701055048269e-001 -4.2892554480085367e-002
      -1.2531725635171095e-001 1.0393159762103027e-001
      -1.1812787074826298e-001 -8.0506553484305118e-002
      1.0335354758040796e-001 6.1248670703291486e-002
      1.1197158116423266e-003 1.9181728597312056e-001
      -1.3304714294024000e-002 -7.9294841270553071e-002
      -3.4735230314784913e-003 -1.8806163520698665e-001
      -2.0747944813944728e-002 -5.7465541331249391e-002
      1.5059257650115898e-002 -2.6868570481681082e-002
      9.2509771459230650e-001 9.5643300910177059e-002
      -1.3672606792715120e-001 1.6084123184655677e-001
      -6.7386755244440086e-002 7.7507344961516400e-002
      4.5846226299979545e-002 -2.1666619353076988e-003
      1.9693312440379633e-002 1.7648145871349139e-002
      -5.1268339726854961e-002 -4.3591315184144360e-003
      1.6095082948125207e-002 -5.7407795164483966e-002
      -4.9863233143201090e-002 -1.1963870465430964e-002
      -1.2362696865561110e-001 -5.8357644297128545e-004
      -3.8777706732369625e-002 -6.5485835176621095e-003
      -1.3633249085407001e-002 1.0045453485295000e-001
      -1.7773896374885436e-002 6.2064050935843572e-003
      -1.8054977914901450e-002 5.4518940799576310e-002
      2.1570011855668959e-002 7.4128276671353271e-002
      -5.6053126708935440e-002 -1.9356635524389650e-002
      -2.9457280796327555e-002 -2.0518271907181602e-002
      -1.2457887344735517e-003 -3.1424285464574521e-002
      3.3237212117477127e-002 -3.7722978179185376e-003
      1.8733291688109572e-002 -1.2192168100318193e-001
      1.8710170023476331e-003 2.6346656027653664e-002
      1.0530519809424221e-001 9.0185988596019090e-002
      -4.5724878307226838e-002 -1.1487237867986669e-002
      -3.3822797944406627e-003 8.3482361586942430e-002
      3.3210648494853064e-002 -1.4228174554615109e-002
      -6.5309543468914613e-002 4.2266748932622784e-002
      1.0949572679961153e-001 4.5332940069350028e-002
      -3.2569032105566449e-002 -1.2962448372023536e-001
      -2.7439753221020900e-002 -2.6176422560997285e-002
      -9.0145995069253176e-003 -9.5166524158430257e-002
      -6.9354541251237883e-002 1.1209733050546197e-001
      1.0890237869406015e-001 -9.7253933606697901e-002
      4.6159551875641303e-002 1.0024133077566297e-001
      9.3647031975442385e-002 -5.6513054493501524e-002
      -7.1201150757435175e-002 -2.6130660493706676e-002
      -7.5694720869465798e-002 5.9419506444980529e-002
      3.8030748442394326e-002 1.0033132957739057e+000
      9.3053389477225270e-003 -7.7191108905131756e-002
      1.1157653101457493e-001 5.6785156653179911e-003
      3.3537808031609870e-002 -1.1093482184710976e-002
      -2.2790683094183462e-002 1.1732731748765737e-002
      1.5931551610635846e-002 -2.3066201237906699e-002
      -3.3180143317014131e-003 -1.1741096437427251e-003
      -3.8474220931403846e-002 -4.3765720689304725e-002
      6.1066129362546608e-002 -9.3968390436264412e-002
      7.6403027544457172e-002 2.5718098220351017e-002
      -6.3616756825970799e-005 -7.8240898154556589e-003
      3.1605803685524035e-002 -6.0182525944848179e-002
      8.7008340811910737e-002 -4.0705214553555472e-003
      -5.8097518126351042e-002 -5.9749161823340223e-003
      7.0591514231437030e-002 -2.7712730868498570e-002
      -4.5113339660682934e-002 -2.8563471022547266e-002
      -3.3456391777934233e-002 2.3200456090522001e-002
      -5.6293809269861383e-002 4.8082525052800550e-002
      -2.8038793047948981e-002 8.3627900846675679e-002
      -5.5838808655687522e-002 8.3965535560125027e-003
      4.5466774119282162e-003 4.9766475092244147e-002
      4.2565991816816563e-002 -3.8655540223052148e-002
      9.4674813817738138e-003 2.7164101275653524e-002
      -2.4598039331068192e-002 4.8555200067358417e-002
      -2.1861849126039893e-002 3.5278765924575600e-002
      6.5374721507813052e-002 2.7917238964894689e-002
      4.3875786866852028e-002 -3.6990849730311963e-002
      7.8159712817406062e-003 3.2639228662012271e-002
      -3.3853868320470701e-002 3.7873231619166531e-002
      2.7031720909674952e-002 -3.1098285493780329e-002
      4.7739388750692264e-003 6.0480494597283324e-003
      -6.9034126715422195e-002 2.5642114979181202e-002
      5.6965531288460429e-002 -1.6573591918148303e-003
      2.8307106156420705e-002 -9.9821850237317891e-002
      -5.8036683060513905e-002 6.1041014343501563e-003
      -6.5911039775724281e-002 6.6968694886517882e-002
      7.4802533421068118e-001 2.9233340700209741e-002
      -1.2390582853088039e-001 1.4685465808786879e-001
      4.3940421031883501e-003 2.7466212859714737e-004
      9.8990016942503700e-002 2.3782634749016155e-002
      1.1331726025400420e-002 4.6670869111820924e-002
      -8.0008213829101643e-002 -7.3618867812684244e-002
      1.7365671408422021e-002 3.0020929008210032e-002
      -2.4424555298658689e-002 1.3092290794613992e-001
      -1.5474571318283994e-001 7.0209973604185794e-002
      1.0029789846030172e-001 -6.7370358167376909e-002
      -1.0918222756800005e-002 1.7427162664940359e-002
      -1.0033524259562336e-001 1.1389571162900995e-001
      -6.2837115207837538e-002 4.1166021104991598e-003
      9.3831219337129849e-003 8.5253585132975804e-002
      5.9248058387837831e-002 -1.0905388741634503e-001
      -9.4992553846426117e-002 -7.2917697474152374e-002
      1.4409972740808160e-002 -3.5743575211903592e-002
      9.2047051767727983e-002 -7.4640526011685263e-002
      7.6527238107551895e-002 -1.3631020582074441e-002
      -1.9883779117481265e-002 -1.6984092591983007e-002
      9.2806259128954030e-002 -1.3637373997463656e-002
      -9.3122357199905068e-002 7.8873062841409117e-002
      -1.8160377519455949e-002 -7.1110013709413084e-002
      -1.7768004322946659e-002 -5.6427471809079727e-002
      -7.6631353392545938e-003 1.0134952111232165e-001
      6.7325504293395649e-002 4.9529795448564791e-002
      -8.9921761424679433e-002 -9.5280754131267159e-002
      8.1130409574952364e-002 -4.1710930710764364e-002
      2.6186667270806301e-002 1.2078608995782385e-002
      -6.3430708153866422e-002 8.6214848715542136e-002
      -1.3061979633042184e-002 -9.1409728955322955e-002
      1.0082006632924377e-002 1.1624580656617160e-001
      6.9139630649596148e-002 4.2979152425740144e-002
      -3.4698848304559687e-002 -3.8410001031298401e-002
      6.5041828242108010e-002 4.2956803891431902e-002
      -4.0554140293471305e-002 9.2236124979900402e-001
      -6.1394418531710640e-002 -9.1929032529076346e-002
      1.0254536452488439e-001 5.6305395268319854e-002
      5.2713532670456138e-004 9.8190872688246819e-002
      -1.8524559762786826e-002 -3.5401036540701578e-002
      4.8079433705983859e-002 -7.0266645526577992e-002
      -1.1470608492625990e-001 3.4199392377486478e-004
      5.2219563536037510e-002 -2.4683545347762712e-002
      1.4098440453484137e-001 -1.4632124099343899e-001
      6.4378738216181550e-002 1.9126584083120304e-001
      -7.7673908587928081e-002 -3.1603384058911167e-003
      -2.9581034725516221e-003 -1.3880829282817522e-001
      6.2063304096215272e-002 -8.9690958235404739e-002
      3.0329478255749138e-003 5.3347940611521809e-002
      7.3056830165762528e-003 4.2200721137718007e-002
      -1.0167120100196843e-001 -7.3928514333164844e-002
      -1.0967205676928839e-001 1.1609161281943212e-002
      -1.1480935760471335e-002 4.8796702218814499e-002
      -9.3166952107087225e-002 5.5123784042938766e-002
      -1.4722977260493956e-002 3.0555568147403976e-002
      9.4318536141947912e-004 6.4651490232102732e-002
      -4.2651607106421158e-002 -5.9980295684893714e-002
      1.5210790139837854e-001 -2.0172350069046475e-002
      -1.0601054447348113e-001 -2.9798174504263125e-002
      -6.9440088393235858e-002 8.0689868040507401e-002
      7.4138726528561863e-002 3.2199021285286254e-002
      4.4928577687563184e-002 -1.4479810412933725e-001
      -7.1598928569628725e-002 6.0392418467324953e-002
      -4.5870399176118834e-002 5.5519131956136565e-002
      2.0931022812338607e-002 -5.4931535498275119e-002
      7.4305274049450976e-002 -3.9715385336054933e-002
      -9.3314097504348742e-002 1.1987519361536617e-002
      1.0936092771477195e-001 -6.7234239541938759e-003
      4.4585904983415685e-002 -2.3991799314044857e-002
      1.3160429594665535e-002 6.1034195978761453e-002
      4.4558261473486890e-002 -5.8596181247384679e-002
      4.0158039188115913e-001 -2.9731548732776471e-002
      -1.3354959294630077e-002 2.9490413004044569e-003
      1.2386565483140058e-001 2.2376902062089640e-002
      1.4773725070987126e-001 -3.9196201143681039e-003
      -2.0867928050021187e-001 3.9349179171820618e-002
      -3.1143638035005593e-002 -1.3395492929944450e-001
      6.2402680320581688e-002 4.7692664035754513e-002
      -3.5533266496155284e-002 5.9619885069251560e-002
      -7.9459210996834839e-002 9.3922953500549203e-002
      2.0332090576042783e-001 -5.3283078358380330e-002
      -1.3592714359767199e-002 -9.4021478846748312e-003
      -1.5342473725703906e-001 6.6851250819544003e-002
      -2.1134952302484411e-001 2.0572502290877696e-002
      7.1709273487240405e-002 8.1405606042981339e-003
      1.0057641221003272e-001 -7.0597949625044801e-002
      -8.9059417077653080e-002 -5.1527769480525898e-002
      -4.1888597349947411e-002 -6.9365519086613037e-002
      8.8648212557265668e-002 -6.3359848611245625e-003
      2.4549227307681071e-002 8.6207988264927565e-002
      1.1568718286375337e-002 5.8782973525937946e-003
      -6.8164556838887391e-002 -7.7418950594493566e-002
      -7.7083277830265806e-002 1.1665677449309800e-001
      -5.6724224246770011e-002 -1.8415186940653552e-001
      8.1578123281069717e-004 -1.4003437345045977e-001
      5.2151291833064585e-002 -2.6745956272138864e-004
      9.7781005727454670e-002 7.7349636051569748e-002
      -1.1605730538321404e-001 -6.2592170007493703e-002
      8.6469514712189791e-002 -4.5288663670600360e-002
      6.1066990270356190e-002 5.0306917283863349e-002
      -5.0158322533924568e-003 1.8974393292884289e-002
      -5.6143809598308086e-002 -4.9822620549334444e-002
      5.5292662935757401e-002 1.0065064453409438e-001
      1.4145996457373342e-001 5.7506387015438351e-002
      3.7889370733246039e-002 3.1702471487141698e-002
      1.0311031623637386e-001 3.1164986535174962e-002
      -9.8283476752760127e-002 3.3886597657843887e-001
      -4.9607813265136934e-002 -4.2781199721674691e-002
      2.6631258040661188e-002 5.8324662084678278e-002
      8.0537474908758414e-002 1.3774975352515381e-001
      5.0627046426737390e-002 -1.9395391457807726e-001
      2.5141789700352638e-002 -2.4311056569125605e-002
      -1.7681220434987993e-001 9.3601213827768801e-002
      1.2968238409578425e-001 -1.4675285549262803e-002
      4.6112691089195412e-002 2.1030043142165673e-002
      3.9231385208831890e-002 2.3249707947092743e-001
      -7.1222212752845265e-002 -2.0865624902605066e-002
      -1.1957940247827452e-002 -1.8191373620353293e-001
      4.6008277399887429e-002 -3.2513970976324241e-001
      2.3362306182295983e-002 1.0023695645813753e-001
      -3.7514139251910120e-002 1.5466355371266938e-001
      2.7020760994793693e-002 -1.0992324164183329e-001
      2.9038475783922874e-003 -3.6007508769944278e-003
      -6.0161107713940516e-002 1.0758706367426150e-001
      2.2698537417525089e-002 3.6088975417177767e-002
      5.9289827923145286e-002 2.4330680850550360e-003
      7.3645051872224920e-002 -1.0341302006692685e-001
      -1.6438667533720752e-001 -9.4399126658231455e-002
      1.9760735741494864e-001 -5.1917288718382824e-002
      -2.6035598549946981e-001 -2.1396410367704243e-002
      -1.4709014576302915e-001 3.8957053912282338e-002
      2.7551564796444123e-002 6.0654295378571844e-002
      1.0959543683263925e-001 -1.8033490000665836e-001
      -1.5636136667378456e-001 1.0441594202348209e-001
      -2.4380762136727734e-002 -1.9891434483475096e-002
      1.3342479210068367e-001 -2.0342271635338575e-002
      -2.1714238469112572e-002 -4.1643147877128167e-002
      5.5099101340223625e-003 4.6143387611825286e-002
      1.4445817721286885e-001 2.1876348159536374e-001
      4.0610250201458559e-002 2.7124993493171056e-002
      -4.0811231657400582e-002 9.0332251508376898e-002
      2.5986737271594170e-003 -1.0046428568750774e-002
      3.3766582007729995e-001 -4.5243162857754787e-002
      -4.4610297060856820e-002 2.3985142243834735e-002
      6.5582975196065291e-002 7.5737841971653563e-002
      1.3780669337217749e-001 4.5829569128789563e-002
      -1.8685683048473709e-001 2.8927489987098945e-002
      -2.6058135044628093e-002 -1.7291440789464216e-001
      8.6321054778791581e-002 1.3240255595813499e-001
      -1.4839883532801825e-002 4.1788423137879199e-002
      2.3454407968979931e-002 3.9598863655253683e-002
      2.3140669533920999e-001 -6.4503166597162043e-002
      -1.2115579725920327e-002 -7.7949544500019287e-003
      -1.7272352509405048e-001 4.9341933900336310e-002
      -3.1978269713006768e-001 2.2894471600546175e-002
      1.0133375966125438e-001 -3.6695778024614899e-002
      1.5892302330582631e-001 2.7559390516703267e-002
      -1.1009221887656739e-001 -3.2125258924530953e-003
      -4.6498184267962815e-003 -5.8737522515193846e-002
      1.0325464291956604e-001 2.9242584357889602e-002
      3.7682255927004395e-002 6.0118689856527963e-002
      8.2032701532538058e-003 7.6391358183544186e-002
      -1.0966835991087286e-001 -1.6255332057149427e-001
      -9.2739848671962319e-002 1.9316952339926238e-001
      -4.6279667355344722e-002 -2.6965830866282786e-001
      -2.8036895764779898e-002 -1.4881461578989336e-001
      3.3217494631727816e-002 3.4139426600397010e-002
      5.6158890521646042e-002 1.0710708608998337e-001
      -1.8388993404217469e-001 -1.5712352928559736e-001
      1.1083253596773206e-001 -2.7108829235819948e-002
      -2.6573956499325781e-002 1.3559988195326611e-001
      -2.2963114974928967e-002 -2.3158350565482811e-002
      -4.4710733961697155e-002 1.4197050092899349e-002
      5.0105573191905048e-002 1.4460386999726224e-001
      2.2568179402296049e-001 4.2535746255739186e-002
      2.9201894236504104e-002 -4.3243713650766465e-002
      8.8588506068267805e-002 1.5001477363803628e-003
      -1.6930925883233701e-002 5.2860340861524102e-001
      -3.1312871372113790e-002 7.1852221223531777e-003
      5.0675206524767443e-003 1.1263398379437946e-001
      -1.4343886550241627e-003 1.4071249570903976e-001
      -1.3465800048113296e-002 -1.7817596746446876e-001
      4.2163690272939626e-002 -5.3561920311995612e-003
      -1.4004151668034215e-001 8.5415537126932478e-002
      6.0150038636341725e-002 -2.2851962211330561e-002
      4.7392170450809505e-002 -7.3266995047949146e-002
      8.9909455504571079e-002 2.0178439014235205e-001
      -5.8249745454774474e-002 -6.8356556630956083e-003
      1.7371358935488853e-002 -1.6182715067608611e-001
      5.5288561295189748e-002 -2.2279115023666027e-001
      2.6991365993356619e-002 6.1672451803410328e-002
      1.9304657569642197e-002 1.2511037566338343e-001
      -7.1105113304550951e-002 -9.3730809203927068e-002
      -6.2512310308140209e-002 -2.8638919275173588e-003
      -6.1486686411646493e-002 8.5105137988719701e-002
      -1.1931339039852943e-002 4.0446696126762091e-002
      8.9774186950929175e-002 -2.2837136711618814e-003
      9.0354371300222346e-003 -6.0390142804160267e-002
      -9.0922160294645019e-002 -1.1202523270250458e-001
      8.6728895521169733e-002 -5.7331083319691452e-002
      -1.8912836945323655e-001 1.2971575316652384e-002
      -1.4616239008058476e-001 4.8021804839503988e-002
      -6.9330444714491932e-003 6.8612759499688064e-002
      5.6439803759360398e-002 -9.5955487108443843e-002
      -6.3565813370354496e-002 8.1183369747007725e-002
      -5.0452985233851916e-002 7.4585813739616341e-002
      6.8323304587912914e-002 -1.5179248121893828e-002
      -7.4349212056486671e-003 -7.5104461264395225e-002
      -5.8685566132005075e-002 4.8924602169630106e-002
      8.3775214591156930e-002 1.4020646234226669e-001
      6.4760735349250656e-002 2.4589008086500483e-002
      4.3980405602592532e-002 8.4611857589309364e-002
      3.5865042790834772e-002 -8.3548810543875834e-002
      1.2570251189292230e+000 -4.3751089853670412e-002
      -9.7079531038328601e-002 4.0938960967921940e-002
      7.7809097508019162e-002 5.7578648267223665e-003
      4.4905058336743658e-002 4.9234939986453841e-002
      -2.9739479798231959e-002 1.9828301590286684e-002
      -1.0872658181703643e-001 -1.4541457887896611e-001
      -6.1805236543334315e-002 5.1011292778985751e-002
      -4.8797154066311042e-002 1.0824916470023738e-001
      -1.7413103988961465e-001 3.8563468166551956e-002
      1.8341681433896195e-001 -6.9580124377524630e-002
      1.6868780607528285e-002 3.7048534483646901e-002
      -1.7533790282920944e-001 5.4089350661797195e-002
      -7.8972922446248595e-002 -1.5418545602413550e-002
      4.2266601811550356e-002 3.0125057873805303e-002
      6.4281524588175154e-002 -7.9108027954469987e-002
      -1.0257390470502688e-001 -1.1274611240734515e-001
      -5.9425629151341405e-003 -3.3085059028284632e-002
      3.9348858119017796e-002 -4.7936031401819339e-002
      5.8022611150696669e-003 -3.0391082224865005e-002
      8.2260851400094495e-002 1.6920591087377208e-002
      4.1657070835713246e-002 -6.8553236097551110e-002
      -4.3297481043085943e-002 1.5074862911392028e-001
      -7.8139346332410362e-002 -1.2888713295006260e-001
      -7.2060533546565372e-002 -8.0362351574429516e-002
      7.9274275193075297e-002 6.2435149346316096e-002
      2.3192036997252553e-003 8.5912640173623045e-002
      -1.9236605858528857e-001 -2.0786608292368201e-002
      6.1153303825253386e-002 -1.6105097062579499e-002
      4.5963929765185721e-002 1.5347689341977694e-002
      6.9138351807630670e-003 -5.6245101544506668e-003
      1.0957929267340393e-003 -7.6760357511728800e-002
      3.7830273611918819e-002 1.2002381513278555e-001
      -2.3965881605586027e-002 5.6649345394313093e-002
      1.0879376428159884e-002 7.3668228765258470e-002
      1.2737929513500096e-001 1.1986945466092816e-002
      -6.8763755275168981e-002 1.4564471943444453e+000
      7.3070666634184128e-002 -6.0848519107052502e-002
      3.4838510746688721e-002 1.9595186707341176e-002
      7.0131920336309120e-002 -2.0334424565139874e-004
      -1.4253876400814509e-002 -2.8367947083616764e-002
      -2.4294700187062930e-003 -5.9953513430648968e-002
      -1.0841187559514776e-001 7.8211036190753286e-003
      4.6175847078020436e-002 -5.4761326159974949e-002
      9.8556244951282082e-002 -9.7808455677351483e-002
      5.7756224930666782e-002 1.1538521112144058e-001
      -4.4761127924285563e-002 1.0754355044234372e-002
      4.8720146042428615e-002 -1.9441783521584835e-001
      6.7390329086275361e-002 -4.2165808666332738e-002
      -4.3894494834744238e-002 2.6177422513870733e-002
      5.0937580978976833e-002 4.6967666087137962e-002
      -1.0020970623114445e-001 -1.2123331866018046e-001
      -8.3033741988964418e-002 2.3780129284525917e-002
      -6.0118748523001260e-002 9.8170577590941291e-002
      -8.5216919317104567e-003 -3.7275397553870798e-002
      1.2711880133274695e-003 5.2486508490848884e-002
      4.2755946303683408e-002 6.7118179604443676e-002
      -6.5586443483067039e-002 -3.4794080091783849e-002
      9.9640076376340467e-002 -4.6878784614908728e-002
      -1.7212456757091507e-001 -8.2086463358027953e-002
      -9.7719737093069692e-002 5.1148136272644348e-002
      2.8418496730198937e-002 1.6853411920378415e-002
      1.4186310823046672e-001 -1.2370650751319763e-001
      -4.2509020520351277e-002 7.9181730000529221e-002
      -5.2334150838201268e-002 5.1821947171044019e-002
      -4.9438142912517011e-002 8.7691084072925723e-002
      1.6776778149142860e-002 3.7197064511079778e-002
      -1.6120963560965898e-001 3.7120036308524056e-002
      1.5580169671569158e-001 -4.8412715870970194e-002
      5.2697990563369629e-002 5.1542127277825540e-002
      4.6392648499891165e-002 1.3944904917652193e-001
      6.5137340519092563e-002 -3.3608198775533796e-002
      1.3915411031260985e+000 9.3728361568484006e-002
      -3.3068046044804490e-002 5.5826431807288246e-002
      2.6602791044353310e-002 8.5144936482882017e-002
      -2.0875143030983777e-002 2.3312332407695383e-002
      1.7480438183471232e-002 1.1166563662811645e-002
      -5.6493463385263142e-002 -2.2025439125725060e-002
      -6.4871498056798494e-003 2.1878587959301306e-002
      -3.9565193497266594e-002 1.3251659336781202e-001
      -8.0337618038161016e-002 2.3136635873463055e-002
      5.5606976071766810e-002 -1.1127163813153954e-001
      1.8424470312744263e-002 7.8149720987107846e-002
      -1.6891292664420132e-001 3.8703881109584809e-003
      1.1603521505903413e-002 -1.9734659908043056e-002
      3.3478519395511441e-002 3.9331185107535901e-002
      6.7159141672527567e-002 -8.5532922818879462e-002
      -8.6687226322833960e-002 -8.5033624809982403e-002
      6.6344960401926167e-002 -5.2419852197062668e-002
      3.7535407282050452e-002 1.0299348042301852e-001
      -1.7169414559921740e-004 1.5929622775063705e-002
      3.5007781377116055e-002 -1.3634533429515372e-002
      3.6448517109276130e-002 -4.8502219568630565e-002
      -9.9327409467834582e-002 -4.2214531268778374e-002
      -7.3246174768844707e-002 -1.1696758907603619e-001
      -7.3184996398446020e-005 -5.9353049887252506e-002
      -1.2906826101917403e-002 -3.5255463353734223e-002
      -1.8499150685873100e-002 6.7787452972206091e-002
      -2.2465418107166527e-002 5.2495700582051372e-002
      8.5681191844804966e-002 4.7485990081474827e-003
      4.9148387208621018e-002 -4.4521712794545629e-002
      4.3077413461263966e-002 -6.3946082189212591e-002
      9.2523500500758124e-002 -1.4105124250180867e-001
      8.8567983010628015e-002 -7.8655191216969959e-003
      -8.3911263693348531e-002 3.6443845235093524e-002
      5.1822487185400083e-003 8.0276835932313918e-003
      2.8654728786000509e-002 -1.8603117559406093e-002
      2.7151873326321505e-002 1.8068023178347730e+000
      -4.7887320173004677e-002 1.3418139885373201e-002
      4.8950833661893567e-002 -1.2186001951724819e-002
      3.3007871138759082e-002 -1.2186657238668458e-001
      1.4614919421480833e-002 -3.6548744082984169e-002
      3.0266974053575701e-002 7.1367620222425746e-003
      9.3111622341857485e-003 4.9347287161340743e-002
      6.9945867573005971e-002 -2.9317340952833875e-002
      1.7798984264028540e-003 -5.0221461998080419e-002
      5.3135212075167528e-003 9.4161550487112625e-002
      -4.0626783599256457e-002 5.7205218045112375e-004
      -2.2893941401711988e-002 -1.6399746636516782e-001
      1.8831115020710464e-002 1.0800498314837828e-001
      -2.2856994939617462e-002 9.2788344801306849e-003
      3.2722181973192870e-002 1.8653510628257566e-002
      4.2713067557020493e-002 -2.2829814190991570e-002
      3.5999000591040067e-002 3.7505070828274673e-002
      -3.4288583369993873e-002 1.6311453787201616e-002
      -7.4146129080906148e-002 5.0395758727730625e-002
      3.9539902991698919e-002 5.6489110725626922e-002
      7.8545571335822701e-003 -2.4479888341189408e-002
      -1.5519764982357638e-002 -4.2976491923843334e-002
      -3.9382491366759129e-002 -1.7570419055236867e-002
      -1.6573079431823043e-001 -2.9873330481798195e-002
      -7.8199162616051671e-002 -1.4900250266895042e-003
      -7.5663177111204863e-002 -8.5107739722869937e-004
      1.6034368432898613e-001 -2.4762889245134704e-002
      4.0168291020718790e-002 4.1435806380715944e-002
      -4.5837408212065188e-002 2.3551312557132602e-002
      1.2285858185824054e-001 9.1408659706581061e-002
      -7.0600275222043485e-002 7.0569488580906142e-002
      -1.3273128839626361e-001 -2.0188043424653065e-002
      9.7438444046603706e-002 -7.1472025102022815e-002
      2.4189629109678035e-002 -1.6038661448721028e-002
      -7.0661859967581606e-002 -4.4833836504279474e-002
      -4.6432573894104552e-002 -6.4270753318297277e-002
      2.2115862878874464e+000 -8.1471879457615332e-002
      5.9519309956773549e-002 6.8927124624129578e-004
      -1.1361192903192951e-001 -3.8018139375131738e-002
      -9.0973701823797104e-002 -1.3088274897511134e-002
      -1.1044121893866540e-001 -6.5267081477068861e-002
      4.4053623017229690e-003 -4.1935784125546223e-002
      -5.1565635182630319e-002 -7.3612164843252018e-002
      2.8091721383995991e-002 -2.9466307592298711e-002
      3.9684973990517833e-002 3.6516464879071890e-002
      1.1470031872935277e-001 -6.1145461454070443e-003
      9.5688022305093247e-003 -8.7272125598031412e-004
      -2.2491490755090537e-001 5.4978027652576499e-002
      1.5046580995217723e-001 -1.1015150512858470e-001
      1.6764160652418248e-002 4.3305825112712457e-002
      6.4359059340256125e-002 6.6227274338315337e-002
      9.9007951062522986e-004 1.6846355947545851e-002
      3.1873151736949143e-002 -2.7088138738456981e-002
      3.9295941675288673e-003 -1.9396274436788891e-002
      9.3368887459434058e-002 1.5159775644565250e-002
      2.3661388788376401e-003 9.6463832528823241e-003
      -9.0743318785330759e-003 -3.4814246345673532e-002
      -6.0198755601559871e-002 -7.7916657405013457e-003
      3.1195640866125730e-002 -2.2407133706520443e-001
      -1.3809091295000986e-002 -5.1690548627839894e-002
      8.6429704511679598e-002 -1.4145718737419033e-001
      -1.6237035520492865e-001 1.0906861654386929e-002
      -1.7591803279074256e-002 1.7135815624091183e-001
      -1.6980706685955128e-002 -3.5259989276547006e-002
      1.9776058807632432e-002 1.6404674336804417e-001
      1.1842240599281668e-001 -1.3870220816921847e-001
      1.4885835488374445e-002 2.3144706799620864e-002
      -1.7894713620459548e-002 9.9592777701974444e-002
      -1.7775980261791471e-001 2.4281586172805576e-002
      -9.1598800084841656e-002 4.7192340654204131e-003
      -3.0398664627839318e-002 -3.5678002119714218e-002
      -1.0583837978435696e-002 2.3528795614773008e+000
      -7.2649377009945393e-003 9.1300654078587257e-002
      -5.2835790484213149e-002 -7.5355950622816012e-002
      2.8281504050759070e-003 -1.5409036915812907e-002
      3.0177121812377840e-002 -4.6035999007114380e-002
      5.1961095794713273e-002 2.7182351674079234e-002
      -1.2628078074271329e-001 -9.2951861262901309e-002
      -1.5311201181285850e-001 -9.1917373869660812e-002
      -6.2588996145833117e-002 3.2135532053338224e-002
      -8.7847761333869234e-002 -1.3388589388222212e-002
      -1.3419435548149966e-001 1.6956344651801670e-002
      7.2760034402714252e-002 -1.2193158249537031e-001
      -8.7772310664760420e-002 -1.4796732166692325e-001
      6.5703947435597453e-003 -9.4540605466995875e-004
      1.2481498832904071e-001 -1.8857674659274105e-002
      2.5356277661999709e-002 -9.4027479378033171e-002
      7.5195104043557703e-003 -1.2791750963182332e-002
      -6.9356901339078375e-002 8.1991158854277536e-003
      8.7869622282543039e-002 1.4140192984792965e-002
      4.1769604917570168e-002 5.3486240890731222e-002
      -4.2273918364056841e-002 -2.3540915180762678e-002
      -1.8978005578657219e-002 1.1570450223282944e-002
      -8.7292222487418206e-002 1.6325013981093386e-002
      -1.3286118247806902e-001 4.8421130105359474e-003
      -5.7253213372718527e-002 -3.5115372493617618e-002
      -1.5201633447316976e-001 2.2082121312244705e-002
      -5.8123982343790119e-002 -2.0639501907678565e-004
      1.1543311247938269e-001 1.1194188755933832e-001
      -4.0051385435807940e-002 4.6420817433830301e-002
      -2.9261643627343185e-002 2.5119392365843848e-003
      -8.5533786152746788e-002 6.0361030987921033e-002
      -1.1088411842714516e-002 -3.8146793756983162e-002
      6.9540746635156872e-002 -1.3049792506792421e-001
      -3.6592040878111694e-002 -2.2460540002372138e-002
      4.9933991451279310e-002 -4.3851458742980506e-002
      -3.2607210474598143e-002 -1.9679066177909431e-003
      1.0820465739195675e+000 -1.8589947056824752e-001
      1.0599911620671279e-001 -6.5784414468267757e-002
      -6.3585513752377185e-002 -4.3595692234654884e-002
      -8.7127594279347645e-002 7.0894745955984717e-002
      -1.7909412632794661e-001 -2.2893707422469039e-003
      2.1221459771373789e-002 -1.1827679331120618e-001
      -1.9905848240686258e-001 5.5129124305712221e-002
      -1.1547628622521039e-001 -5.9023637773149935e-003
      4.8840889540191501e-002 -7.6458646847708478e-002
      1.0693231780426914e-001 -3.8034352856211810e-002
      5.5612543908628048e-002 1.1368792453641054e-001
      -1.2758438685510728e-001 -3.1854777415382405e-003
      1.2091998365707370e-001 -6.4450857270667641e-002
      6.4810355393845984e-002 -1.9068558942788642e-002
      2.1464057921530770e-002 1.4937680750529392e-001
      -5.1819225121550884e-002 6.6133272660750406e-002
      -8.5794805267266610e-003 -1.1562169179601121e-002
      -1.0135125941252401e-001 1.9587782435773432e-003
      1.3730927787215441e-001 4.4105440746098706e-002
      3.4261749464981443e-002 -5.3398204870842819e-002
      -4.1013177938913993e-002 1.3497599329454324e-001
      -2.9694072097237144e-002 -9.5485473905505325e-002
      -1.6679350622860467e-002 -1.4442548906961042e-001
      7.5145918660800504e-002 7.9411870302437043e-002
      1.4066654357432777e-002 -9.6753951574896108e-002
      -1.6905520750326031e-001 9.1989545096426029e-003
      9.7857871790111586e-002 9.0946439065974438e-002
      -7.6930749912704502e-002 1.5987474730155900e-003
      -6.5366792087840783e-002 1.3994745965690919e-001
      4.8312645592582297e-002 -1.2737204797372162e-001
      1.4176621167954690e-002 6.0300298627138496e-002
      1.4822021007753863e-002 8.9703172508038432e-003
      -1.6750297435917744e-001 -4.0466007649419489e-002
      -1.5491975956695894e-001 -1.4300841088790931e-003
      1.8619678322554126e-002 -3.9764554963713249e-002
      -2.4793473957092246e-002 3.4697718123927315e+000
