<?xml version="1.0"?>
<opencv_storage>
<OCRMLP type_id="opencv-ml-ann-mlp">
  <layer_sizes type_id="opencv-matrix">
    <rows>1</rows>
    <cols>3</cols>
    <dt>i</dt>
    <data>
      400 71 12</data></layer_sizes>
  <activation_function>SIGMOID_SYM</activation_function>
  <f_param1>6.5000000000000002e-001</f_param1>
  <f_param2>1.</f_param2>
  <min_val>-9.4999999999999996e-001</min_val>
  <max_val>9.4999999999999996e-001</max_val>
  <min_val1>-9.7999999999999998e-001</min_val1>
  <max_val1>9.7999999999999998e-001</max_val1>
  <training_params>
    <train_method>BACKPROP</train_method>
    <dw_scale>1.0000000000000000e-002</dw_scale>
    <moment_scale>1.0000000000000000e-002</moment_scale>
    <term_criteria><epsilon>1.0000000000000001e-005</epsilon>
      <iterations>1000</iterations></term_criteria></training_params>
  <input_scale>
    1. -1. 1.1211218421610479e+001 -1.1121300883140137e+001
    4.3786109468683332e+000 -4.1368830600809225e+000
    2.5667682247686967e+000 -2.0877936970615587e+000
    2.3863476288565035e+000 -1.8440683922496253e+000
    2.2238422379811023e+000 -1.5980986327210807e+000
    2.1833761687180671e+000 -1.5296182997261583e+000
    2.1584010557846889e+000 -1.4850006996556335e+000
    2.1335278683164058e+000 -1.4382276486993228e+000
    2.0984936313472904e+000 -1.3669241365533145e+000
    2.0574155429983665e+000 -1.2700367567927358e+000
    2.0351822570672695e+000 -1.2059835510732797e+000
    2.0346628074705628e+000 -1.2043158550300297e+000
    2.0425486517083016e+000 -1.2286417501252982e+000
    2.0617369633670699e+000 -1.2812478469046262e+000
    2.1611971240472161e+000 -1.4901022277550515e+000
    2.3809306369338432e+000 -1.8363814697377725e+000
    3.3885872655619687e+000 -3.0620037314796029e+000
    4.7353317929723389e+000 -4.5137883993698367e+000 1. -1. 1. -1.
    2.2069673003847337e+000 -1.5700414346541309e+000
    2.0352866466740061e+000 -1.2063174697704242e+000
    2.0001895906389158e+000 -9.8632527735155195e-001
    2.0056069622243529e+000 -9.2787136696410710e-001
    2.0270015193351272e+000 -8.4862568621275469e-001
    2.0583758822472524e+000 -7.8582028067078635e-001
    2.1111103350215505e+000 -7.1762512791870114e-001
    2.1504505759892898e+000 -6.8011844175787450e-001
    2.2737950622799277e+000 -5.9603156224180431e-001
    2.3775177348955951e+000 -5.4599324536166727e-001
    2.4460544796196495e+000 -5.1889967372762780e-001
    2.4517186667382265e+000 -5.1682399912393839e-001
    2.4035175448467188e+000 -5.3525734924670942e-001
    2.3520566327760970e+000 -5.5712396113878404e-001
    2.1982903270364309e+000 -6.4294335457234464e-001
    2.0724693359652369e+000 -7.6460571678439437e-001
    2.0185918546114143e+000 -1.1459643906609647e+000
    2.3203589783905691e+000 -1.7484111163196951e+000 1. -1.
    8.6498555674012920e+001 -8.6486993241761354e+001
    2.1492326409398097e+000 -1.4680629321216987e+000
    2.0000094523423200e+000 -9.9693025635403176e-001
    2.0576890100968872e+000 -7.8693333215976391e-001
    2.0788641599881079e+000 -7.5584955422639399e-001
    2.1286143739884555e+000 -6.9995874348504217e-001
    2.0805123639002741e+000 -7.5366775914580175e-001
    2.0767512653777582e+000 -7.5869017621673751e-001
    2.1087106855383788e+000 -7.2019192642033925e-001
    2.1653227821688379e+000 -6.6774490822931543e-001
    2.1847751523187044e+000 -6.5271654396902878e-001
    2.2027455598187378e+000 -6.3982971547735823e-001
    2.2730482619283801e+000 -5.9644348859315732e-001
    2.3712492059195260e+000 -5.4867429159827563e-001
    2.4828665135571448e+000 -5.0579983513715931e-001
    2.4404553406232754e+000 -5.2097409156200647e-001
    2.2813504503679289e+000 -5.9191300951265213e-001
    2.0336363712875509e+000 -8.3264646507870177e-001
    2.0432456171769404e+000 -1.2306997394732380e+000 1. -1.
    2.7369715718452682e+001 -2.7333130080545381e+001
    2.0158062459143746e+000 -1.1338741722774612e+000
    2.0027373170051921e+000 -9.4903138467897419e-001
    2.0564641610778120e+000 -7.8893893093080070e-001
    2.0958966405069117e+000 -7.3458641777959133e-001
    2.0532698084962804e+000 -7.9430060497102462e-001
    2.0020082790605604e+000 -9.5617906444103495e-001
    2.0090429660373563e+000 -1.0997234254675812e+000
    2.0036768289948377e+000 -1.0625031387010455e+000
    2.0019368813299701e+000 -1.0449891086209775e+000
    2.0016208445877028e+000 -1.0410782925131334e+000
    2.0001751491873101e+000 -1.0133222584440458e+000
    2.0022811805334517e+000 -9.5336526735197902e-001
    2.0524874481743480e+000 -7.9564411171041427e-001
    2.2030450677462694e+000 -6.3962222793007573e-001
    2.3475047321874016e+000 -5.5918372313299691e-001
    2.2238422379811023e+000 -6.2574360526002137e-001
    2.0445395205967216e+000 -8.1005415573435136e-001
    2.0000300371129454e+000 -1.0054956515949456e+000
    1.7683652105427516e+001 -1.7626920699127520e+001
    9.8448358381100469e+000 -9.7421895080241505e+000
    2.0017528308468928e+000 -1.0427524103475927e+000
    2.0212128548130637e+000 -8.6457440655016760e-001
    2.0783735902920615e+000 -7.5650464996194144e-001
    2.0674279599529868e+000 -7.7186556505128889e-001
    2.0053678581958261e+000 -1.0759987411840723e+000
    2.1971140248487226e+000 -1.5533399381666748e+000
    2.3650699468390544e+000 -1.8137155841485970e+000
    2.3363392910886218e+000 -1.7720076377004199e+000
    2.3543512794453445e+000 -1.7982573467117628e+000
    2.3561960472479906e+000 -1.8009262128276984e+000
    2.3819106276899262e+000 -1.8377741134910111e+000
    2.3119822142530562e+000 -1.7359182057825715e+000
    2.0597634035247472e+000 -1.2761667391173912e+000
    2.0299819730205790e+000 -8.4119023076644761e-001
    2.1884470440380137e+000 -6.5001060444492265e-001
    2.1413558358559164e+000 -6.8811915912279420e-001
    2.0463377587663514e+000 -8.0666355441812188e-001
    2.0033274996329822e+000 -9.4395527819893899e-001
    1.4867211485735570e+001 -1.4799642285025103e+001
    8.8848231640413289e+000 -8.7708085906222717e+000
    2.0044641002827421e+000 -9.3538085471020616e-001
    2.0425486517083016e+000 -8.1390690158300316e-001
    2.0732515297611278e+000 -7.6350861709556306e-001
    2.0352866466740061e+000 -8.2896917690358196e-001
    2.0743547889568106e+000 -1.3123808603305154e+000
    2.3021639561412472e+000 -1.7211606746020580e+000
    2.4828665135571448e+000 -1.9770666784199855e+000
    2.4522887014340422e+000 -1.9356723408592460e+000
    2.4540027784913203e+000 -1.9380094125553695e+000
    2.5576332940863153e+000 -2.0759189094629202e+000
    2.6909316386356918e+000 -2.2456204010162577e+000
    2.4235009394511944e+000 -1.8961035955898731e+000
    2.1087106855383788e+000 -1.3885187591180397e+000
    2.0000709226394560e+000 -9.9161382864185843e-001
    2.1180868507829831e+000 -7.1037025913841800e-001
    2.1005636814004123e+000 -7.2920249707216556e-001
    2.0235917429572283e+000 -8.5774754938074738e-001
    2.0000754973997914e+000 -1.0087267546704202e+000
    1.2656086878213607e+001 -1.2576573967736927e+001
    8.7948853563216289e+000 -8.6796736513464214e+000
    2.0000008755421446e+000 -1.0009361419636131e+000
    2.0178552076609972e+000 -8.7500632183562033e-001
    2.0337382686461449e+000 -8.3241633185329444e-001
    2.0102090676960049e+000 -9.0393574438301838e-001
    2.0499260429409940e+000 -1.2497945036564462e+000
    2.1543919432421563e+000 -1.4776346826327367e+000
    2.2171663928617216e+000 -1.5870774005847506e+000
    2.2373060162103364e+000 -1.6200356489521979e+000
    2.3095039912445814e+000 -1.7322051724199099e+000
    2.4071345209359483e+000 -1.8733240450326283e+000
    2.3784901497163671e+000 -1.8329094657284932e+000
    2.1081158172175112e+000 -1.3872816693171777e+000
    2.0151966339115299e+000 -1.1311068929012853e+000
    2.0091977299847712e+000 -9.0858386853876227e-001
    2.1151821278603706e+000 -7.1335443237424345e-001
    2.0767512653777582e+000 -7.5869017621673751e-001
    2.0031143418814947e+000 -9.4572916127863105e-001
    2.0101000720906916e+000 -1.1056759519654051e+000
    1.1401340805938709e+001 -1.1312946504809924e+001
    9.1225602298118513e+000 -9.0115920462918826e+000
    2.0631689576824974e+000 -1.2848956254301238e+000
    2.0068817522050040e+000 -1.0864685331413269e+000
    2.0000030197318437e+000 -9.9826377164532876e-001
    2.0000622020895200e+000 -9.9214420959152638e-001
    2.0282850651124051e+000 -1.1829177568621072e+000
    2.0729380684917262e+000 -1.3089907011836539e+000
    2.1297207603635702e+000 -1.4308216203164421e+000
    2.1558873697151615e+000 -1.4803894423508601e+000
    2.2209632153399492e+000 -1.5933577832815811e+000
    2.2212817713254851e+000 -1.5938832440148649e+000
    2.1145655486229340e+000 -1.4005710858744336e+000
    2.0056473257708340e+000 -1.0780253838958058e+000
    2.0141434427824163e+000 -8.8793544637032595e-001
    2.0769126065773307e+000 -7.5847149327219188e-001
    2.2403395558186996e+000 -6.1541208223598820e-001
    2.1415904477311449e+000 -6.8790828043014851e-001
    2.0006251258858900e+000 -9.7530809171311861e-001
    2.0311425643743606e+000 -1.1927294860709217e+000
    1.1305067868407148e+001 -1.1215908798197814e+001
    9.2748728717968660e+000 -9.1657713061347721e+000
    2.2162246021761778e+000 -1.5855145128788803e+000
    2.1077203544559433e+000 -1.3864579420234859e+000
    2.0312403435683875e+000 -1.1930584239592963e+000
    2.0254853224716887e+000 -1.1728916477673248e+000
    2.0638919654301491e+000 -1.2867253210488192e+000
    2.0740385952575005e+000 -1.3116263325976787e+000
    2.0535320320184289e+000 -1.2596789860891018e+000
    2.0613109978961583e+000 -1.2801565160039501e+000
    2.0767512653777582e+000 -1.3180610891610207e+000
    2.0273650201453046e+000 -1.1796711579591648e+000
    2.0002046043608375e+000 -1.0144066660800719e+000
    2.0317316993113628e+000 -8.3702674739708860e-001
    2.1117153144062848e+000 -7.1698394580830949e-001
    2.1893015359583261e+000 -6.4938646013788603e-001
    2.2859609759210247e+000 -5.8944241713028422e-001
    2.1351160551336474e+000 -6.9381996123912537e-001
    2.0105396461340597e+000 -9.0247187965755549e-001
    2.0317316993113628e+000 -1.1947049519142743e+000
    1.1119692679501245e+001 -1.1029022815385542e+001
    9.4905679368855864e+000 -9.3840036130387219e+000
    2.2577234640280155e+000 -1.6526258105891476e+000
    2.1030439465335369e+000 -1.3766349694124758e+000
    2.0258379060603562e+000 -1.1741790082445802e+000
    2.0337382686461454e+000 -1.2013219367928507e+000
    2.0589286827132773e+000 -1.2739982451917875e+000
    2.0681783755645107e+000 -1.2974149333677647e+000
    2.0643280213408977e+000 -1.2878250067635302e+000
    2.0551205134219916e+000 -1.2639499374755492e+000
    2.0334330732146695e+000 -1.2003262199326266e+000
    2.0024639420583874e+000 -1.0508853678012602e+000
    2.0029664354588408e+000 -9.4699803264509030e-001
    2.0701518335708862e+000 -7.6790152896126307e-001
    2.2219198827445217e+000 -6.2698474434884177e-001
    2.2867351091384100e+000 -5.8903068511024137e-001
    2.2254534336760017e+000 -6.2470955897869318e-001
    2.1383287791354526e+000 -6.9086227231257702e-001
    2.0185174923209894e+000 -8.7286513670076193e-001
    2.0059339770437097e+000 -1.0800564175286811e+000
    1.0858142282438134e+001 -1.0765250809897559e+001
    9.5469235552049359e+000 -9.4410026014444739e+000
    2.2003607385741644e+000 -1.5588707277694254e+000
    2.0698461139559776e+000 -1.3015046277301054e+000
    2.0185174923209894e+000 -1.1456523556202274e+000
    2.0273650201453046e+000 -1.1796711579591648e+000
    2.0430126066140608e+000 -1.2300132041424583e+000
    2.0947964471056388e+000 -1.3589155404095261e+000
    2.1335278683164058e+000 -1.4382276486993228e+000
    2.0805123639002736e+000 -1.3268446047544720e+000
    2.0334330732146695e+000 -1.2003262199326266e+000
    2.0085367552687594e+000 -1.0967614817902529e+000
    2.0000218888985719e+000 -9.9533237433088939e-001
    2.0404948160219436e+000 -8.1799812234324409e-001
    2.1413558358559164e+000 -6.8811915912279420e-001
    2.1884470440380137e+000 -6.5001060444492265e-001
    2.1856180730225696e+000 -6.5209190469006495e-001
    2.1362578741154956e+000 -6.9276321382224204e-001
    2.0399341263093076e+000 -8.1913676185445261e-001
    2.0000014473253898e+000 -9.9879767507120121e-001
    1.1030396513453107e+001 -1.0938980314571394e+001
    9.1724805365950548e+000 -9.0621312185502010e+000
    2.1465760039837498e+000 -1.4630919722380884e+000
    2.0518404086047726e+000 -1.2550757532115278e+000
    2.0119752038751391e+000 -1.1155825619133908e+000
    2.0182215942019011e+000 -1.1444052937581157e+000
    2.0873070771191333e+000 -1.3423385039460165e+000
    2.2222394388819096e+000 -1.5954615728157646e+000
    2.2333054770601053e+000 -1.6135564902432655e+000
    2.1601765935235253e+000 -1.4882435721187341e+000
    2.0933413928638309e+000 -1.3557330635510307e+000
    2.0604640786655435e+000 -1.2779779875695925e+000
    2.0224267460215195e+000 -1.1613882236209661e+000
    2.0001415490005887e+000 -1.0119684217306815e+000
    2.0153984600000792e+000 -8.8337007757522523e-001
    2.0487965880384245e+000 -8.0215548808508819e-001
    2.1451400704860313e+000 -6.8474729158142533e-001
    2.1299427627047796e+000 -6.9868727973232569e-001
    2.0406074649454422e+000 -8.1777050927769490e-001
    2.0041468653367249e+000 -9.3764390170813228e-001
    9.9078879656435692e+000 -9.8059086348917237e+000
    6.7888848978767014e+000 -6.6382426183622609e+000
    2.0425486517083016e+000 -1.2286417501252982e+000
    2.0198798012885275e+000 -1.1512855865117340e+000
    2.0056878359229993e+000 -1.0783152621417327e+000
    2.0197259419235531e+000 -1.1506579286830882e+000
    2.1985851726429462e+000 -1.5558494725266350e+000
    2.3794647215727704e+000 -1.8342966246905716e+000
    2.3381054665296248e+000 -1.7745973585022334e+000
    2.2373060162103364e+000 -1.6200356489521979e+000
    2.2241638039665750e+000 -1.5986270249870704e+000
    2.1856180730225696e+000 -1.5335261683325048e+000
    2.1453787515317737e+000 -1.4608420478950481e+000
    2.0994313240534832e+000 -1.3689381097089814e+000
    2.0727816298540089e+000 -1.3086148426414230e+000
    2.0115637750281889e+000 -1.1134722085806350e+000
    2.0559245225250939e+000 -7.8983118269444197e-001
    2.0911840934179464e+000 -7.4020257711144533e-001
    2.0435964262954971e+000 -8.1186587073255145e-001
    2.0230886611947771e+000 -8.5915688766419029e-001
    8.8848231640413289e+000 -8.7708085906222717e+000
    6.7103751747543834e+000 -6.5578870341704709e+000
    2.0041468653367249e+000 -9.3764390170813228e-001
    2.0100457986017695e+000 -9.0466838709960673e-001
    2.0117979733746334e+000 -8.9712044368102883e-001
    2.0004518789450194e+000 -1.0214845846237099e+000
    2.1950673077203198e+000 -1.5498389947037465e+000
    2.3833846997580559e+000 -1.8398672157602960e+000
    2.3613110133309410e+000 -1.8083078191916804e+000
    2.3195131884695703e+000 -1.7471536983058453e+000
    2.3103282985198894e+000 -1.7334410826884292e+000
    2.2642083811941149e+000 -1.6628205916696253e+000
    2.2400010830707222e+000 -1.6243825525542932e+000
    2.2482230648205253e+000 -1.6375574763009013e+000
    2.2081849034574459e+000 -1.5720883298776041e+000
    2.0683290310751739e+000 -1.2977859205810542e+000
    2.0252225639905568e+000 -8.5329521744395598e-001
    2.0621646032607632e+000 -7.7982404259119087e-001
    2.0539267169149698e+000 -7.9318196566867372e-001
    2.0375174586236198e+000 -8.2415824485965428e-001
    7.2534728915244067e+000 -7.1128829210296809e+000
    6.4222992006930442e+000 -6.2626216640897949e+000
    2.0228392576084415e+000 -8.5986216270483140e-001
    2.0351822570672695e+000 -8.2919870599398970e-001
    2.0411732688997026e+000 -8.1663301614982087e-001
    2.0084869514859833e+000 -9.1202114345647445e-001
    2.1174606037138877e+000 -1.4064512417931170e+000
    2.3755793524807571e+000 -1.8287610601439219e+000
    2.6048454367307565e+000 -2.1368716007507889e+000
    2.4004398611827593e+000 -1.8639426752587418e+000
    2.3341423025865673e+000 -1.7687812743434368e+000
    2.2767980769173151e+000 -1.6824140849082900e+000
    2.2989466843534139e+000 -1.7162969164702335e+000
    2.5102500457396655e+000 -2.0136359476652497e+000
    2.3297838019066561e+000 -1.7623641939566592e+000
    2.0581005835478057e+000 -1.2718351821603402e+000
    2.0223447173551072e+000 -8.6127392988816631e-001
    2.0555217017134648e+000 -7.9050072661805082e-001
    2.0481752926084487e+000 -8.0328115339034734e-001
    2.0243570753802542e+000 -8.5563655558780427e-001
    7.0878660251912802e+000 -6.9438537760495782e+000
    8.0258539209901567e+000 -7.8992597808114589e+000
    2.0096700680344175e+000 -9.0637973660581805e-001
    2.0191923445434772e+000 -8.7072777750264096e-001
    2.0300777907801275e+000 -8.4095857153156206e-001
    2.0122136222099352e+000 -8.9542295793836035e-001
    2.0176372326195700e+000 -1.1419163270834460e+000
    2.2091014520798464e+000 -1.5736267394911778e+000
    2.4620813341301369e+000 -1.9489968801923099e+000
    2.2531155948598576e+000 -1.6453375878518117e+000
    2.1959426363063352e+000 -1.5513376330542685e+000
    2.1676743474912703e+000 -1.5018120763330107e+000
    2.2072712240853263e+000 -1.5705526969397396e+000
    2.3267607302769631e+000 -1.7579002335951606e+000
    2.1109091268823432e+000 -1.3930702258278478e+000
    2.0005986566772993e+000 -1.0247686208244098e+000
    2.0364459530953174e+000 -8.2644698751468837e-001
    2.0571428071077449e+000 -7.8782437406278427e-001
    2.0264610953676225e+000 -8.5002471825472525e-001
    2.0049810626486670e+000 -9.3186995787052740e-001
    1.0104681347973084e+001 -1.0004728611741296e+001
    1.5566847520258616e+001 -1.5502341134330528e+001
    2.0085867075512334e+000 -1.0970572499738456e+000
    2.0000051639284391e+000 -1.0022750113043335e+000
    2.0096169895073555e+000 -9.0662442716044978e-001
    2.0102090676960049e+000 -9.0393574438301838e-001
    2.0021054954806448e+000 -9.5515499443529217e-001
    2.0086870577468598e+000 -1.0976490699196850e+000
    2.0522280955815746e+000 -1.2561358708285029e+000
    2.0040096593389509e+000 -1.0653584300482566e+000
    2.0012183116405335e+000 -1.0355187921882776e+000
    2.0018667813522457e+000 -1.0441497367780328e+000
    2.0031443579604766e+000 -1.0576687894591474e+000
    2.0113897066493625e+000 -1.1125692562645451e+000
    2.0067483156876964e+000 -9.2115675926634799e-001
    2.0400459238652444e+000 -8.1890895727407154e-001
    2.0854060496146163e+000 -7.4735645221451497e-001
    2.0545881305419647e+000 -7.9206418506657217e-001
    2.0013330302708896e+000 -9.6414974483308202e-001
    2.0136949356436022e+000 -1.1240729917454462e+000
    1.8467495877960488e+001 -1.8413186974162180e+001
    4.3257953430249955e+001 -4.3234823927012286e+001
    2.1059517830337255e+000 -1.3827610156745971e+000
    2.0066162051020267e+000 -1.0847154034798283e+000
    2.0105952667008733e+000 -9.0222808585948822e-001
    2.0280997634653639e+000 -8.4583227670257133e-001
    2.0496738144963289e+000 -8.0058105680500913e-001
    2.0312403435683875e+000 -8.3818191960909127e-001
    2.0218558562138349e+000 -8.6268732696625605e-001
    2.0897626390354920e+000 -7.4193417581583576e-001
    2.1160074432000426e+000 -7.1250137006027370e-001
    2.1091083824986834e+000 -7.1976389527057061e-001
    2.1162143463791940e+000 -7.1228815989611161e-001
    2.0765901217776355e+000 -7.5890888824222102e-001
    2.1529060431949403e+000 -6.7801719526363846e-001
    2.1811530155162120e+000 -6.5542467302238272e-001
    2.1632512141885081e+000 -6.6941940393615773e-001
    2.0940672282137083e+000 -7.3674441179768480e-001
    2.0012370720147663e+000 -9.6544106307997479e-001
    2.0761078753118865e+000 -1.3165426761769268e+000
    6.1167804173557229e+001 -6.1151451331912114e+001 1. -1.
    2.5479597911547396e+000 -2.0632990796438193e+000
    2.1962350238585095e+000 -1.5518377671589469e+000
    2.0075688515819725e+000 -1.0908658443631492e+000
    2.0014529258757197e+000 -9.6260227607282978e-001
    2.0297908264835076e+000 -8.4165367514394340e-001
    2.0397110412178252e+000 -8.1959248628536052e-001
    2.0475583967307567e+000 -8.0440771661431543e-001
    2.1642848054675152e+000 -6.6858203254049298e-001
    2.1861814959695653e+000 -6.5167554284348761e-001
    2.1927464947561228e+000 -6.4689099237090808e-001
    2.2003607385741639e+000 -6.4149001080473889e-001
    2.1105073870573885e+000 -7.1826651616737225e-001
    2.1740555451849501e+000 -6.6084778903229202e-001
    2.1658434200785579e+000 -6.6732643808061431e-001
    2.0811772538895115e+000 -7.5279583598783828e-001
    2.0149961841100761e+000 -8.8480984691907505e-001
    2.0615947889729469e+000 -1.2808839164745698e+000
    2.3814203604227075e+000 -1.8370775163747421e+000 1. -1. 1. -1.
    4.4823062404968441e+000 -4.2468368710923183e+000
    3.5905821031968084e+000 -3.2862873493635272e+000
    2.6063610698680333e+000 -2.1388117374575399e+000
    2.3358989416099201e+000 -1.7713614083348583e+000
    2.1551384624990404e+000 -1.4790109432522489e+000
    2.1262014946474235e+000 -1.4239098366773948e+000
    2.1117153144062848e+000 -1.3947313685979754e+000
    2.0274562981926740e+000 -1.1799952843645103e+000
    2.0095112800528572e+000 -1.1023973123027571e+000
    2.0078530010114397e+000 -1.0926306064854392e+000
    2.0233394891297549e+000 -1.1648874722205391e+000
    2.0926189315607058e+000 -1.3541462702426650e+000
    2.0623075224880401e+000 -1.2827051065548523e+000
    2.0718470783459249e+000 -1.3063631424351996e+000
    2.1556374682537225e+000 -1.4799296934836410e+000
    2.3319571650497655e+000 -1.7655668203237365e+000
    2.9899707386345629e+000 -2.6062824738184713e+000
    3.5854557803032487e+000 -3.2806369223600771e+000 1. -1.</input_scale>
  <output_scale>
    1.0526315789473684e+000 0. 1.0526315789473684e+000 0.
    1.0526315789473684e+000 0. 1.0526315789473684e+000 0.
    1.0526315789473684e+000 0. 1.0526315789473684e+000 0.
    1.0526315789473684e+000 0. 1.0526315789473684e+000 0.
    1.0526315789473684e+000 0. 1.0526315789473684e+000 0.
    1.0526315789473684e+000 0. 1.0526315789473684e+000 0.</output_scale>
  <inv_output_scale>
    9.4999999999999996e-001 0. 9.4999999999999996e-001 0.
    9.4999999999999996e-001 0. 9.4999999999999996e-001 0.
    9.4999999999999996e-001 0. 9.4999999999999996e-001 0.
    9.4999999999999996e-001 0. 9.4999999999999996e-001 0.
    9.4999999999999996e-001 0. 9.4999999999999996e-001 0.
    9.4999999999999996e-001 0. 9.4999999999999996e-001 0.</inv_output_scale>
  <weights>
    <_>
      -4.6222180089869102e-003 -3.0386965129628293e-003
      4.1951311306622193e-003 1.2393182417243780e-003
      3.9910867379776838e-003 -3.6096718242828603e-003
      2.7212430466679316e-003 -4.3222094542688183e-003
      4.2447361673685078e-003 -2.9648579954383437e-003
      1.8223902578679845e-003 2.2345350336514100e-003
      -2.8510467270295809e-003 3.2893528653748744e-003
      6.6332868772747005e-004 2.3070695693070175e-003
      4.4132864887138209e-003 2.4871913685018442e-003
      6.6752844171497007e-004 4.5411576321843479e-003
      2.6542105002752810e-003 1.3940396294657149e-003
      3.9125175763899530e-003 3.0413716111723937e-003
      -1.3362404417424599e-003 -2.2059426488131306e-003
      1.5680867236652495e-003 2.6706976345374977e-003
      -3.8907308630967393e-003 -1.4327270612453627e-003
      -1.1536972816925295e-003 -4.6264017750555914e-003
      2.3060224160819263e-003 1.3092783029316779e-003
      -1.8383566451348704e-003 3.9834846521900739e-004
      -2.9908813254164806e-003 4.1617280994612621e-003
      -4.4932590840112627e-003 -4.6598758093927663e-003
      1.2861381847023797e-003 -4.9377651111871367e-004
      -2.9506613804476368e-003 -2.9307322729695330e-003
      2.0694142749792606e-003 3.6126918873206678e-003
      4.8341336313847258e-003 1.6555333764410316e-003
      -1.8915031729696118e-003 6.3986230241183998e-004
      -2.6937071349175212e-003 -2.0456329913700447e-004
      -3.8397497722587170e-003 -2.5998439387365066e-003
      1.2625594265404179e-003 -1.8229237608033452e-003
      -3.5485943055033461e-003 -3.1430571140462818e-003
      -2.4621547577512448e-003 -1.5562364787584317e-003
      1.4445438086689406e-004 1.2770301559855831e-003
      -2.6479797593721962e-003 4.6089118174772199e-003
      6.0508296790771714e-004 -3.5366100449358020e-003
      2.8279673052315126e-003 2.2773199135432214e-003
      2.0550586343381443e-003 4.1439216670294734e-003
      2.7619788321109734e-003 1.7824442657655107e-001
      -7.0479060040104999e-002 1.5496013438131503e-002
      1.9350401683783956e-002 -1.8830751190055253e-002
      -5.5281513492127815e-002 -4.0679291553598285e-002
      -7.4697851349656225e-003 5.0841900501289918e-003
      -1.9064732002214688e-002 1.8946468982144228e-002
      9.7119772894279695e-003 3.8388918919864852e-002
      -3.2893810732548458e-003 3.9221507151355042e-002
      2.1284638775833749e-002 -1.1398417424345870e-002
      -8.2234934121464230e-003 5.3160195339329086e-002
      2.7025102997750967e-002 2.4417016799519561e-002
      3.7260497358832814e-002 -2.2690696186440502e-002
      -2.4331998659716473e-002 1.7363029043306638e-002
      5.6082530829836837e-002 2.3683661187249783e-002
      8.2755705640722432e-003 2.2391539686682309e-003
      -4.4871432432312147e-002 1.8790081002118698e-002
      4.3290317367593034e-003 9.1754053403708860e-002
      -4.4875689898229813e-002 -2.1826420363142255e-002
      2.3300456879659221e-002 -1.6264270272671234e-002
      1.4831119210894769e-002 -3.3024790364122494e-002
      -2.5766425415188390e-002 -4.1444553196898708e-002
      -2.0387792168393738e-002 -9.8450663397499930e-002
      2.5974825380638483e-002 -1.3967491239012690e-002
      -2.8580391066369174e-002 5.1851250566920429e-002
      -4.3056314937352860e-002 -5.4694999516418798e-002
      1.0071141763110596e-002 -1.0433073250171246e-002
      1.3869676482368058e-002 7.4362711216192298e-003
      9.2827136651389627e-003 4.5179456475646335e-002
      2.2694758756039431e-002 -1.6855244002438124e-002
      -1.5642969452698590e-002 -1.8034954519933311e-002
      1.8231243173326150e-002 3.1803173033656453e-003
      -7.3894958306314262e-002 -5.5464680512155159e-003
      -3.8700614771727621e-002 -1.7654145676599856e-002
      -2.2334773165180446e-003 -3.2033427128856408e-002
      -2.1530392460599235e-002 2.7147163643838828e-002
      -3.9174351813693477e-002 -2.7412678448053944e-002
      7.9380553355161906e-002 -2.6246585106438590e-002
      -1.5246307077903084e-002 6.8357854590351671e-003
      2.9406935022507800e-002 -2.0627518604055442e-002
      -3.1690298402801478e-002 4.4485325991668788e-002
      2.9781000740182412e-003 -6.5976303258638333e-002
      7.3841218919464165e-003 8.0901471767714755e-002
      -3.3070757075998457e-002 -3.7990351079514074e-003
      5.5791694856215112e-004 -1.1670738400388687e-002
      9.0059150355464822e-003 -1.4955206611354188e-002
      2.1728896946705042e-002 6.3516644076945405e-002
      -8.7043889267861777e-003 4.8563174739609917e-003
      -3.8848913578740332e-002 2.6612353496434728e-002
      9.6884831371788546e-003 2.9058668658586761e-002
      -3.1435865344266345e-002 -1.1979886407945643e-002
      -4.2497432787342158e-002 -9.4934384375695621e-003
      7.1638033278577777e-005 5.3451480365866437e-002
      8.6049833001308126e-003 -3.0862884299657146e-002
      -2.3245763053501050e-002 5.1824910768747783e-003
      -1.8646642584205134e-002 -3.1386980999699637e-002
      2.9829562321688430e-002 7.9373843091921706e-003
      6.7039208404587013e-003 -6.0333612645749428e-002
      -3.4945650841716656e-002 2.5446883867947811e-002
      1.7942754659799002e-002 1.4668374996087655e-003
      -2.6855685152423273e-003 -2.3766565376624946e-002
      8.1126459728855689e-003 2.2353639306580074e-003
      -7.2266893602781672e-003 -4.2016965455104891e-004
      6.5454824220330818e-002 5.5094096924037252e-002
      1.6802297526036701e-002 6.9234037343625890e-002
      -1.0977307540142586e-002 2.3391679629981864e-002
      1.2934536887369898e-002 -4.3959244536011036e-002
      7.1998363687011202e-003 2.3390074673464867e-002
      -1.5887912640132628e-002 1.6758997431858703e-002
      -1.0822771762722954e-002 1.8725231257023651e-002
      -4.2108920127429117e-002 -2.5326297665190954e-003
      3.9680817920633098e-002 -2.0079397980988366e-002
      3.7344132697858710e-002 1.1322674224307050e-002
      -1.2677530075701117e-002 -2.7031890796965587e-002
      1.7733216519688323e-002 2.9121677337588400e-002
      -1.2176208986775969e-002 -2.4326869168374992e-002
      9.0366438826183764e-003 -5.5838380599036530e-003
      -2.8493274517941477e-002 -1.7248981151983915e-002
      -4.8471317440418864e-003 -6.3786647052017009e-004
      -2.0768597542115907e-002 -3.1752138820701346e-002
      -3.2549464633943757e-003 -1.1006401158506696e-002
      3.0833758236256229e-002 -4.8210759394084124e-003
      -6.6772777033649242e-003 -2.8144675421685156e-002
      -2.2190208633668291e-002 8.6612583318231504e-003
      2.0095946558881250e-002 7.3132951257281805e-003
      2.3734190009218170e-002 -1.3991799687101833e-002
      -3.0049186103495568e-002 -6.7179594609108384e-002
      -4.1235955187065333e-002 -1.8963874027711724e-002
      -1.4770026297148867e-002 2.0072916970568710e-003
      -1.5219847221765056e-002 -2.5168375482323379e-002
      -1.6271544294867494e-002 -1.9844156338437106e-002
      -3.0494079244228117e-002 7.5482997349090204e-003
      1.0428815818447143e-002 -2.2128982038336735e-002
      -1.5838853036936412e-002 5.6232598825062350e-004
      -1.5902996595996014e-003 -1.3175469210871983e-002
      5.2312758495639045e-002 -2.3878358254934115e-003
      1.7233101096122718e-002 -6.0684669165203629e-003
      2.0505381022955935e-002 4.4811064501050725e-003
      -6.5118359970372094e-003 1.0178328355765865e-002
      3.6393684837159913e-002 5.1862936623600676e-002
      4.3125519877850974e-002 4.0181064798530215e-003
      2.1551738951570403e-002 2.7104646814770216e-002
      -3.2117032587750907e-002 -4.5409438271138414e-003
      1.8889751516812579e-002 -6.4489344238686089e-002
      4.5088486576820491e-002 -1.0976437941696573e-002
      2.0315496585348224e-002 -3.1348740398829490e-002
      7.7329896230886744e-003 -2.9754270338603953e-002
      -3.7700632882469783e-002 6.7362614449991238e-003
      -1.3473923458292944e-002 -1.9089733004732383e-003
      -1.0688401489465942e-002 -2.5178404985672108e-002
      1.5100155114945677e-002 -3.1833642424627191e-004
      -1.5781374902859757e-003 2.1386797074884445e-002
      4.2707235694139254e-003 -3.5410325554881987e-002
      -4.7594871336962092e-003 1.0096383599431779e-004
      -2.9551943205739707e-002 -2.3359457373406285e-003
      -1.6981457214843416e-002 4.2956809432815574e-002
      1.4317832930999171e-002 6.2739749820480088e-003
      1.2003466141684882e-002 1.2036464013193981e-002
      -9.4122136716466142e-003 2.1863750363824864e-003
      -1.0753096303732392e-002 4.8313173286881353e-002
      3.8445137421926493e-003 4.2786725060828625e-002
      -2.7324603242834030e-002 -2.0938334760868895e-002
      -5.0519747217325509e-002 1.6266314913326193e-002
      2.7204087156188876e-002 9.3162335784430800e-003
      -2.7189241789068751e-002 7.1176796418872231e-003
      -2.3546482658278498e-002 -1.8772899862320443e-002
      -7.9942510757361838e-003 -2.4170952222661406e-003
      -6.4741511229208498e-003 -1.1099408881014267e-002
      2.2644356563093983e-003 -1.1858218155530209e-002
      -1.1374035057278419e-003 6.8932267440387513e-003
      2.3256609496733565e-002 3.2212349780553595e-002
      -1.2051872898471020e-002 2.5396210777011610e-002
      1.1600789932687516e-002 1.4577055918518225e-002
      -7.5525980388978986e-003 -1.4145272173082167e-002
      1.1541817399773288e-002 5.2073758102587187e-002
      1.2084579266904417e-002 3.6121803029034040e-002
      -1.1578397520653861e-002 1.6572699193164741e-002
      -1.9009130441497973e-002 -3.8153451948253599e-002
      -3.9951387670548275e-002 -1.2434351795919318e-002
      -1.5340242116501680e-002 5.0908688285321940e-002
      -4.6109465356645625e-002 1.8421219802803476e-002
      -5.0984714544720887e-002 -1.6669562904795061e-002
      -4.1700047412660514e-002 6.9650133557046775e-003
      -9.8726533563059729e-003 -6.5494402701471166e-002
      4.9976032950190298e-002 -4.5314048612647893e-002
      1.3288806847446842e-004 4.5802393272018585e-002
      6.0029512455890832e-002 2.2934661127933825e-002
      4.0690875869155299e-003 -1.3348712763458170e-003
      -3.5975642570777615e-002 -4.8431431882968778e-002
      -2.4277190543441150e-002 1.6451500034366243e-002
      -1.3779773444561754e-002 -5.7979333583563955e-002
      1.6709388079317565e-002 2.1975026323953976e-002
      1.0271675331834904e-002 -1.3277451600553538e-002
      -2.2326877248677005e-002 -5.0140091045949376e-003
      1.6681428962543265e-002 -1.8997199183329563e-002
      5.9477181716327793e-002 1.3280136842275983e-002
      -1.4477840941820561e-002 -2.3522264195529469e-002
      -3.3023526309113121e-002 -6.5379987282817575e-002
      -6.4896685050545065e-003 -1.5176179196485845e-002
      -1.6370623773694682e-002 -5.2199188298178989e-002
      7.9269820862674402e-003 -1.7269455333641583e-002
      -1.2136796573903801e-002 -7.9591492422185790e-003
      -4.2479141060894204e-002 1.0260287708743546e-002
      6.2723335211048335e-003 4.8537190140276874e-002
      -2.1101553784556568e-002 3.6809521260369846e-003
      -6.3496697950860383e-003 1.7742908907056772e-002
      6.1366576474472578e-002 -5.0493203116078383e-002
      5.3142588515861532e-002 2.3151923763267575e-002
      1.4916955869289206e-002 -3.0392879779281692e-002
      -3.6565116940010023e-002 2.8305818909675497e-003
      4.1784861070445295e-002 2.4304291222190768e-002
      2.2873045440831460e-002 -1.9291106543929498e-002
      2.6304907166856108e-002 4.3459181420558102e-002
      -4.9707152090208762e-002 -2.8679737271831013e-002
      3.2460028315479297e-002 -5.3414872477868733e-002
      1.0847289446738841e-001 -4.0321443613590753e-002
      2.2279859372708224e-002 -2.7200673858995199e-003
      2.2867229382379804e-002 -2.0173949146365146e-002
      1.4796496685600506e-002 2.1847038864973033e-002
      -6.0607046151605150e-002 3.2882722078256384e-002
      -2.9233047051864466e-002 6.4498387056578423e-003
      2.7046763906490117e-002 3.5538749257323331e-002
      1.2093618665795149e-002 1.3620105280247345e-002
      5.8198860041501019e-003 -1.4382046839318222e-002
      -1.3895582656848824e-002 -1.6532940024816391e-002
      -8.2434458868275680e-004 1.2859811136579415e-002
      -3.7266885250678269e-002 1.0785923265726796e-002
      2.0631858618380183e-002 2.7213655351495895e-002
      -4.9442249125097983e-003 -1.5974831642720056e-002
      -1.8618562503826749e-002 3.9641634233241593e-003
      -4.5143630664024490e-003 4.1231002157840035e-002
      -1.6605264399207408e-002 -6.5595215207498534e-003
      -6.0825657468778251e-003 -2.5128107245842673e-002
      -5.1821522347840092e-002 -1.5047575468181333e-002
      -4.3721003822184195e-003 -2.0494213991475472e-002
      -4.9009605759433618e-002 3.4346582200775613e-005
      -4.2698161217829570e-003 -7.9807388638496145e-003
      -1.0057692723579594e-002 -4.3917193265812525e-002
      4.0107984652065741e-003 1.7836475370094668e-002
      1.0446350794936709e-002 1.2483952815204915e-002
      -4.6485949124271060e-004 -1.5520377423137139e-004
      8.0798481288557444e-003 5.8130452428606920e-002
      -2.1525914978122611e-002 4.3776985827833237e-002
      4.5609317835158597e-003 1.2021918567138573e-002
      -4.4645217649848861e-003 -1.8541339109763147e-002
      8.7888165128886218e-003 9.8398560601667840e-003
      1.2444905930038478e-002 1.9248576858521948e-002
      -7.6338021228738295e-003 2.1920435175370213e-002
      1.0694707789447906e-002 -2.5895921892324328e-002
      -2.5882935235316852e-002 4.2780083838950621e-002
      -4.1176944084889658e-002 7.6241479730423806e-002
      -1.6861501733699841e-002 1.0976581740114448e-002
      -1.3963675908063036e-004 2.8000377995086121e-002
      -3.8197553265294122e-002 2.0145238331937633e-002
      -7.2382647950339587e-004 -8.5621727697246269e-002
      2.1545114342562642e-002 -1.3340282070572730e-002
      -7.3751091293868323e-004 2.1497286168925416e-002
      2.5940467505017897e-002 -2.3160586951900680e-003
      3.1208804554033426e-003 7.7184783581073146e-003
      -1.1202527917882614e-002 -1.4435831700844027e-002
      -1.0943930692661388e-002 1.7026590294857796e-002
      2.3868916310522605e-002 -2.3000971734810690e-002
      -3.0056637743642294e-003 3.3581751629734022e-002
      4.5092275636417892e-002 -7.2320389223510032e-004
      -8.6691768198408087e-003 -3.6959799517212635e-002
      -9.9613464126832012e-003 1.6154947152477190e-002
      2.6470370967414419e-002 -2.2141123895352909e-002
      1.0915638755658912e-002 -1.7603390820318914e-002
      -1.3631457763579484e-002 -2.5794269111496338e-002
      -2.5166517163461740e-002 1.7340664340335390e-003
      -1.7638877293040658e-002 -3.1473164025820684e-002
      1.0631113674070642e-002 3.8851533018062264e-003
      -2.1969445070317131e-002 1.1382480049018422e-002
      -2.3595204066550433e-002 -6.5492209900626787e-004
      2.0354555777703717e-002 -1.3784829378262349e-002
      1.5747028422093183e-002 6.6750102312421481e-003
      -1.1974645644416287e-002 9.5849182110872462e-003
      6.2617022842939588e-002 -1.0140589072919426e-002
      2.9420390546563684e-002 7.1461590743541947e-003
      1.2756836841487963e-002 2.3011665604759980e-003
      -2.1398680642020346e-002 1.3605301321685557e-002
      -1.7207456802725899e-002 1.0859560006695905e-002
      -3.6577235076648985e-004 4.0673643974669139e-003
      4.2029268178158233e-002 1.3350512000298992e-002
      -1.7595068357068699e-002 -2.6037158266060425e-002
      3.0347227087217266e-002 -1.6665793405611244e-002
      6.3278072548661912e-002 5.8783704443622102e-003
      1.6005133678025505e-002 3.2291127830579875e-003
      2.8159762724692748e-002 -5.2994478216327155e-002
      1.4256780498830017e-002 -1.1334721664204232e-002
      -1.6165016807643113e-002 3.1312410057434993e-002
      -1.9494385390795520e-002 1.4164959229909841e-002
      2.2592936489326056e-002 3.3423205900037681e-002
      -6.7660794839316972e-003 1.5821650305737421e-002
      1.4560090478678246e-002 3.9625600742538829e-003
      -9.2233873221502331e-003 -4.3481977678200882e-002
      -3.0185933404088335e-003 2.4271168578857350e-002
      -2.0512002602172518e-002 -8.7914472262125357e-003
      7.6212650324104843e-003 4.1889254924234197e-002
      -5.0772251855339887e-003 -3.3417827894753942e-002
      -4.5336762201768271e-002 6.3189317128802113e-003
      1.4077953291366792e-002 3.6872755637433257e-003
      -2.7591621478912916e-002 -5.5992165116505611e-003
      3.2773356406707761e-003 -3.2368239176068868e-002
      -2.8665546606350494e-002 -2.4836172614387232e-002
      -9.0229669047239350e-003 -4.0938002703978897e-002
      -1.1486348702670868e-002 1.6874691273449070e-002
      7.0453624806055947e-003 -2.4920631956814935e-002
      -6.4391845391536928e-003 -3.3005749713183687e-002
      2.4704948760491409e-003 1.8619858181193018e-002
      -7.9877397034441144e-003 3.3256084611391762e-002
      8.8270643880013402e-003 -9.4577536191288165e-004
      -8.2755920434140883e-003 7.1227561823957841e-002
      -1.7693568742983626e-002 4.3617607524616707e-002
      -1.0434555441454221e-003 2.3549695944124822e-002
      -5.4251864845418886e-003 1.8255060929495757e-003
      -2.4454436926610014e-002 -2.2859745442197831e-002
      5.3479925788179269e-003 7.2700888061482238e-003
      -1.9298974392592562e-003 2.7612052711394011e-002
      -2.8738652137803964e-003 -1.4020352200354972e-002
      -1.4408291230645685e-002 2.8174960139888794e-002
      -9.6359685323683282e-003 5.0308047680799307e-002
      1.9747130042275633e-002 7.7954683002279224e-004
      7.5412478495937420e-004 3.0401773919810141e-002
      -6.4730063155353512e-002 4.4731669121717936e-003
      -1.8218570193512663e-003 4.4024946099567398e-002
      3.3676284197351455e-002 -2.6344474237029156e-002
      2.9200871533424103e-002 1.4550302728705946e-002
      1.5965637440493275e-002 3.8633474179120319e-003
      -4.3395955183937896e-003 3.0620650976574355e-002
      3.7028697480335757e-002 -1.9745041374431688e-002
      -4.7469734545836431e-002 9.8984602490991870e-003
      4.9497889442641274e-002 -4.0819108084525296e-002
      -1.2691248198647070e-002 3.5446890289462327e-003
      5.9206679432275956e-002 -3.5462762319141985e-003
      -5.3511553562674487e-002 -3.0263528497352261e-002
      1.9885999492606676e-003 1.2530178265786757e-002
      -1.5588477395444255e-002 -2.0352574943800016e-002
      -7.5701305157930728e-003 2.1148047680712642e-002
      -1.7826123097220401e-002 -1.0107687430889915e-002
      -1.2278528328777155e-002 -1.0775203012226205e-002
      -3.9046223703980587e-002 -1.0208857668328792e-002
      1.1256269178210413e-002 4.5948051679848192e-003
      -1.7746303223778747e-002 5.8832989108973032e-003
      -1.8804067715088652e-002 -3.5472686766566093e-003
      3.7056904296019558e-002 -1.7507240310686446e-002
      4.9007883691211007e-002 -1.0240780888053594e-003
      -7.8325401760216077e-003 9.9985806957222437e-003
      5.3410938296015918e-002 -3.7122505795423838e-002
      5.5894687385553372e-002 2.9936545984542498e-003
      1.2313486429364045e-002 4.6533847790696222e-003
      1.4718733625125890e-002 -3.6003579276664428e-002
      -4.7973369885272919e-002 4.8734353924733825e-003
      -2.1418513049248630e-002 -8.6033263598137722e-003
      2.0713158662511555e-002 9.5867797671211224e-004
      2.6838328023264402e-002 9.7981806123077189e-004
      3.8999873497289235e-002 -1.1753419616079347e-002
      4.7925039746972188e-002 2.5245279886815696e-002
      -1.3891593417008663e-002 2.9859511996220649e-002
      1.9487924691015290e-002 -6.9906768228664595e-002
      1.6844128416715721e-002 -1.1185299621014971e-002
      -3.0618927068128202e-002 3.0021073404464593e-002
      -1.8412466344865982e-002 9.4438577726736247e-003
      7.2889035702832809e-003 3.6025573596464251e-002
      7.6934890155637113e-003 8.1071984484157571e-003
      1.9073668674417264e-002 6.8952059416144901e-003
      -3.9956775024887980e-002 -2.8516492101316234e-002
      9.6879417609127619e-003 3.4309819799121920e-002
      -4.1064694043067000e-002 -5.0204056936517328e-003
      8.4212090882323509e-003 3.4841926638545621e-002
      2.5857945761398357e-003 -2.8379873632937022e-002
      -5.3842909380324849e-002 -2.4186891883732058e-003
      -2.1504834998962372e-002 1.5077409047955681e-002
      -1.8212795288781076e-002 -8.1815041608896150e-003
      1.6756399372368225e-002 -1.3495238171883604e-002
      1.8628112772451428e-002 -1.0391903201584157e-002
      -1.2060192074041220e-002 -2.7447468485146027e-002
      -1.4592871427628397e-002 5.3626150288279256e-003
      1.7554934400668618e-002 3.3514811377440561e-003
      5.6104935424875508e-003 9.1966518949225841e-003
      8.2340805047031142e-005 2.8877436459327041e-002
      -1.4801181143493393e-002 3.9398692812095813e-002
      -1.7280744925629501e-002 -1.4046935521941570e-002
      -3.4396880468658894e-003 3.5028552228872266e-002
      -2.3117292514718255e-002 3.0143910307362902e-002
      1.0015693490059350e-002 2.4588249279779936e-003
      -1.3833995236187601e-002 -4.1185279495197383e-003
      -1.5991424478393395e-002 -2.6092768553553875e-002
      -9.9973894248115303e-003 -4.7120794525809695e-002
      -1.0419230691149626e-003 2.2605373301524102e-002
      1.6433981998276670e-002 -1.5613931689439102e-002
      -2.1009648263944592e-003 2.5966580204949540e-002
      -1.0134411840158000e-002 3.7678703489594949e-002
      3.2586518686179455e-002 6.3544161110368922e-003
      1.8488439281315276e-002 2.8547529401051871e-002
      -3.9011868032656404e-002 6.7277089186495668e-003
      -7.0057789739462637e-003 4.7786045791230018e-002
      2.7249256401878679e-002 -1.8336558562258916e-002
      -1.3770236253817906e-003 9.0031677242902244e-003
      2.6320105009728093e-002 1.8389674446196588e-002
      1.4895152766596333e-002 1.4172577086428016e-002
      1.9712628590995138e-002 -3.2564212708540451e-002
      -4.7874285041023770e-002 -1.8626562910020238e-003
      4.7529782313745196e-002 -4.3196395168673310e-002
      -2.1742765348006964e-002 -9.8955747827660454e-003
      1.3678567661891185e-002 1.1798417649278609e-002
      -4.5476229087987118e-002 -4.0132387972713700e-002
      -2.8119353783385027e-002 -3.4149314611477702e-002
      5.8051624523224443e-003 -2.5255705273992644e-002
      -9.5144109240338781e-003 1.2865063471653441e-002
      6.7956234042122652e-006 4.2036380400525764e-002
      9.0401485570519319e-003 -1.0471786796927238e-002
      -2.7784541609772829e-002 -9.5564710906736270e-003
      6.8894746057595832e-004 1.8691852860864101e-002
      6.3134952788537341e-003 4.9354732756301820e-003
      4.1156068377525071e-002 1.0908075776332004e-002
      3.2148782800781157e-002 -1.6704747577128955e-002
      4.0685722436873344e-002 -1.6077846045667397e-002
      -1.7050067868054172e-002 8.3932775573731828e-004
      2.4353925565291554e-003 -5.4314408866351860e-002
      2.2404123174182784e-002 6.6811606844219542e-003
      5.1084283242904254e-004 -1.4232832366616066e-002
      5.9197134720022169e-003 -3.2311292847762581e-002
      -1.1727023943707770e-002 -2.1260632255497298e-002
      -5.0710084469332922e-002 -1.5698217786984436e-002
      1.8853682090889536e-002 3.7980144577025479e-003
      -9.5378180601763153e-003 -6.2614727451252444e-004
      3.4299121401689246e-002 -9.9127611315859756e-003
      1.5336551857837308e-002 3.5896460489403689e-002
      6.4023803318442769e-003 2.2858930608546425e-002
      9.7180506303645112e-003 -3.7773721129489304e-002
      8.3259322364844270e-003 -1.8894031157049251e-002
      1.5267848937930442e-002 1.7919612550854287e-002
      -1.0795860594594739e-002 -6.6351305381317557e-003
      4.4543292574245651e-003 3.0650209203813849e-002
      8.3091735936571490e-003 1.3288804874469835e-002
      5.3252237860026089e-003 4.1649345914783259e-003
      -2.8842265605121448e-002 -3.9911805164568367e-002
      7.5206751349439277e-003 3.2683957080043395e-002
      -3.2208524538500483e-002 -1.4472659541584366e-002
      -5.4413484309496782e-003 1.3764569381908594e-002
      7.1305897286019354e-003 -3.2304073149585069e-002
      -4.5933773417646546e-002 -2.3501015483995795e-002
      -3.4817127323288052e-002 4.9936326842337266e-003
      -2.0583366181935809e-002 -8.9851107819113995e-003
      7.8017310128779905e-003 1.4925453236118972e-004
      5.4824787724738151e-002 5.4341401239189312e-003
      -6.4341937125947692e-003 -3.4926416482950549e-002
      1.3144046246940956e-003 8.7650329038278275e-003
      2.3331557373930251e-002 1.2923089331334533e-002
      3.6309022149673973e-003 5.0048675202113375e-002
      1.8353302687191167e-002 1.8943195531289109e-002
      -1.5079976278414033e-002 3.9861705429273642e-002
      -3.2952776966499460e-002 -1.4376736785836746e-002
      -1.5888551757429841e-003 3.7860546773158376e-003
      -3.3134523389180687e-002 1.4462455660103844e-002
      1.3437083249564096e-002 5.2424645326549025e-003
      -3.2303667300650193e-002 -4.1687035547623647e-003
      -2.2294496894079967e-002 -5.7662904936998582e-003
      -2.4417662348215144e-002 -4.5841772526630888e-002
      -1.8891500893986404e-002 2.4402162807489587e-002
      1.3349390307360924e-002 -1.7364378765117375e-002
      -8.9384461114053494e-003 2.8126156864602285e-002
      -6.6948375617024297e-003 1.2437676013898200e-002
      4.3860403702568884e-002 1.5214500272331422e-002
      1.2074612040720413e-002 1.0208228499811629e-002
      -1.8061113615404432e-002 2.5377474996852219e-004
      -1.1165172386682987e-002 5.1578840854934596e-002
      6.3657741672071069e-003 1.7422528775973417e-002
      -1.2000922017107039e-002 3.1525419593851803e-003
      2.1264201464710267e-002 5.3666841016008831e-003
      4.0959843155099408e-002 1.9994161548450358e-002
      -2.2087522129599821e-003 -2.4558015018504402e-003
      -1.5679293826961795e-002 -1.3960132820413976e-002
      3.3317125518756964e-002 -8.8514741465487382e-003
      -1.8322124229111635e-002 -1.1036462428238867e-002
      2.4440928387249425e-003 1.5914593617478493e-002
      -1.1074389110196575e-002 -4.3267276593813520e-002
      -2.8697680595991107e-002 -3.5304800358657060e-002
      8.3473071732358736e-003 -4.3214974662467889e-002
      1.2966822336216290e-002 1.1721878022657905e-002
      1.0937119674084271e-002 3.1826073255036072e-002
      3.0133777956244043e-002 2.9165735233577499e-003
      -1.0370609708167717e-002 -6.7348170519360255e-003
      2.7480813487127748e-004 3.8947923339807407e-002
      2.2356868431460022e-002 -3.8993964744250442e-003
      2.8533607932219950e-002 1.9415056362195360e-002
      3.2016360983975402e-002 -1.7480813747688517e-002
      3.7752617676394533e-002 -3.6430417405042180e-002
      6.7649053592103185e-003 1.3772474175491362e-003
      -3.4453651864463052e-003 -1.7215484480849537e-002
      6.5906637829551702e-004 1.8791489949493056e-003
      -3.8241096239696568e-003 -1.8023821056103183e-002
      8.5593207123337064e-003 -9.9997417726153449e-004
      -7.5642810015299957e-003 -4.0804004952606603e-002
      -3.0073416521982321e-002 -1.5634240132830365e-002
      9.0626362316408582e-003 -2.1368076307007187e-002
      -2.5443671019667942e-002 -2.7913139043254917e-002
      2.9008398608408082e-002 -8.8830343248297837e-004
      7.0315582466527991e-003 2.9679403075619015e-002
      3.2257802415395502e-003 -2.2607166523169023e-002
      -6.5836417043443180e-004 1.6388290058974193e-003
      5.2413892554482788e-003 -1.3268544447517237e-002
      4.8821459760521345e-002 1.6427365011495904e-002
      1.0630915795755005e-002 -2.7418019592823514e-002
      4.4645999271382148e-003 4.6985464811437117e-002
      1.7043233214335617e-002 1.2512702647399667e-002
      9.8960454594278022e-003 -1.6752995532187984e-002
      -2.3452633984830454e-002 -1.7156415041673142e-002
      3.0760596469951531e-003 2.6542694024433988e-002
      -2.6654106374207901e-002 4.4180713760309034e-003
      -1.5497772821436362e-003 -9.9788519679882264e-003
      1.2562874081403788e-002 -2.0650512499065434e-002
      -3.0457855318452628e-002 -5.0677123995680464e-003
      -6.1207414194489447e-002 1.9413539021111249e-002
      -2.1437918732209810e-002 5.8800117331155380e-003
      6.7961940712357354e-003 1.2725852574631560e-002
      2.3590824243595990e-002 3.7517208216126800e-002
      9.5535966883720565e-003 -1.4699425002918940e-002
      -9.0858038580201046e-003 3.3546817788740226e-003
      3.6382242648243315e-002 3.1669519079066719e-002
      -2.0623625134716236e-003 3.3688801996335373e-002
      1.6871649994040897e-002 1.4956542496887911e-002
      1.6617465153891113e-002 2.0056838420022784e-002
      -4.2610889538221161e-002 -2.2079435590980907e-003
      1.9470694337654158e-002 -1.8999777569250483e-002
      -4.3574077365072600e-002 1.3760628431318775e-002
      1.2808587434067507e-002 -7.7233907108998677e-003
      -3.6343070507665637e-002 -2.6608548563462702e-003
      3.4121674581506327e-003 1.6852791874649956e-002
      -2.6365280194581828e-002 -3.7720134219214413e-002
      -3.7881919500859056e-002 -1.2012998976777902e-003
      -6.2011915960381876e-003 -3.0021730254625387e-002
      -3.0144630318166804e-002 8.3213274522833669e-003
      -1.0298243305879305e-002 2.3650234839981840e-002
      5.7746161487355315e-003 1.3491757022947115e-002
      -1.0390009522705126e-002 -1.3399328330038315e-002
      9.0744644370016544e-003 1.6868907002066228e-002
      -8.8259171080625441e-003 1.1107603306817902e-001
      -2.0720043357647797e-002 1.0880720377712583e-002
      -3.6190586507008016e-002 2.9871093378584989e-003
      2.4350293741121305e-002 2.7689998659313764e-003
      1.8995285399894452e-002 1.4527582618237219e-002
      1.4336494330618873e-003 -6.5828502806302121e-003
      -2.6170678266965442e-002 -2.3094129905853893e-002
      2.1972240758168095e-002 -1.0767318460297754e-002
      3.4902508794800224e-002 -3.2316453125238495e-002
      -1.4193172537368617e-002 2.6722592375894985e-002
      -2.7097263110886626e-002 -3.8946474204310563e-002
      -2.0657542004908363e-002 -2.5236269810072012e-002
      1.0568924901709463e-002 2.0641327907105420e-003
      1.2901188157359760e-002 -1.4234490068579322e-003
      -8.0983514196253693e-003 1.1385727042343939e-002
      3.4881665657940854e-002 3.4667482449624580e-002
      -1.5015150539843290e-002 1.9767145557417931e-002
      -9.2574281042288199e-003 7.5960722383043170e-003
      1.0865704546719944e-002 -9.6930557419607020e-003
      4.9543660070042364e-002 -6.8261183560717146e-003
      -8.7760112346321768e-003 5.8503905464210703e-003
      2.5450457849655838e-002 -3.2271431151736932e-002
      5.0379732882742962e-003 5.8762096311496511e-003
      -1.1943671722767290e-002 -1.5508144819256170e-002
      2.2075748288450589e-002 8.5426691586619214e-003
      1.4413214040849472e-002 -2.5719757511872787e-002
      2.1621798241415698e-002 -2.2119487608536086e-002
      4.5587553147223236e-002 -9.8905241216765416e-003
      -1.1660976096214535e-002 -3.5311833762277395e-002
      -1.4211140040062162e-002 -4.7298814840391203e-002
      -1.7585250846801372e-002 -4.3358393024585870e-003
      -2.4650497015487657e-002 -6.0380042345081382e-003
      1.0723294565943939e-002 -1.1401126267372240e-002
      -7.6557455416855994e-003 -2.3849661737810560e-002
      -5.2373242944070329e-002 -2.0464329019547034e-002
      5.7395835857037441e-004 -4.7687213916352382e-003
      6.0034542977122296e-002 -3.5000314297213071e-002
      1.4979367992800396e-003 5.8803839150525323e-003
      -3.6148461678901693e-003 -1.3281504399596078e-002
      -3.0423589496766362e-002 -9.0754798431223705e-004
      6.4495239586940839e-004 8.0456884140091157e-003
      -1.9326075728478342e-002 -1.5413403643568694e-002
      1.7378576422453166e-002 1.9828188822281163e-002
      2.8559825193748729e-003 7.0686876955135952e-004
      -1.5788286155477862e-002 1.7074535219450685e-002
      1.5662104847407689e-002 -2.2755684949000099e-002
      -5.0522102789279523e-002 -1.0410650884232864e-002
      -1.4812080920249795e-002 -1.3023964418032807e-002
      -6.5520328673555044e-003 1.1113263796871643e-002
      4.5000645821307228e-004 -7.9807716290669524e-003
      4.8837101570659725e-003 -2.1407089209505053e-002
      -3.8574142197811650e-003 -2.5437507304044812e-002
      4.3656344467997314e-002 -1.2930155340270274e-002
      9.2340479720813377e-003 -1.6772310915362315e-003
      -7.0142453133317829e-003 1.3572955764545664e-002
      -9.5290886254203455e-003 1.0920842309496871e-002
      -3.7853925801501660e-002 3.9547492553926998e-002
      -2.4904118230512706e-002 4.6449965834556113e-003
      -2.1043936383048068e-002 6.5577927180173788e-003
      2.3326722876023196e-002 -2.8332426121101678e-003
      -3.6256256980949282e-003 1.7435823491428158e-002
      -1.8939513640075088e-002 8.6036392127238834e-003
      -1.5542690762568713e-002 1.2364756494496048e-002
      2.7241674948000383e-002 -1.5842582785792512e-002
      6.7754470894342052e-003 1.5488791493452128e-002
      -1.1583204266575341e-002 -6.4115659914717477e-003
      -5.2069326393898701e-003 -1.5652237680864874e-002
      -3.6137369216299335e-002 3.1699986214708000e-003
      3.1079441634866648e-002 5.2971202289546103e-003
      3.1584921314476945e-003 -1.2598659925165031e-002
      -3.0613747341616631e-002 -4.4837831856294745e-002
      -1.8682099397282881e-002 4.6874419064363002e-002
      -2.6245534156768720e-002 2.7209063628728072e-002
      1.0501334692791622e-002 -2.6558080898963200e-002
      -6.0268045157781348e-003 -2.9559478877227166e-002
      -2.0241980380138504e-002 1.0946477391044306e-002
      1.7068778210559708e-002 7.3327391615067583e-004
      3.5833947923786684e-002 3.6908510872716627e-002
      1.0705906705533353e-002 1.0204233411008092e-002
      2.5219943543076970e-002 3.6294223175049142e-002
      1.4324284978195408e-002 2.8705199259982099e-002
      1.4151556572381218e-002 -3.7879306213980252e-002
      3.9653504253519829e-002 -3.4052789388414079e-002
      -4.1988931279283735e-002 4.1215392485159713e-003
      5.0728266078820380e-003 8.7385775249859809e-003
      2.6577224064461377e-002 2.7030351974828361e-002
      -5.5335256993059030e-002 1.0550829623904277e-002
      1.3791600102522667e-002 6.7760401664054254e-002
      -3.5521569363576116e-002 3.6979347773714324e-002
      6.0338797101648918e-002 2.3520088636914283e-002
      2.5040259795446058e-002 -2.6077126913935759e-002
      9.5525284757833496e-003 -3.5600105676215035e-002
      3.7362806708405298e-002 -5.2227754315282100e-002
      1.1283699835269339e-002 -1.1752865610719318e-002
      -3.0228596956660830e-002 5.4259951804533670e-002
      -1.5670180736827771e-002 -2.5877301184041659e-002
      9.3286376903245710e-004 1.7169218980523943e-002
      2.4166345701298171e-002 1.4035582050883752e-002
      -6.6793738947896142e-002 3.6751633439434390e-002
      -6.6169772558830539e-002 1.3568095625273984e-002
      -1.1430738122903768e-002 4.9604887636116582e-003
      8.1664740150852472e-003 1.4912081318385683e-002
      -5.1720326213566620e-002 4.6655844421474224e-003
      -7.5934239509004964e-002 2.9825829876262516e-002
      8.3300670008656236e-003 3.0497525143380479e-002
      -1.3210881889227533e-002 2.0050195918425440e-002
      -1.2041410717448436e-002 -2.8531150487234622e-002
      -2.8293677375476174e-002 6.6154408801254033e-003
      8.5749008234666680e-003 2.2908135061605194e-003
      -4.1652952268601377e-002 8.7359088257785350e-002
      -3.9616177466150941e-003 4.1769034560807938e-003
      -2.1238744242248826e-002 -3.1310814016754687e-002
      4.0457484687494907e-003 5.5784567236788360e-002
      1.7070344258067312e-002 -6.6983262554370954e-002
      -1.1049419370399933e-003 2.2781110898930548e-002
      3.0028133620990757e-002 -9.5508423397208421e-003
      -1.9577705331868249e-002 4.4406230218018629e-002
      -1.1795395741515211e-001 1.9589378728470850e-003
      -2.1401301801390444e-003 -2.3358531858692161e-002
      -1.1827641538271018e-002 3.9612093909967484e-002
      -1.2547057139881275e-002 1.2169542390106919e-002
      3.9968587100474150e-002 -5.8701957090609512e-002
      -1.0613566885262930e-002 2.2951774107098252e-002
      3.9131937162049289e-002 -8.4756152771918707e-003
      5.2431816834924885e-002 3.7099364567809101e-002
      2.2918810479655362e-002 2.0655830888793632e-002
      -8.4911835551937133e-003 -4.4186825589745717e-003
      2.0100438278464805e-002 -1.2733681663055236e-002
      -1.1969014887837626e-002 6.5150225161114987e-003
      -2.9112569303329770e-003 8.2124669879028601e-003
      7.4842880509266033e-002 -4.0413201333648743e-002
      -1.8547708135780976e-002 3.2578730395375240e-002
      2.0576316671049168e-002 7.8579293948072802e-003
      5.6149037371091261e-002 -4.1783779796403742e-002
      2.2043110999193621e-002 -5.1407433100519699e-002
      1.9937933065996890e-002 2.9393261047469727e-003
      3.4414779344850732e-003 -2.1528346018942112e-002
      5.7532920952848036e-003 -3.8937510702305958e-002
      1.8448453414307764e-003 -6.4036920390232913e-002
      2.8688716409944699e-002 1.5585015646792679e-002
      -1.0500414924281621e-002 -5.0706480879538322e-003
      4.6122731619096198e-002 -3.3079046610162109e-002
      1.3493052898486974e-003 -4.6789493697921621e-003
      -4.4294990888884824e-003 2.7137525926839360e-003
      -7.8663643944641373e-005 -4.6836504848198077e-003
      -3.4498204770849906e-003 1.2180863294188823e-003
      -4.2906359919444295e-003 -1.9449909752313917e-003
      2.9909704882622433e-004 1.7768484712696012e-003
      3.9951902542655028e-003 1.1874384443957414e-003
      3.3425340597871046e-004 3.0630592397158430e-003
      1.1239385831826201e-003 -2.9405788540911868e-003
      -3.2177526068619768e-003 3.7767380277239546e-003
      -3.4675452741078131e-003 -8.9219784239875455e-004
      -5.7023583401520390e-004 -2.3245408346488127e-003
      7.8861987990807984e-004 -2.6117477508819918e-003
      4.4356991975370123e-003 -3.5855366667424528e-003
      2.4216811053808509e-003 2.4287684686802964e-003
      2.7077570236381881e-003 4.8927980192230418e-003
      -5.0627460253129214e-004 -8.2243414458874661e-004
      2.5728529540919240e-003 1.8187054090596018e-003
      2.3956193096730331e-004 -3.8636385632149460e-003
      -4.8682135780117337e-003 -4.1984235093635398e-003
      -1.6803219807217668e-003 -3.4061417460952812e-003
      4.9303575057924555e-003 1.0322625298978424e-004
      2.2275771015580078e-003 -2.5292348987189981e-003
      2.4335818592757185e-003 -4.8476726635895678e-003
      -1.4213231652305465e-004 -1.6844398816169908e-003
      -4.0788173174394958e-004 8.0061329825606268e-004
      4.2907483303621192e-003 -3.8245926103690838e-004
      -2.9161431362819887e-003 1.7391460107321743e-003
      -1.4994083285473103e-004 2.5491722647163068e-003
      -3.3439278421429734e-003 -1.5079500660636924e-003
      2.4652123616214391e-004 -3.3589499216226193e-003
      4.1785198447804881e-003 2.3784550632362369e-004
      -3.3128719365588854e-003 4.1467892886423519e-003
      4.5300244791053922e-003 1.5730352711142486e-003
      4.2464399949260689e-003 6.8564299380608807e-004
      -4.4734233043846102e-003 2.3035674316445381e-003
      4.0542044688994441e-003 -2.2050087471490033e-003
      -3.8082310452576267e-003 -1.3242387019078762e-003
      -8.5703240788172647e-005 4.1790232745207424e-004
      -4.3859117789445184e-003 -9.7886432217794654e-005
      3.8096315466101534e-003 1.3166832152260739e-003
      3.9001798040830911e-003 -8.7691322855022106e-004
      -2.2334106748155705e-003 2.1387270353332285e-003
      9.4741477303509790e-004 3.2776809843691511e-003
      2.5597349874420259e-003 4.7629358835966406e-003
      4.6522053134242366e-003 2.1436730477212740e-003
      1.3837672011595039e-003 3.9629123883329681e-003
      -3.4570566913050115e-003 -7.3036556521611780e-004
      1.8337400409721544e-003 3.0219425674972073e-003
      -1.5074255485661866e-003 1.7534316582259201e-003
      3.9830719100564715e-003 -4.5698646951901822e-003
      -6.9498440742623939e-004 9.0902932686618776e-004
      -2.9508905783461525e-003 9.8938735833807253e-004
      2.5705384226829189e-003 -1.8384329511515489e-003
      2.8037539685193034e-003 -2.3221290729142862e-003
      3.6590683656271641e-003 4.4210986381445945e-003
      -1.9563056610467080e-003 -8.4975820291929469e-004
      -2.1582372773941076e-003 1.6586959104027813e-003
      -2.9541098831063002e-003 3.1393123480079883e-003
      -1.4527274982215194e-003 4.2888376479896214e-003
      9.1682784693748233e-004 4.1888922583394831e-003
      1.1607947752610213e-003 3.6248578324600644e-003
      1.6688871508270049e-003 -1.1319837821455296e-003
      1.4170945042756454e-003 3.7609660191393352e-003
      -2.2091600413880314e-003 3.5484135709873761e-003
      -3.1486441220529905e-003 -2.4051165621599927e-004
      4.2556117191602134e-003 -4.5844282996170055e-003
      -3.5405616062984678e-003 -4.3628375376788212e-003
      1.7787263956908302e-003 -3.0177816311435205e-004
      3.0163448924826496e-003 -1.1833579501520056e-003
      3.6598303789603316e-003 4.0435933906859513e-003
      -2.0736736152141746e-003 1.6551133786201885e-001
      -7.1879126985206973e-002 -1.0076810036336091e-002
      -1.8049299701977047e-002 -3.8858670094259976e-003
      -9.9950798788668818e-002 -4.6650416774171817e-002
      5.4511877042767026e-002 2.3743759043715562e-002
      -9.7896756347924316e-002 7.3499819632324992e-002
      1.8633032099532838e-002 -4.9545098943646476e-002
      -3.4910282526996510e-002 7.5882724217824049e-002
      8.1847964934707099e-002 2.4604263653140487e-002
      -5.6367265144545257e-002 4.8525021662941259e-002
      4.8646685124913901e-002 -3.1308781950100631e-002
      8.2542075640018073e-002 -6.0579062164910193e-002
      2.5838458644450054e-002 5.4050093940101691e-002
      1.7042951835094486e-001 1.7124834434411602e-002
      -1.3956139461782771e-002 -6.5732891393462334e-002
      3.1482586357442326e-002 7.0344698956741961e-002
      1.9353147547092654e-002 6.7482522171151207e-002
      -3.1727059162703172e-002 -1.2907051952952353e-002
      3.0176974808000294e-002 -5.8146203872378129e-002
      1.3699832418718130e-002 -6.0306306173765943e-002
      -4.5902419552937980e-002 -1.9493883242730457e-002
      -7.8647293084898984e-002 -4.5250676170671592e-002
      6.9913832048527677e-002 1.1760483456424069e-002
      -1.1815142830965870e-002 7.1959108484845102e-002
      -6.8854649755612812e-002 -7.7003275960236553e-002
      3.6173085773698405e-002 -4.7515657194853074e-002
      -8.9094337189048241e-003 3.9275635655913799e-002
      9.8255702874206888e-002 3.5552452747533360e-002
      7.8033546068076901e-002 -2.3164684839236574e-002
      -4.8549968303664620e-002 -5.5500404418817817e-002
      -1.1746485336848522e-002 -2.6540096320778906e-002
      -1.0188884528843195e-001 7.8555093462184800e-004
      -1.7457566254359947e-002 -7.2527376122587153e-002
      -2.1959791059360415e-002 -1.4668846315338471e-001
      -4.4476406287307306e-002 -3.0662590911695081e-002
      -4.5571790405407028e-002 6.7291163467390058e-003
      1.9262674074114902e-001 -5.8710400395493585e-002
      -2.3445325182840280e-003 -4.4006679520150568e-002
      -1.3255148860080892e-002 -8.0728688026330972e-002
      -3.4141876390521041e-002 5.4653365705099821e-002
      3.3621855727278237e-002 -8.9653668122241487e-002
      7.3639671547435767e-002 2.9718982518272458e-002
      -6.5828454051065938e-002 -2.0862462792938699e-002
      7.3674879250238953e-002 5.4868018912854415e-002
      5.1600986021691532e-002 -4.6626446706284332e-002
      3.8922764360012838e-002 5.9299780335329448e-002
      -3.3779553307998617e-002 5.2485492421939173e-002
      -6.5473471648136522e-002 2.0731205073144188e-002
      3.8053991912471573e-002 1.2382548045679316e-001
      1.6404613014983162e-002 -1.0701404121971007e-002
      -5.8899933905855538e-002 3.0435089279951356e-002
      6.9352469025003499e-002 2.6481094991611994e-002
      4.8787482713791824e-002 -1.9100262736337727e-002
      1.8471508637180802e-002 4.3865932037433344e-002
      -4.4794770258555168e-002 -1.3827369760858146e-002
      -5.0863162943949193e-002 -3.0898269496061257e-002
      -8.2363365316054805e-003 -6.6507702686221873e-002
      -5.0030264494613598e-002 5.1320178353987889e-002
      1.5689503296180535e-002 -1.3154344765852090e-002
      4.3613766542859950e-002 -5.4197914672253350e-002
      -6.0232163093027882e-002 2.1393237323978787e-002
      -3.7602884991943308e-002 8.9974613395668278e-003
      2.4972174012318788e-002 7.9907112830320370e-002
      2.0098849657697170e-002 6.3944705598361323e-002
      -3.9427408636854476e-002 -3.8478157102511928e-002
      -6.1139417179743090e-002 -8.4060659326502338e-003
      -2.5722166500583395e-002 -6.4421170820522303e-002
      2.1850313920443429e-002 -1.6943195553288349e-005
      -4.8806313220103099e-002 -8.6496426929592359e-003
      -1.4038004431430412e-001 -8.9493568021012659e-003
      -1.2299522282262491e-002 -2.3399242969941005e-003
      1.0028303082343882e-002 2.0917521164816846e-001
      -1.8945593128333410e-002 -2.8709269838680867e-002
      -1.4017146270829391e-002 1.1945543746076670e-002
      -7.0631138641375366e-002 2.9571781825467370e-002
      5.6431792205114691e-002 2.4444531052121500e-002
      -4.6409193066445802e-002 5.3430644481847603e-002
      5.8408507965458751e-003 -5.7897996378915885e-002
      -2.1332380850958545e-002 4.2974971219838030e-002
      3.7994014840962112e-002 5.4944541034753899e-003
      -6.1029016320454092e-002 4.8087855387862859e-002
      1.7820656235514780e-003 2.9358472941557013e-002
      6.8811287204446583e-002 -7.6144025647164063e-002
      4.9695553451720748e-002 2.5887170692939287e-002
      7.4120269049306783e-002 -1.1630885104278644e-002
      -1.6977934873811214e-002 -1.1297410700274346e-001
      5.6216978534110194e-002 4.5202053532001657e-002
      2.0580181462562300e-002 9.0299411605201645e-003
      -2.1443795890134662e-002 -1.6397649521002037e-002
      7.1126806471739842e-003 -3.0517481033948683e-002
      -2.2820758827428528e-002 -2.7155090460033979e-002
      -2.0738534671508477e-002 3.8250435625342034e-002
      -6.2767707233316969e-002 -4.6686955551976536e-002
      5.7351337801194259e-002 1.7585137217589839e-002
      -8.0713442755711764e-003 -2.1126240631409610e-002
      -2.1306562318848594e-002 -5.0281429807221473e-002
      2.1604924955189810e-002 -2.8868022108283778e-002
      -8.8752307681101931e-003 -1.3347761446690909e-003
      1.0643708416913622e-001 2.1462210453577248e-002
      9.6848259853232713e-002 -3.8240252521998509e-002
      -5.8213019871417006e-002 -8.1244388008398255e-002
      -3.1377553962387589e-002 -3.2096258397888024e-002
      -4.3041256715070246e-002 4.9518442229063726e-003
      6.1193306973327366e-002 -7.0422776649552168e-002
      -2.4117050946272645e-002 -9.5152662638789048e-002
      4.6925791498903142e-003 -5.5457742328946451e-002
      2.3778026763020363e-002 1.8369182439564577e-002
      1.0526416149347070e-001 -1.1637822560329834e-002
      -2.3358970691153936e-002 -1.1743052446281637e-002
      2.2180473731572992e-003 -5.8870872702809170e-002
      2.9701114496447259e-002 1.1293931194261187e-002
      1.1699460340603388e-002 -3.1427201441092088e-002
      4.9138949579782654e-002 6.8171301109427708e-003
      -2.2803397898714883e-002 3.9051949312530971e-003
      2.3272340610795427e-002 6.1404411991163470e-002
      1.6520817200564818e-002 -5.0709801850979841e-002
      4.8755111860516391e-002 -1.3206825395169486e-002
      5.7597003977263937e-002 7.0600950432579301e-002
      -5.5543271448260885e-002 6.1243316243995823e-002
      3.1175450978424737e-002 6.4405941247474591e-002
      -3.4043148127320948e-002 -1.8402058212179724e-002
      -1.0379355923281604e-001 4.0548360934089374e-002
      5.4502229075913899e-002 2.7452687699047750e-002
      -2.4964143862450886e-003 -2.0643989451057009e-002
      -3.9411520732968337e-002 2.1753380023825908e-003
      1.6941576855605211e-003 -1.6775754284110961e-002
      -4.2293848204329576e-002 -5.2055564092822325e-002
      4.4912537631375225e-002 -5.1281117872652604e-002
      -5.1433451396519288e-002 1.6994499518343580e-002
      3.5134682500507983e-002 -5.2894438278322260e-003
      -1.8841000710975601e-002 1.2773579221417035e-003
      -5.0226767661670793e-002 2.4577975759127912e-002
      -1.5250101683911388e-002 -1.4129167719684204e-002
      1.3645836804993645e-003 8.8365364152420620e-002
      4.9373433733789676e-002 7.4342041047811572e-002
      -3.2265713159078370e-002 -4.6630431319983144e-002
      -7.4793648116263461e-002 -1.2886874241133498e-002
      -3.7571350247612122e-002 -5.3464709126938063e-002
      8.3681324328225420e-003 4.5963995920294355e-002
      -9.6852183885479323e-002 -1.2382098357467276e-002
      -7.3721718472576803e-002 -1.5251111136969550e-002
      -7.5192936327312693e-002 2.3400839345573576e-002
      3.4661014449993582e-003 -1.0712575933732992e-002
      -6.2928670962568115e-002 3.6600321159334828e-002
      9.6593948618402224e-003 -8.9797016819007109e-003
      -1.0243333583728448e-001 -4.0841019893453172e-002
      -1.2556062115765159e-002 8.1073144883692799e-004
      -2.1537980831020188e-002 8.3096698910265207e-002
      5.0724909474388798e-002 1.2127298121614970e-002
      2.0839762084873481e-002 6.2882334176592794e-002
      3.9761804903940517e-002 3.2509240342359039e-002
      4.0443179340777591e-003 5.8318337349300788e-002
      1.8123708934217355e-002 5.4224691870300122e-002
      3.2380722392630241e-002 4.2238229107559823e-003
      8.4654359365864754e-003 -8.8338605549514006e-004
      8.3513767109853601e-002 -3.8201540775553385e-002
      8.5226580679704754e-003 -8.1909299776459929e-002
      -3.9767428223255658e-002 5.0667379745011211e-002
      3.1370907672677389e-002 5.2931159578178337e-002
      -3.5715420858987858e-002 -3.4609682504220134e-002
      -1.3661577219636073e-002 4.3151836754562391e-002
      -4.0171822128423809e-002 -3.5087598349794885e-002
      -2.8401722730955779e-002 -2.8574560805905150e-002
      -1.6900848467015880e-002 -5.8170610339213884e-002
      1.0039941710141664e-002 1.9546890444530715e-002
      1.7427349230123321e-003 6.5532601706792162e-002
      -3.8162559937720712e-002 -6.8495695392432832e-002
      2.4901741971659657e-002 5.4451437531456412e-002
      -9.1223017012742880e-003 5.1043711698131114e-002
      5.2209292119869844e-003 7.2231026947629048e-002
      6.7262897337343572e-002 2.5518172267971834e-002
      -6.6911820496461181e-004 -6.6931609834355421e-002
      3.5967750285880319e-002 -4.7385630676415089e-002
      -6.4557217224688546e-002 1.5872434904084264e-002
      1.2650545426184254e-002 -5.6963119584121903e-002
      5.7544454857316428e-003 -4.3847790793918387e-002
      -2.4480883077158785e-002 -8.3468306473077458e-002
      -2.1525253602277146e-002 -4.9113721718269290e-002
      3.8731211076041140e-002 -5.0142739328499220e-002
      1.9877883475551285e-002 1.5686472349234679e-002
      -1.5243612670388644e-002 -7.5622683188886028e-002
      -3.1510753429197590e-002 -1.2489600431448099e-002
      1.3380646937669971e-002 -1.0317380012148580e-002
      7.9278950555307093e-002 5.4148455110887971e-002
      9.2431910565924924e-003 2.6022837993135008e-002
      5.3291137726997617e-002 4.6340659294927852e-002
      2.7526693316603099e-002 8.9793604483325365e-003
      5.0651051660969212e-002 1.7800389880692376e-002
      2.5488189680052852e-002 4.8313234984535991e-002
      -1.4568299231361029e-003 -9.6233782120859843e-003
      4.6099729285923664e-004 9.2365721960765798e-002
      -2.2354414042620927e-002 6.0990786670160196e-003
      -6.6230842448594895e-002 -3.8576227224481494e-002
      3.9604603211349731e-002 4.7245980554738234e-002
      5.5690232076484485e-002 -2.4756279978650958e-002
      -2.7853214375307647e-002 -1.6395987173468254e-002
      5.4448831412872066e-002 -4.2476805126241100e-002
      -3.5740166592981709e-002 -2.3214924357964659e-002
      -2.2134926655346047e-002 -2.2438545251463268e-002
      -5.6975832498272122e-002 9.0343338229133231e-004
      2.3503864800639731e-002 1.9887039425627469e-002
      6.0422285989662365e-002 -3.9907638665512279e-002
      -5.7660399464673572e-002 3.3595085850938580e-002
      4.9524776053886416e-002 4.5511552464902192e-003
      4.5400390654055343e-002 -1.8287795106807420e-002
      6.1345976164204633e-002 3.7058905609947033e-002
      1.5501432225612748e-002 8.8403484779015096e-003
      -5.4597707152647570e-002 3.6676382716248845e-002
      -2.5545066098557483e-002 -6.9480259502970029e-002
      2.7329692607296487e-002 2.1327504602391694e-003
      -3.5485412879285048e-002 3.1578420944208020e-003
      -3.0517251054761978e-002 -1.9778816600646919e-002
      -7.7643064348966062e-002 -1.8363630106070703e-002
      -3.3261735234318558e-002 6.3658304962449411e-002
      -2.3341653393027850e-002 -2.3989731134199326e-002
      2.5196291713624461e-002 2.8781138156270387e-002
      -1.3681876523512368e-002 -3.8770792271823090e-002
      3.8085371542839225e-002 2.6334229705177091e-002
      -3.0374032567352511e-002 3.0613186409374649e-002
      4.6313013291514452e-002 -1.7560291368922284e-002
      -2.8622956644422597e-002 1.2612755524593079e-002
      5.6548725642764620e-002 1.3791528303916613e-002
      5.1468795642730181e-003 6.4921844317964994e-002
      1.7636692581731974e-002 2.2706694531814783e-002
      8.2764747409853401e-002 -2.5836913538475472e-002
      1.7064394550229556e-002 4.2799837337155096e-002
      5.3383621558537209e-002 5.5904134257205472e-003
      -4.4227939456838158e-002 -1.1607755865649474e-001
      -3.9864669301158354e-002 3.3696620670000413e-002
      2.5989346122329782e-002 4.4585157210632206e-002
      -4.7651416568109915e-003 -2.9524313079260411e-002
      -6.5940316733195123e-003 -2.8940370435342200e-002
      -9.2983495169998043e-002 -2.2132737623033135e-002
      -2.7884965090573973e-002 7.9518428830208411e-003
      -5.7242617630804599e-002 -7.6928900361897631e-002
      9.5221824545507691e-003 2.1677785405030989e-002
      5.6809510386937129e-002 4.6175178838559504e-002
      -7.4949600726043316e-003 -3.0212192223048807e-002
      3.1676123656562513e-002 2.6760197386127317e-003
      1.1568456554975069e-002 2.3526453859976950e-002
      2.5807876569766654e-002 4.9066064682885810e-002
      7.3056724624016398e-002 -4.4441642977541655e-003
      -1.4615349717975897e-002 -9.4553713792061862e-003
      -3.3845471864951744e-002 -1.0418836916100573e-002
      -5.3884855547028286e-002 -1.6159533263265979e-002
      6.7153001766854375e-002 -5.1622611273979942e-002
      -2.7240849934981947e-002 -3.4971433010890229e-002
      -1.3067943713142185e-003 -2.7072763476529389e-002
      -2.9146984212495775e-002 4.2232546006008960e-002
      5.2571804360680326e-002 -4.0825805982531500e-002
      1.0929115290211957e-002 -1.7392063711220453e-003
      -1.7651956079531245e-003 -6.4476110291912775e-002
      -4.3466920064985912e-002 3.5860905951452235e-002
      2.0604628004553541e-002 -2.4751487674606817e-002
      3.0012816418633539e-002 4.8697293624183347e-002
      -1.4447175388841452e-002 1.1981371674958002e-002
      3.0531177190075316e-002 3.2040073409213346e-002
      2.6527828995324163e-002 1.4205049607681128e-002
      7.7511714291217323e-002 3.6485230932375927e-002
      3.3813972942953102e-002 3.8041317158987314e-002
      -3.7189531428783708e-002 1.1492048171060400e-003
      2.0305049387769520e-002 6.1128621744250176e-002
      1.1264904896662251e-002 3.0750570934530521e-003
      -6.2900723712155868e-002 -2.4683069594466398e-002
      4.0998595722042966e-002 5.0728071827607218e-002
      3.0385190941441650e-002 -2.9632881749377327e-002
      -4.5301638164730179e-003 1.2701844230244718e-002
      -2.4991095105990031e-002 -5.4729723824697478e-002
      -2.4421759709641055e-002 -5.1817154800781629e-003
      -3.9844661112442656e-002 -5.3110336995822759e-002
      -8.4997916470580803e-002 1.4025013799280554e-002
      4.2480840811216398e-002 -8.4965824755448634e-004
      4.9421287815679837e-002 -4.3630984220894828e-002
      -1.6224506028964580e-002 -2.1164643216396020e-002
      3.6074067232679558e-002 6.7299002818644879e-003
      2.7676791305136061e-002 6.9727285710153861e-003
      2.4156164709621130e-002 2.3884498837859178e-002
      6.9073957511068002e-003 8.8911534088510925e-003
      -8.0033854217292401e-003 1.6200815869670586e-002
      -3.3691409508553580e-002 -2.9294199181388998e-002
      1.0765521599311937e-002 3.3610110667272007e-002
      -3.2136463731306200e-002 -8.0738692211464423e-003
      3.4974581637356519e-003 -7.3627613889727089e-003
      -2.5861829386901739e-002 -1.6158063179768700e-002
      -1.2059742212628935e-002 4.8799094918613485e-003
      -4.5772667655913438e-002 1.6650426932074528e-002
      -9.3386985442735237e-004 -2.0133560589388208e-003
      -4.9004154292237867e-002 -3.5579386151645784e-002
      4.6379359658772372e-002 -6.1067945933314556e-004
      -3.5506851975939786e-002 2.7712300585902405e-002
      5.9667403108006653e-002 -8.3934679281300727e-003
      7.0500331624301100e-003 1.4954565860420524e-002
      3.0443746317867171e-002 3.0763187647366970e-002
      5.1848659126567456e-003 8.3714273398276529e-002
      4.1125367597035757e-002 2.8963204640392397e-003
      3.8781527252684925e-002 -6.2248538231374211e-002
      1.1680249161662366e-002 7.4941217417107799e-003
      6.3470025033462468e-002 -1.2271655645639848e-002
      1.5238447588093769e-002 -2.2751856697959032e-002
      -3.3668143028009696e-002 2.3830850778489017e-002
      6.0767210003027580e-002 3.4952287933769331e-002
      -4.1425962952922557e-002 -5.2363011761850028e-003
      1.5822847773337020e-002 -1.7132978437667212e-002
      -1.5082910741702241e-002 -6.4764246991108661e-003
      5.2587706122119472e-003 -2.4163779170679585e-002
      -7.0178508896401121e-002 -1.1604892922623804e-001
      1.3343118916113722e-002 3.7155375017085608e-002
      -6.9927535673155322e-003 6.2101979417830744e-002
      -6.0145265864630371e-002 -1.4287496691169748e-002
      -1.7233124311336705e-002 3.7155842474619449e-002
      -1.5527823151845388e-003 5.6916388641914582e-002
      1.6607521631398003e-002 2.0892408269366329e-002
      1.3250396410192237e-002 2.0600525198975275e-002
      1.5663859999862941e-002 -2.7440767375963410e-003
      -7.6103590246184858e-003 -4.4335942139718157e-002
      -1.7543561680670176e-002 -4.1642193527126501e-003
      9.5191116823591347e-003 -1.7334487874696176e-002
      8.9069969906517311e-003 -1.2178082105063298e-002
      -1.7694198706146771e-003 2.9180930895877071e-003
      -3.0375341560886303e-002 -1.1263762202247432e-002
      -1.2453517230532124e-001 -2.4704474761621995e-002
      1.3079265681083713e-002 4.5585643342964648e-004
      1.7791097519269834e-002 -2.3756457711525226e-002
      -2.7634556717702811e-002 5.2230846565411555e-002
      3.3895046468907807e-003 -6.1359091108286891e-002
      -4.0928732933883123e-003 8.0493210348751121e-002
      -8.7169902699448954e-003 -2.2831221403538512e-003
      1.1326750917288981e-002 3.3409789851268981e-002
      6.0403093802043166e-002 3.5561629845305464e-003
      7.9377818650592319e-002 6.9304497851667132e-002
      1.1664562226897756e-002 3.0652081586142049e-002
      -8.2093505552173707e-002 4.3262548446161002e-002
      2.8519803038792941e-002 3.9068199936301451e-002
      -2.9477848430657849e-003 1.5457865070545192e-003
      1.3967363631824114e-002 -4.2240323365491959e-002
      2.0467047074882391e-002 5.9942771787519833e-002
      1.2612397217743888e-002 -1.4874727752032536e-002
      -5.5643833336517913e-004 4.4586816668683048e-002
      -3.7346262027917167e-002 1.6988623109522337e-002
      1.1167648764719641e-002 -1.7060146461757787e-003
      -1.7340272970253711e-002 -1.0007701087015441e-001
      -1.2976028669154654e-001 1.5249215749406405e-002
      4.5836664183742229e-002 7.6539575830818045e-003
      6.9416070036319680e-002 -5.8498996115815736e-002
      5.1611037898876581e-003 -9.0345892574289280e-003
      -6.1802233343872777e-003 -2.4289714911020416e-002
      7.8060234860380981e-002 2.1603257166136858e-002
      6.9835805611059183e-003 -1.5076668227344488e-002
      1.7098124076467481e-002 1.9040656236578028e-002
      3.0142907502860153e-002 -5.2809547494571972e-002
      -6.4053635469969158e-002 -9.5824894735825512e-003
      -1.5943425219487342e-002 1.6877521006331709e-002
      -7.6767303441707263e-003 1.1795896454170828e-002
      -2.5143632625766021e-002 1.5342309458918041e-002
      3.5767743530712590e-002 -3.6811003947280867e-002
      5.9241019522970183e-003 -8.9569286120233002e-002
      -2.6278092972313344e-002 2.1113741624918278e-003
      -7.9003669467614043e-003 1.0998895543423084e-002
      -9.3350055746194149e-003 -1.4364028396595946e-002
      5.7513140743598257e-002 3.6064110962357077e-003
      -7.3563058207240670e-002 -1.4841171453557457e-002
      9.3109685451039995e-002 -1.8132700238487693e-002
      6.6243334433767637e-003 7.3081381877187976e-003
      2.9204384443056994e-002 5.7024480581213531e-002
      -1.6142914929807600e-002 7.8650778348104078e-002
      7.5879008416070495e-002 -1.5285343453598154e-002
      1.2563374947723960e-002 -9.3000307542485838e-002
      4.3538071006634718e-002 2.5428921564372032e-002
      4.9652247448345725e-002 7.5125125163398926e-003
      5.0353500477353210e-003 5.2554953238354643e-002
      -2.0942154646744884e-002 2.3090485706565283e-002
      7.4830404260879613e-002 1.4393541725539567e-002
      3.2548321294807985e-004 1.4439499388957753e-002
      4.5526051136319128e-002 -3.3027665839021468e-002
      6.1387494118475439e-002 1.3227781160426199e-002
      -1.6399843868482634e-002 -1.7623101908277372e-002
      -1.0638122464397905e-001 -1.4703798417492550e-001
      3.3881116101812016e-003 4.1898160019194511e-002
      8.6789521172915660e-004 5.3886598393914728e-002
      -6.1715772800123900e-002 8.9263922322549826e-003
      -1.1664644433677618e-002 -4.5206556127545323e-002
      -2.2638792588675388e-002 8.1510369050979706e-002
      4.3696997452634674e-002 -1.6524470776349665e-002
      -2.6171456959781510e-002 1.2332137371923290e-003
      2.9985406389226692e-002 3.0005539188846953e-002
      -7.4753939269334005e-002 -5.8203286468249092e-002
      -9.3560938397120024e-003 1.0545204001990624e-002
      -1.5063527597185569e-002 9.0525632167318820e-003
      2.0355854044392618e-002 -4.9118036382505226e-002
      2.2111237063749432e-002 4.7234294400585339e-002
      -1.4739357681121664e-002 1.5167377691769270e-002
      2.3025383661464831e-002 -1.1630940219167571e-002
      -3.6137130304826487e-002 -1.1437291042835081e-002
      3.8177908898268269e-002 4.0619812397222925e-003
      -2.0923906363717832e-004 7.4584410251332472e-002
      2.2224438400974721e-002 -8.3819574069646297e-002
      -4.1207825233699348e-002 8.7873188519315665e-002
      -4.5653117905915162e-002 8.5217631007772701e-003
      -2.5214467487277164e-002 1.1060635359716114e-002
      3.3357357754619101e-002 -4.6278242718035954e-002
      9.3687564417378993e-002 6.2080427836296588e-002
      -1.9954805150082171e-002 1.2702685489065009e-002
      -1.3712956193603196e-001 7.6649753967293122e-002
      6.6120187660385105e-002 3.6848423291482371e-002
      3.6119396685780458e-002 -1.6434050910909881e-002
      2.3275125705840886e-002 1.3921933216408012e-002
      2.6593475258404973e-003 5.9945828030474733e-002
      -1.2571979512407228e-002 -1.0477963106146838e-002
      7.2841054267631785e-003 5.2496978331676318e-002
      -6.1654655875540657e-002 3.6417654209126536e-002
      3.6223394145734070e-002 -3.0997458221129568e-003
      1.8353752936367526e-002 -1.3041011984835496e-001
      -1.5257321896410583e-001 6.9845458852455375e-003
      4.6643867280645290e-002 2.6090285886380166e-003
      -5.1666078427393255e-003 -4.2612498336775564e-002
      2.3696271714842176e-002 -1.8569304782627496e-002
      -9.5680156037092012e-002 -1.0065057324308391e-002
      5.4118922672190664e-002 9.1807220588976349e-002
      -2.8516354175963505e-002 -2.8393473405084152e-003
      -4.1914764161975662e-002 1.2307701890827973e-002
      6.2879571892891103e-002 -9.4509048729508327e-002
      -2.9101497694606973e-002 3.1751857970266778e-002
      -3.3396274250276997e-002 1.1162381544625160e-002
      -3.9021314852534530e-003 1.3433887235047993e-002
      -5.2337597306572343e-002 3.5252647847824281e-002
      7.0789689631908528e-002 -1.7122363870731663e-003
      5.2848769195329215e-002 -3.5296658920783541e-002
      -3.3491612211477936e-002 -2.6212143757490605e-002
      4.0390683129645370e-004 8.6349180056120422e-003
      -2.6956368081342243e-002 5.7657144855553406e-003
      2.3821394871421014e-002 4.2661419389716885e-004
      -6.3143305746137843e-002 -3.6695818362699362e-002
      7.0304008747799296e-002 -2.2861146629065982e-003
      1.9246400618574806e-002 -2.2208175577593061e-003
      3.1669021287894707e-002 4.0022605583266077e-002
      -2.8446678567785065e-002 7.5379527686020173e-002
      5.1683447768600330e-002 -2.3451375620471643e-002
      6.3579703313349657e-003 -1.1296828798448301e-001
      4.6415848522246783e-002 4.4518682430280641e-002
      2.8472084452353549e-002 1.8834424956807504e-002
      -2.6531974276752151e-003 6.2602425495287203e-002
      -2.8171502108437607e-002 1.2031933434550449e-002
      3.3331318793522753e-002 2.4459370525858296e-002
      -1.0911437325829615e-002 8.0873172986334167e-003
      4.8947301321644494e-002 -3.1785557813633333e-002
      8.2704627518207369e-002 2.7294453051473653e-003
      -2.3938259205363702e-002 -2.4064614403106980e-002
      -7.6970898578522157e-002 -1.5148624596398411e-001
      1.2726809524004781e-003 7.8369363328760974e-003
      -1.3975264578521433e-002 3.0143358852064588e-002
      -5.3594564159429460e-002 9.5055721278854075e-003
      4.5371571902011699e-003 -6.8456092154452461e-002
      -2.4022864887312635e-002 4.5292339976261461e-002
      5.7233463325677532e-002 -7.4739187658556215e-003
      -3.4831806673125264e-002 -8.0870674765100275e-003
      1.5531485843482812e-002 2.8835742335715075e-002
      -5.5119921317915578e-002 -1.6291938202032522e-002
      -1.4411211749063986e-002 -1.3547538360393494e-002
      -2.5320518387441013e-002 1.4000617755357761e-002
      1.4602741717331049e-002 -2.9425837919796891e-002
      2.4640579461157629e-002 1.2647953171836838e-002
      -1.3371471479901613e-002 8.2455223729135749e-003
      5.8478243326064640e-002 -4.1023128195266885e-002
      -1.8312530765577401e-002 -1.6488549560412721e-002
      -6.4324262695926327e-003 -1.5450044975240591e-002
      -4.8702070931774489e-003 4.9608892764435919e-002
      5.1444151049770681e-003 -5.7702506099774072e-002
      -1.7783577791095444e-002 5.7539663395274526e-002
      -1.1466990593634801e-002 -2.5124728759215016e-002
      2.4480531258157769e-002 9.4400202379479291e-003
      2.4592090864263314e-002 -3.3033252247305613e-002
      5.4941839487891268e-002 5.2061166062487903e-002
      -5.2028547990826131e-002 -1.6855095866507869e-002
      -9.0802088013393567e-002 1.9105711992035684e-002
      4.5873221868546400e-002 2.4089162248606400e-002
      2.9371765464320975e-002 -5.5646930774125849e-003
      5.7991903340328194e-002 -3.1099125377850971e-002
      -2.6706767067993268e-003 1.9748610493131809e-002
      3.7418373780297817e-002 -1.5571936571834179e-002
      2.6390640605200296e-002 4.7632406973027466e-002
      -6.1964918171685507e-002 8.1859435807515549e-002
      2.3078143048133382e-003 -2.3423133543191969e-002
      -6.0885239647296601e-003 -6.5354132712537635e-002
      -1.2800873066236879e-001 2.9760128007159811e-002
      -3.4230432570053629e-003 -1.7172579391348263e-002
      2.2314579209722851e-002 -4.8731345057432207e-002
      -4.5472639415484644e-003 1.0203430585456518e-003
      -7.1746285000724927e-002 4.0077179769393966e-003
      2.5663595652367463e-002 5.9833699070001689e-002
      -8.0274282787358726e-003 -1.1549309120545109e-002
      -1.5189294960812259e-002 -3.2522424804894952e-003
      9.1507425251800677e-003 -3.8741456079495987e-002
      1.6315019999468228e-004 -2.9133317157510655e-003
      -1.9398561900151018e-002 1.0846253312459699e-004
      6.3490211841495496e-003 9.7954424251292666e-003
      -3.5079251382996876e-002 1.8738536459484541e-002
      3.0686079887183131e-002 -2.1269383873577387e-002
      2.1960272047161007e-002 5.3280770108974251e-002
      -2.6606100020487099e-002 -3.3492656887573601e-002
      -1.7844016702813398e-002 -1.7696284025097354e-002
      -1.2570509440666922e-002 2.4733208814352935e-002
      5.2514278277452253e-002 5.7147864669420756e-003
      -3.5636990104989240e-002 -7.2090672351236762e-003
      1.2039882877773101e-002 -2.6594074979570052e-002
      -4.0048278009339404e-002 3.5613298655648391e-002
      2.0624537838907369e-002 1.9007504790308473e-002
      -3.4486641636624363e-002 2.6946618085549996e-002
      4.1075725753138025e-002 -7.6804127868963581e-002
      -1.0319657069938185e-002 -5.3457764417261397e-002
      1.8933000980874947e-004 2.0774416300084402e-002
      3.9091153691567050e-002 3.7116293046844848e-003
      -2.0121280137317794e-002 8.8091581102697630e-002
      -4.5590757615129311e-002 1.0869343408849104e-002
      1.2287192158187275e-002 4.3655418013321137e-002
      8.3002936712934920e-004 3.4943127127284819e-002
      1.9669379225387518e-002 -5.2515847573758635e-002
      1.2796283069560119e-001 -1.4247213599188055e-002
      -4.0258497610189563e-002 -7.9711285192762549e-003
      -2.7926897065771561e-002 -8.7733452258327169e-002
      5.0910573190278967e-002 -5.2244277177915992e-004
      7.3963442780849535e-003 4.3682860732189889e-002
      -3.2040690232796418e-002 -1.1563323003611382e-002
      3.9454964854458638e-002 -3.4635174852501401e-002
      5.6965840780598331e-003 -2.5413668923440477e-002
      3.4573670717051939e-002 -2.5370169369682547e-003
      -1.6043505436631449e-002 -1.9369279113651443e-004
      -3.0190164263785024e-002 -4.3012813828092925e-002
      -1.0621149579647630e-002 6.5849696665424276e-003
      -2.3280405708954954e-002 4.3650528736075417e-003
      5.1902933564506254e-003 2.1383951510807374e-002
      -9.7019594070884129e-003 -5.0865613064997983e-002
      8.8650401350818774e-003 -3.7755284659824466e-002
      -3.6724938887294396e-002 2.8751262924269533e-003
      7.3413235258652454e-002 -5.0741206547010873e-003
      -4.3581097286620775e-002 -1.3078261829749674e-003
      1.2523548327721110e-003 2.1679951930579523e-002
      -3.2270989729751118e-003 6.5605230204515572e-002
      -4.5469772961335957e-003 -5.0499077913303284e-002
      -3.9680244006442961e-003 3.0232225772975765e-002
      -2.0353163768401808e-002 -7.5948927289183524e-002
      2.7883761169031268e-002 1.2728047991408030e-002
      1.2355463792530743e-002 -2.5677613195730170e-002
      -6.7901528299920003e-003 4.1358623022764718e-002
      -9.8162804874018503e-002 4.8786557416924357e-002
      -4.2326275648122337e-002 -2.9683207605466556e-003
      3.9532692108784448e-002 4.9839899619574773e-002
      3.1670426964167313e-003 -3.1011103177097939e-002
      2.3247067699322849e-002 -3.9110303370505736e-002
      -1.5391725630963434e-002 2.3231932568270330e-002
      4.4066890546598472e-002 7.2258699913383285e-003
      3.5242488048834682e-002 6.3207601113903986e-003
      -6.3774643529387595e-002 7.6011873990169884e-002
      -5.8001295137035461e-003 -1.6896737582389871e-002
      1.5978477097353987e-002 -6.2914380952942633e-002
      -4.2560511536814553e-002 5.8855930441611921e-002
      5.0375549724031186e-003 5.5502702853620065e-002
      3.9386988040724692e-002 -1.3925841903821090e-002
      -9.9400715930598928e-003 5.2874105696596237e-002
      -3.9190028741863815e-002 1.1736689500996648e-002
      -1.0053696063421949e-002 5.1135473088962456e-002
      3.1200830960345930e-002 6.0370255622082215e-003
      -6.0787587370316936e-003 -1.7166573017892477e-002
      -1.0195707764849859e-003 -5.2619227760233200e-002
      1.1054508079130674e-002 -2.1736299755706835e-002
      -2.0725248700695535e-002 3.9053940214525781e-002
      6.6965416499059913e-003 -3.8753367978907613e-003
      -5.3256564992293087e-002 2.3681696933759187e-002
      -3.2758615947797330e-003 -5.6563044445835348e-002
      5.6464391913711297e-002 -7.6443538478614256e-003
      -1.6618958676230047e-002 -2.4850153116869906e-002
      9.8309321095517172e-003 1.4818224413691416e-002
      7.2636400678677854e-002 -2.2550275713104462e-002
      2.9035829361787939e-002 -2.3507174334985864e-003
      -5.5077643256741866e-002 -5.0409257599241059e-002
      1.1607820122816680e-001 -3.3171632468427968e-003
      -2.6027331416733523e-002 -5.7427770305686410e-002
      2.3348238417901533e-002 6.1526481702492503e-002
      -3.8046021530137690e-003 1.5276219882753074e-002
      8.4075261006442692e-002 -4.7207915231221725e-002
      5.2476982865841147e-002 -5.2580231116190895e-002
      2.2394150865599542e-002 4.5900686519276306e-002
      7.0961414047106097e-002 -2.4747701975872356e-002
      -2.2605423256607891e-002 -1.7584162896350893e-002
      -5.9491928367013142e-002 -1.3222966326146193e-002
      7.8896653845879822e-002 3.9298882000577483e-002
      -9.7866743830004876e-003 7.0424466615980506e-003
      6.1644327428831561e-003 -2.3796823753352438e-002
      1.5760659991351664e-002 1.1915289187071835e-002
      -1.6534441297632332e-002 3.5901107348558350e-002
      -8.1963215154083183e-002 -5.4765264489995094e-002
      -1.1306253099326846e-002 4.7989268726646800e-002
      3.8247016614781554e-002 1.5103743632954083e-002
      -2.5221978568376328e-002 1.5771324681035703e-002
      3.7698022849640862e-002 -2.5795314728266010e-002
      1.6860997912371809e-002 6.7842485326386662e-002
      4.4640926835896745e-002 5.2084011315734230e-002
      -1.0123063649612166e-002 -3.2500777621311858e-002
      2.1612746361302452e-002 7.3469401927447636e-002
      -5.4921308179839146e-002 -1.9943067984604522e-003
      2.0802913737066515e-002 -2.6071887247144713e-002
      2.8033967351260184e-002 -1.7379469465237624e-002
      1.4952376712933889e-002 -2.6348832230328360e-002
      7.8850699315988100e-003 4.0283644964045288e-002
      -2.4103922401695253e-002 6.2136321234780856e-002
      8.8825499742341690e-002 -4.8344813767455724e-002
      1.7823463612764504e-002 1.4143041258210117e-002
      5.3601600548873196e-003 2.6879775166201748e-003
      -7.3835623403691415e-003 2.2645999423163279e-002
      1.9372454886430687e-002 -5.1212409802249260e-002
      5.1416083974007969e-003 6.3091175090350338e-002
      -1.1029717130083501e-002 2.0190147707556141e-002
      -2.6458353574771942e-002 5.7323080421803785e-002
      3.9433741822463370e-002 -3.2490535579769539e-002
      4.7772146631084346e-002 6.8792950121706289e-002
      3.0509250882860033e-002 5.9282678211327218e-002
      -6.9955591295792624e-002 1.6425082587073297e-002
      4.2159342948032204e-002 1.0599671955023589e-001
      6.3006279449680522e-003 2.4958756745561347e-003
      -4.6364262628477051e-002 -1.1783294831732696e-002
      1.8735829303956585e-002 7.6082110961852314e-002
      3.9066973709561879e-002 -4.9210824150630876e-002
      -2.5096929557251169e-002 2.5168068173760744e-002
      -2.1964295935408978e-002 -1.1146183802768312e-003
      -1.1780341969720694e-002 -1.3788367267639524e-003
      -6.7084307662479553e-003 -5.9654511914344961e-002
      -6.5194719567199438e-002 2.2034228672351403e-002
      5.6607196428416412e-002 1.6016426823703958e-003
      4.3876763569234443e-002 -6.1534239672646575e-002
      -3.4045742466497581e-002 1.4413834272266767e-002
      -2.2624925747234643e-002 2.7924674511555857e-002
      6.4694918307902929e-002 6.2651292868873401e-002
      3.8053591583294653e-002 -5.6052121983702413e-003
      -6.2521239141163044e-003 -4.8833645738488383e-002
      -3.8714154117784161e-003 4.2786676947710088e-003
      -4.4276366851093416e-002 -2.0350382186142314e-002
      -4.9533456556504769e-002 2.2424712236265090e-002
      -4.9231341830765663e-002 -1.5180179884502012e-002
      -4.6773148529651414e-003 -4.4128600814430118e-002
      -2.4730319554318075e-002 -2.7038448504989310e-002
      -1.6982060610358403e-002 -1.7539321922879505e-003
      -3.4635344423030786e-003 3.1350962297579115e-003
      -1.2685192622885204e-003 3.4127855102790944e-003
      3.7262906856386393e-003 3.8387974867066339e-003
      -6.8446600548566292e-004 -1.7017383343780807e-003
      1.0933893825237741e-003 -5.0769724157731882e-005
      -3.3830093635666449e-003 3.0559439401566116e-003
      1.9797527947827851e-003 1.1368185792216814e-003
      -2.5328976291776753e-003 3.0914463092867124e-003
      2.8963006874189868e-003 -2.3425318066443179e-003
      1.6666312855845408e-003 3.3702764647711623e-003
      1.0126568311895833e-003 4.0464834477974207e-003
      3.8949917857341691e-003 -3.0987817178481192e-003
      1.3927949201488447e-004 7.5974954433451127e-004
      2.3434780708560042e-003 2.0425997637354581e-003
      -9.0755468992997392e-004 -1.0364792342909708e-003
      -4.6615524069678962e-003 4.2341289121952995e-003
      1.7747823180023336e-003 -3.2449415867533238e-003
      2.6551059744635260e-003 -4.2696489977182370e-003
      -5.0586509045160940e-004 -3.1838892392222068e-003
      1.9116836203557140e-003 3.4653716641715386e-003
      -3.3207060835128968e-003 4.4087239206603420e-003
      1.8726169276144498e-003 4.0377183257365480e-003
      4.2826200504757841e-003 -3.3176367825905862e-003
      -4.2323428943688126e-003 3.5218008358850732e-003
      -1.1718600984471713e-003 2.9873823636395935e-003
      1.7715616191934511e-003 3.6557650127077047e-003
